101 35	
	 49.80243504 38.06838298 24.66386682 20.8930088 8.631126612 -4.123088447 -0.5052491189 -0.8857751375 -2.085260409 -2.599670426 1.790323352 1.600756509 -1.663925947 -0.4846471241 -1.333873489 -0.5348478527 0.7863547814 -0.5757833294 0.1431282226 -0.3571056319 0.5125295467 0.2882469786 -0.09410033603 -0.2174636441 -0.0837722687 -0.1943723271 -0.01059171596 -0.06138910031 -0.008008687688 -0.0009251847893 -0.08544951637 -0.04538800334 -0.007815849507 -0.00475837444 -0.00248865355
	 -13.02413055 -8.958396673 -5.627715663 -10.44260578 -6.896535702 6.19876622 3.97945425 -2.143124997 -1.537542435 -0.3172787689 -0.2857757116 -0.5783060639 0.92129084 0.3728826114 1.172526162 0.5745045495 -0.8629524752 0.7211896053 -0.1994965362 0.538853185 -0.8062448359 -0.5031540348 0.1702850362 0.4434435982 0.1886395675 0.4410579756 0.02208580085 0.1516029899 0.01649031827 0.005447335803 0.2390553032 0.1335425543 0.02230412065 0.01337653934 0.004530427043
	 -7.888519739 -4.101486997 -4.068848006 -6.471887175 -3.984994458 2.640707736 0.9354062496 0.1617600742 0.9032817328 1.50517026 -1.128195136 -1.069989793 1.092221878 0.3178491083 0.7857708215 0.2774380145 -0.3663756206 0.206668271 -0.02732518528 0.02700037132 0.009120251481 0.08303858491 -0.03978349286 -0.1887572069 -0.1117622201 -0.2774992065 -0.0135469272 -0.1193115399 -0.008739330773 -0.01190838949 -0.2653186996 -0.1637143582 -0.02743185115 -0.01522054307 -0.004181620819
	 -5.187873863 -2.228624903 -3.418871714 -4.215838213 -2.26103305 0.7952866981 -0.3241079224 0.8568360388 1.343436083 1.435437768 -0.8463917054 -0.6379807555 0.4558743265 0.05950735387 -0.009152692169 -0.1105305419 0.2026792605 -0.2484412929 0.08834724368 -0.2617037689 0.4104189865 0.276885838 -0.09481317677 -0.2326788889 -0.08656883032 -0.1867952649 -0.002723784717 -0.04339748244 -0.006982044503 0.009710104939 0.04615428605 0.05074316353 0.0104276106 0.003055619447 -0.0008803862028
	 -3.694499574 -1.522777426 -2.997633561 -2.838862828 -1.203911769 -0.1370056783 -0.8017452489 0.9449992385 1.159036435 0.9427356286 -0.4130316947 -0.1777954864 -0.0693805595 -0.1096424038 -0.4691168307 -0.2789377187 0.4267195184 -0.35920441 0.09189289554 -0.2140265622 0.2774065672 0.07772999588 -0.00603376551 0.1161047151 0.1031006874 0.2902836527 0.01175889334 0.1341195207 0.01148321949 0.006316053708 0.2689108479 0.1513123432 0.02310075833 0.01678955774 0.006364132834
	 -2.766088363 -1.265679099 -2.649519752 -1.931419376 -0.4947782496 -0.6443556016 -1.007548349 0.864662727 0.8804405099 0.4435177714 -0.009635394471 0.2382520198 -0.4957032461 -0.214786577 -0.6510603379 -0.2526596778 0.3110754461 -0.1258720429 -0.01612446155 0.1514381997 -0.3295581432 -0.3511841078 0.1365365919 0.3649975203 0.1219209504 0.2005832815 -0.004464675906 -0.006812519341 0.001217575426 -0.02181927863 -0.381553637 -0.2717379085 -0.04829543838 -0.02914230694 -0.007296333181
	 -2.149529571 -1.120719651 -2.366784427 -1.267324985 0.003341067293 -0.9725338175 -1.120506004 0.7669204346 0.6042266725 -0.03618977176 0.372521251 0.5859512298 -0.7264685107 -0.2048048446 -0.3176539419 0.04691951752 -0.2116701069 0.3724590078 -0.1435175262 0.422039248 -0.6116498011 -0.2214249465 0.02163521585 -0.2572388587 -0.2299934628 -0.6344435949 -0.009961552466 -0.2232367295 -0.01975504926 0.02534796322 0.2311553965 0.2734013921 0.06164395954 0.0339208946 0.004588375335
	 -1.699009808 -1.074599775 -2.132834439 -0.7827363125 0.376804326 -1.168409827 -1.120483807 0.5777071511 0.2214965181 -0.5472156047 0.6546361851 0.6656428993 -0.4449986367 0.01290102628 0.5852784274 0.4471753958 -0.6932922788 0.4813559143 -0.05452101292 -0.1271549134 0.4589874698 0.6475817931 -0.2411949688 -0.4194811459 0.04251484009 0.511258653 0.01802416035 0.3891739418 0.03568615814 -0.02266133217 0.0253288141 -0.2783198488 -0.08865140482 -0.04710331144 -0.001710580325
	 -1.412080111 -1.060233162 -1.849013025 -0.4120921021 0.5404768816 -1.032077196 -0.7534928339 0.2246062633 -0.1603698289 -0.5702275547 0.3700626713 0.1557877678 0.1686371548 0.1421727567 0.470845114 0.1235183215 -0.04146034887 -0.1772756675 0.09887182259 -0.2988035342 0.383011927 -0.08418674975 0.1137909658 0.533129638 0.1584636429 -0.02853332837 -0.01283592964 -0.3535081817 -0.03917425158 0.01799385919 -0.237378769 0.322415204 0.1293015837 0.07016276703 -0.0001993918733
	 -1.17899413 -1.04592071 -1.627323844 -0.1271726218 0.6961686554 -0.9809283684 -0.5482966358 -0.008501806913 -0.4268026526 -0.6240215653 0.199904861 -0.17083381 0.5566664703 0.2108379051 0.3036275878 -0.1092846914 0.3516952001 -0.4522230262 0.1142625212 -0.1264147325 -0.04424168122 -0.381495941 0.145325056 0.1669781831 -0.08071512135 -0.2950578778 -0.003456279577 0.03691590767 0.01506924914 -0.006113878278 0.2864140915 -0.2792534129 -0.1359253348 -0.07889444335 0.001524060742
	 -1.02106298 -1.028337608 -1.396516846 0.07739746096 0.7410989242 -0.8185614007 -0.3096880601 -0.1649714971 -0.4884180392 -0.4364704337 -0.01184460165 -0.3318937056 0.5321150387 0.1276771052 -0.06936632147 -0.2141721922 0.3649389172 -0.2306628541 0.001747445216 0.1799266109 -0.3602752763 -0.0635334676 -0.06564461558 -0.4494579764 -0.1185732373 0.1371097702 0.01307207353 0.2809168456 0.021669478 -0.009383298137 -0.1242721849 0.07439543069 0.07016445945 0.0496681207 -0.002214685354
	 -0.9134135412 -0.9947602637 -1.168712704 0.2138784775 0.6928769793 -0.5893062314 -0.07882904624 -0.2302702486 -0.3805862881 -0.1431121066 -0.1356360654 -0.2441907446 0.1759484154 -0.009775003419 -0.2341687972 -0.091706032 0.04548581874 0.1175861537 -0.06177564628 0.1421656849 -0.1038399495 0.1808518887 -0.07832698178 -0.06317135121 0.06269531155 0.1296780716 -0.002795534512 -0.1347355773 -0.02030656654 0.009617315987 -0.0980976333 0.1358118029 0.03525993866 0.01138565011 0.001733736454
	 -0.8054485666 -0.9767880387 -1.003727342 0.3427182338 0.712474951 -0.4753403485 0.0722708228 -0.3136083815 -0.3816849068 0.008060863542 -0.2518995771 -0.2708540943 0.04203562243 -0.08482387019 -0.3694350669 -0.04321087592 -0.1198754583 0.3075731935 -0.09425998341 0.09882930451 0.06750045802 0.2713591693 -0.05656904035 0.1891953415 0.1229842924 -0.01205286312 -0.009290091237 -0.2588751689 -0.02061683043 0.007798960441 0.1412270311 -0.1352995911 -0.08910345872 -0.0579194555 -6.463130961e-05
	 -0.7237114841 -0.9531192555 -0.846620185 0.4248972763 0.6807460956 -0.3438194537 0.1815086785 -0.3247396883 -0.2959343501 0.1336176417 -0.2553206105 -0.1686195584 -0.1048888027 -0.1022553839 -0.2378896035 0.03363104556 -0.1708339084 0.2089726508 -0.0347266854 -0.0432091058 0.1494277686 0.005184943277 0.04534492966 0.1491718076 -0.02595817661 -0.1205514493 0.001681788058 0.1466760612 0.02281612617 -0.01123342055 0.00134973053 -0.02108190323 0.03330750427 0.03327756356 -0.001018157921
	 -0.6541966446 -0.9323514124 -0.7093797015 0.4846849094 0.6438244039 -0.2280706279 0.264031723 -0.3190311362 -0.2043470111 0.2347364447 -0.2375218754 -0.06243683647 -0.2181178988 -0.102320385 -0.08547295011 0.08776404726 -0.1695795046 0.07421507569 0.02123826343 -0.1348647109 0.1571795387 -0.1848175828 0.09663557084 0.05295173609 -0.1120696621 -0.1294769481 0.007800007698 0.3313025814 0.03837584419 -0.01757217864 -0.09333661097 0.06839054648 0.1004057196 0.07997202339 -0.001068792663
	 -0.5930269078 -0.9156901743 -0.5898320854 0.536004257 0.6057631168 -0.1169062466 0.3443658155 -0.3068156802 -0.09937872146 0.3372225729 -0.189951465 0.08917137702 -0.3330685131 -0.07510114541 0.1861641325 0.1311483535 -0.0653899548 -0.2148900986 0.1039278805 -0.1592640677 -0.02770542188 -0.2997395942 0.03096816802 -0.3115566602 -0.03841521338 0.251720607 0.0008494366342 -0.3161556214 -0.06835355486 0.04040597771 0.02823595213 0.04492155243 -0.191617808 -0.1901021431 0.004914589225
	 -0.5585969573 -0.8736544731 -0.4746980712 0.5315059538 0.5071703275 -0.02288495847 0.3217186188 -0.214928327 -0.0002036206345 0.2589503257 -0.06735628431 0.1259536867 -0.1782505436 -0.002915992931 0.1913353837 0.03176369533 0.06756787057 -0.1527539288 0.02835703425 0.03854648143 -0.1013686035 0.09440588364 -0.05599974158 0.01329115441 0.06482138317 -0.01379094237 -0.005389118247 -0.03129751145 0.01431214789 -0.01469341912 0.02852681424 -0.07120592925 0.09832484391 0.1163968627 -0.003601696466
	 -0.5269974912 -0.8378430129 -0.3788096031 0.5282066609 0.4253777611 0.04898128207 0.3058012452 -0.1523787111 0.05595665524 0.2059510782 -0.008030021046 0.128236507 -0.1057338565 0.01902783464 0.1662441704 0.005719839254 0.08238972324 -0.1131656095 0.01018609612 0.06459320355 -0.09581945042 0.1316714976 -0.05683415507 0.0554979251 0.06320039632 -0.04450103982 -0.002750722439 0.01898221454 0.01894932029 -0.01326185379 0.01143836535 -0.03567131102 0.05818668986 0.0607308936 -0.002146074188
	 -0.4999946679 -0.8031776666 -0.2934604569 0.5147529039 0.3441997401 0.1072264028 0.2738056258 -0.08928166263 0.09608025571 0.1351907876 0.0402825076 0.1032213245 -0.02372658582 0.03079953474 0.0988151202 -0.01345888076 0.06183002295 -0.04228286775 -0.006656271654 0.05850797901 -0.05589440975 0.1032025906 -0.03382608865 0.06567567504 0.03575084045 -0.0508481365 0.0008801039903 0.06034696452 0.01505637454 -0.005473061288 -0.01439020081 0.02577338394 -0.01664718239 -0.03421318469 0.001557055047
	 -0.4728254677 -0.7755718778 -0.2174968733 0.5106989561 0.2839389938 0.1586981337 0.2519099386 -0.03614001356 0.1416045661 0.08522491423 0.08817120915 0.09668469656 0.04141452 0.0441076369 0.04810232143 -0.03354709709 0.05278590176 0.0113501101 -0.01978863387 0.0482358432 -0.01701589983 0.06549242926 -0.01028104891 0.05350698473 0.007421216439 -0.03782514662 0.002241343042 0.0593733805 0.007530658131 0.0001925402038 -0.02077555257 0.04342338626 -0.04465060471 -0.06444148878 0.002432589713
	 -0.4436624816 -0.7587644523 -0.1462083488 0.5254230436 0.2448752208 0.2187853844 0.2473135065 0.02103745888 0.2226351161 0.04208763995 0.1757990479 0.1218987209 0.1465000241 0.08000851672 -0.02294151761 -0.08840335011 0.06571306854 0.1182223942 -0.05586815643 0.03940784203 0.07927115326 -0.02114063495 0.0594255079 0.006275019643 -0.09709331317 0.02957448762 0.002803102019 -0.007123968208 -0.0317477059 0.02049070372 -0.006295288172 0.01585321703 -0.04293108222 -0.02115893626 0.0001229879869
	 -0.4192305119 -0.7393751652 -0.08237353912 0.5260958126 0.2039836979 0.2597218372 0.2255666624 0.06813517371 0.269986261 -0.0009324675826 0.2240426574 0.1198989112 0.2114488001 0.09355098984 -0.0839584056 -0.1113525971 0.05276163094 0.1782177709 -0.06796384615 0.0112615014 0.1364207252 -0.09900439476 0.09425721266 -0.04788253813 -0.1327582585 0.07739794069 0.0007144399361 -0.07268572944 -0.04263741512 0.02066798551 0.01732087254 -0.03434737281 0.01270727324 0.05568464751 -0.002478834999
	 -0.4076779401 -0.7002183882 -0.03310803333 0.4789665522 0.1370253716 0.2481820524 0.157695369 0.08098012271 0.199418767 -0.03822575411 0.1398057378 0.03804222743 0.1270348771 0.03621566857 -0.06898247106 -0.02883861515 -0.0166689131 0.05899275725 -0.005867512612 -0.03189989768 0.02595198297 -0.05205933065 -0.003814942821 -0.03449236364 0.04797050335 -0.001010651322 -0.002664247959 -0.01357205646 0.02923219936 -0.02223870124 0.00966482336 -0.01989825398 0.05272064084 0.02267163942 0.0002652902511
	 -0.3969653682 -0.6652672252 0.01190808427 0.4479235977 0.08368285841 0.2434450549 0.108247625 0.09548657021 0.1562799403 -0.06595293984 0.09295536768 -0.008524959829 0.08172161358 0.006000409973 -0.06217275523 0.009611918876 -0.04641285975 0.005715974245 0.02036745696 -0.04701439167 -0.01854081055 -0.02831050744 -0.03747621633 -0.02226107182 0.08898229894 -0.02327873511 -0.001896084091 0.008173163671 0.03280700772 -0.02056777267 0.002755962347 -0.005434898551 0.03142799268 0.002765535875 0.000226195404
	 -0.3856539538 -0.6344984768 0.05356234789 0.4255555908 0.03932540799 0.2419319044 0.06611301843 0.111685419 0.1263807271 -0.09255872279 0.06101583592 -0.04511394782 0.05062210355 -0.01730093415 -0.06312887521 0.03708682131 -0.06810453935 -0.03230616432 0.03839694824 -0.05571276618 -0.04462932952 -0.009048417065 -0.05136893846 -0.009965732524 0.08618126273 -0.02915892268 -0.0006110068642 0.01862120218 0.01777010742 -0.006824641854 -0.005213853888 0.01074390665 -0.01141590642 -0.01795712836 5.916424495e-05
	 -0.3731486595 -0.6078261771 0.09213800399 0.4076369612 0.002159582955 0.2415987232 0.02765984391 0.128341238 0.1046642937 -0.1188007286 0.03707783231 -0.0779630893 0.02734552258 -0.03855382893 -0.07149568309 0.06238892116 -0.09113075439 -0.06776614612 0.05601042648 -0.06599023747 -0.06583726749 0.007433905342 -0.06012717957 -0.0005242259422 0.07502019616 -0.03072182635 -0.000307485676 0.02342389092 0.002765040375 0.006010054863 -0.0122916204 0.02401360768 -0.05200120297 -0.03576522653 0.0005093956609
	 -0.3615127419 -0.5836826319 0.1254612273 0.3848154721 -0.03279342786 0.2356308343 -0.007884391628 0.1360871719 0.07671866367 -0.132454418 0.009655314789 -0.09972642203 -0.0001352828685 -0.0529268198 -0.06128324707 0.07524961115 -0.09141206522 -0.08884933296 0.05751899567 -0.04949265581 -0.0692629726 0.03138278318 -0.04023731131 0.01995179036 0.002805526319 -0.01037113004 0.001160864941 0.01475128412 -0.02572950959 0.02074093938 -0.008428811417 0.01561343059 -0.0451764975 -0.01456788929 0.0002315360123
	 -0.3475708791 -0.5689850459 0.1620132051 0.3722669382 -0.07457208128 0.2456220041 -0.05505292195 0.1626817093 0.04381452893 -0.1834351795 -0.04593091676 -0.1706998419 -0.07671563705 -0.1033224759 -0.02433794406 0.121861335 -0.08309268213 -0.1672872039 0.04949362107 0.05239932472 -0.0608076666 0.1389584296 0.08479585877 0.1090261881 -0.339476159 0.09127653745 0.006582957878 -0.03758779626 -0.1057716373 0.0461686854 0.02200287053 -0.04603257393 0.07277143938 0.09580915841 -0.0005532587241
	 -0.3403951716 -0.5415746524 0.1841800138 0.3307339943 -0.09930468415 0.206096266 -0.089137582 0.1298395423 -0.0110233443 -0.1150594834 -0.08018786908 -0.09764283513 -0.08897389159 -0.04056777687 0.05773968083 -0.001163282994 0.05236282871 0.0138328895 -0.03793617359 0.0553645964 0.04770733605 -0.0205850987 0.02503787526 -0.02577900691 0.05470848206 -0.01197762739 -0.001787487237 9.995529878e-05 0.04449008418 -0.02602470016 -0.002373971982 0.006814023864 -0.0008095188654 -0.02693755818 -0.0006496217223
	 -0.3253277056 -0.5315078564 0.2215750314 0.3229361515 -0.135671241 0.2095374531 -0.1512938745 0.1518786932 -0.05788316976 -0.1428107344 -0.1585373082 -0.137502963 -0.183440585 -0.05715468448 0.1519046971 -0.04252726487 0.1638062465 0.06771652819 -0.1150905711 0.1621140509 0.1507881207 -0.04992933162 0.100630203 -0.06552569406 0.09451659473 -0.01482256793 -0.006965108956 -0.01452627862 0.1325936575 -0.08308123251 -0.002598423562 0.01012060286 0.02016653086 -0.06992941854 0.001094488236
	 -0.3220913982 -0.498098356 0.227041819 0.2746372707 -0.1417249718 0.159285694 -0.1292791754 0.09418586471 -0.0670170655 -0.05943983142 -0.09322540423 -0.04449523126 -0.07865372054 -0.008113902691 0.06928445106 -0.03550599161 0.07070470925 0.05203352167 -0.04197967545 0.02983495277 0.04250459961 -0.03385843268 -0.003899816043 -0.02274711433 0.05891565049 -0.0139985223 -0.0008964110415 0.007871843101 -0.006209409474 0.01128605326 -0.002376634815 0.00416011297 -0.01828653313 0.01063301303 0.000252339377
	 -0.3176026289 -0.4700025726 0.2386857244 0.2424379197 -0.1526973999 0.1238486694 -0.1243294755 0.05911044412 -0.08060973158 -0.009110771596 -0.05955921013 0.009688804482 -0.02374450021 0.01829824137 0.02488561952 -0.03069780174 0.02206757922 0.03880270411 -0.003739884181 -0.03176988666 -0.0104066855 -0.0188726361 -0.04386383799 0.0005228573165 0.02462479178 -0.008457621582 0.002149591874 0.01225362316 -0.051579562 0.03814210443 -0.001155343821 -0.000390574018 -0.02009527376 0.0308537713 -0.0006470132406
	 -0.3105822683 -0.4486906857 0.2551256393 0.2198136809 -0.1666184612 0.09981664935 -0.1333546322 0.03980518554 -0.09779060709 0.01830423712 -0.05120074568 0.03689011485 -0.005586033954 0.03071322317 0.01162729235 -0.03225263317 0.009213577364 0.03462489882 0.007082360052 -0.04606842796 -0.02318681473 -0.01069468518 -0.04553630428 0.007515348888 0.00511542759 -0.003600195802 0.002349690888 0.008830455486 -0.04597545216 0.03119448601 -0.0002636630912 -0.001798575694 -0.01154031217 0.02346932235 -0.0005278088646
	 -0.3032411051 -0.4294759888 0.2707659634 0.1991713227 -0.1787052247 0.07811157226 -0.1424857438 0.02333935011 -0.1127546811 0.04087910281 -0.04556981952 0.05861105216 0.007284004237 0.04007882801 0.002149299896 -0.03328782385 0.000667673502 0.02966247366 0.01387018712 -0.05095465388 -0.02887982938 -0.002564308527 -0.03750442096 0.01107809501 -0.01162207053 0.0012291082 0.001612965013 0.003107948381 -0.02435666706 0.01313096576 0.0005237056608 -0.002060611758 0.0003977214894 0.006637651846 -6.3310897e-05
	 -0.2962139352 -0.4109863894 0.2838282177 0.1787046574 -0.1873032903 0.05732413172 -0.1478544788 0.008074274185 -0.1229363679 0.05991830376 -0.03885752109 0.07625356841 0.01898449221 0.04694110193 -0.007279850323 -0.03192058804 -0.007922726786 0.02223654517 0.01948167258 -0.05110106414 -0.03169219706 0.005651701516 -0.02519141092 0.01285094046 -0.02548745876 0.005471264586 0.0005013218601 -0.002994927088 0.002182171977 -0.00788820332 0.001104021394 -0.001745151746 0.01217210304 -0.01217527095 0.0004250237115
	 -0.2900357591 -0.3921683819 0.2925725864 0.1571344656 -0.1904408599 0.03743031043 -0.1454860758 -0.005532176334 -0.1244994699 0.07237222534 -0.02984387774 0.08557554748 0.02834568237 0.04849079058 -0.01570209748 -0.02574063437 -0.01569501974 0.01163747633 0.02187586493 -0.04280746612 -0.02903177154 0.01144635707 -0.01025590409 0.01153903044 -0.03036495534 0.00737658057 -0.0004867237299 -0.006842776128 0.02175915495 -0.02152891511 0.00118387806 -0.0009568936395 0.01708603218 -0.02233173376 0.0005732241542
	 -0.2848648427 -0.3726495552 0.2963485375 0.1338769707 -0.1872941841 0.01858933111 -0.1335194283 -0.01704003784 -0.1155281769 0.07622954699 -0.01841930418 0.08383948766 0.03409294968 0.04306317297 -0.02181919609 -0.01384855301 -0.02142510464 -0.001792267431 0.01943873056 -0.02389715046 -0.0191585627 0.01289241249 0.005756816334 0.006381633921 -0.02230683218 0.005858744459 -0.001011297671 -0.006641470646 0.02600680071 -0.02073608937 0.0006513232202 0.000162607449 0.01104192673 -0.01693801785 0.0002528462083
	 -0.2802245225 -0.3531578267 0.2969791198 0.1100235399 -0.1799551981 0.0006914965703 -0.1155845909 -0.02675404375 -0.09962945814 0.07407995776 -0.006252092949 0.0748051259 0.03693431758 0.03355644237 -0.02579886364 0.0004896701579 -0.02535585593 -0.01579679235 0.01414468065 0.0001731487669 -0.005537618891 0.01142208631 0.02111043919 -0.0007914481523 -0.006542595589 0.002254452195 -0.001150338126 -0.003753372332 0.01932407898 -0.01038584652 -0.0001909576622 0.00130809943 -0.001205263599 -0.002148627014 -0.0002242970608
	 -0.2756158227 -0.3344741924 0.2966891956 0.08703293121 -0.1709601013 -0.01639640204 -0.09626759034 -0.03496903118 -0.08141409496 0.06922859295 0.004444829189 0.06351191169 0.03777026941 0.02402727459 -0.02797978099 0.01265925331 -0.02788904654 -0.02722232762 0.009028700972 0.02127362951 0.006617956197 0.009401022459 0.03353599023 -0.007236343375 0.008658556845 -0.001316393604 -0.001064970678 -0.0005578305896 0.01008450429 0.0006003529726 -0.0008919142284 0.002056066557 -0.01156073153 0.01104896132 -0.0004976602398
	 -0.2709029699 -0.3167607015 0.2963463567 0.06540781604 -0.1611367504 -0.03256369598 -0.07702469661 -0.0414402936 -0.06234065942 0.06212918032 0.01220815305 0.05120790869 0.03600671824 0.01615358878 -0.02752816494 0.01971410633 -0.02817936121 -0.03314404301 0.005313793419 0.03418096472 0.01425854178 0.007404545199 0.0398685371 -0.01115122775 0.01882132678 -0.003757579252 -0.0007183169054 0.001969624459 0.0006605008638 0.008350987403 -0.001128498654 0.001939668801 -0.01505934586 0.01655901417 -0.00044752208
	 -0.2660368437 -0.3000309925 0.2964621883 0.04508379544 -0.1509018345 -0.04806281578 -0.05789265069 -0.04651521872 -0.04249723611 0.0527957716 0.01746867091 0.03738351332 0.03132351156 0.009349643739 -0.02401367413 0.02163815872 -0.0254428132 -0.03285320018 0.002594763288 0.03820858968 0.01720880059 0.004974796395 0.03833126705 -0.01208013588 0.023141832 -0.004899897687 -8.204096878e-05 0.003759656306 -0.009139656439 0.01265279979 -0.0008425872212 0.0008691607582 -0.01119375212 0.01390236493 -0.0001464552483
	 -0.2607857488 -0.2845999591 0.2981811575 0.02591754726 -0.1414931805 -0.06409178413 -0.03933557324 -0.05208603702 -0.0222938201 0.04303198521 0.02331516086 0.02157418721 0.02496158803 0.001069859089 -0.01837064266 0.02155577358 -0.019558079 -0.02841959928 -0.0007626283796 0.03658394278 0.01765782534 0.001332169008 0.02869789643 -0.01042069761 0.02237195051 -0.004936512851 0.0006888387526 0.004757268017 -0.01779559836 0.01383376884 -0.0002367306024 -0.0006720624342 -0.00294852272 0.006127226858 0.0002388395724
	 -0.2546573818 -0.2711502289 0.3032641797 0.007525943438 -0.134686534 -0.08303762235 -0.02187254367 -0.06163980595 -0.001315819029 0.0356343284 0.03572059641 0.001239151308 0.01827628763 -0.01440703764 -0.01098415579 0.02441813986 -0.008491217546 -0.02137595009 -0.008382064813 0.0323266219 0.01835566591 -0.005880778861 0.00555441803 -0.005383251523 0.01513894681 -0.003636710471 0.001340621643 0.004509675314 -0.02244292449 0.01070005141 0.0005104828977 -0.002145209775 0.007099227078 -0.004480903708 0.0005290506881
	 -0.2467803347 -0.2608533431 0.3143345961 -0.01095903354 -0.1327706523 -0.1091128869 -0.005586337128 -0.08085654529 0.0229250783 0.03397006201 0.0647628208 -0.03062429561 0.01168914769 -0.04800374589 -0.0001842174503 0.03683539305 0.0140458418 -0.01044761217 -0.02705456928 0.02578877804 0.02178499588 -0.02190447278 -0.04719990898 0.00647386224 -0.004528939587 0.0001582176195 0.001542711306 0.001917803681 -0.01905982208 -0.0005501123651 0.001388961299 -0.003206552174 0.01858143433 -0.01832466674 0.0005384469716
	 -0.2378785004 -0.252698825 0.3292603754 -0.02919599191 -0.1340553322 -0.1396209471 0.009925374595 -0.1061622289 0.04932594332 0.03545380922 0.1041093301 -0.07040817828 0.004072666251 -0.09234805712 0.01364840191 0.0526094179 0.04409923045 0.005088335724 -0.0504509402 0.01363029563 0.02383701841 -0.04067398732 -0.1128741442 0.02191927746 -0.03188651017 0.005619806456 0.0009668065885 -0.002679547031 -0.005648688841 -0.01675544845 0.001968746872 -0.003145408446 0.02581953212 -0.02905522639 0.0002112317956
	 -0.2329503778 -0.2399035533 0.3337697419 -0.04335478932 -0.12692755 -0.1535308218 0.02556499371 -0.1096373155 0.06580052574 0.02305577136 0.1040597113 -0.08412864101 -0.007986283193 -0.09097388575 0.02270230081 0.03387999889 0.04844806227 0.02092913127 -0.037894002 -0.01227741392 0.005689524481 -0.02644969278 -0.08542865245 0.0188887078 -0.03132074913 0.006098104352 -0.0005333470826 -0.004652028407 0.01261004203 -0.01499153157 0.0007166509374 -0.000352558635 0.009122505452 -0.01230922765 -0.0001633416052
	 -0.2309023927 -0.2239648079 0.3311024285 -0.05444311007 -0.1141197033 -0.1564035402 0.04114201044 -0.09866016208 0.07614359605 0.0012440294 0.07825569704 -0.08199184727 -0.02414426301 -0.05941850491 0.02986092708 -0.01015593451 0.03667607941 0.03967599694 0.0003987115029 -0.05211135529 -0.02925531222 0.0123336134 0.008919598899 0.003087467966 -0.01233712087 0.003438935539 -0.003149218525 -0.005427362805 0.0391425826 -0.0010901189 -0.0021426546 0.005155054874 -0.02897007793 0.02831146907 -0.0007549412375
	 -0.2282864007 -0.2097427222 0.3260927151 -0.06420876687 -0.101202705 -0.1537583392 0.05161002418 -0.08674114173 0.07964059857 -0.01397021948 0.05539032182 -0.07333206145 -0.03152286526 -0.03440200786 0.03036127721 -0.03345681321 0.02536520287 0.0445295564 0.02113642729 -0.06607213843 -0.04380699412 0.0314696475 0.05913196161 -0.00624501628 0.0008591640119 0.001138167786 -0.00321978032 -0.004404421592 0.0416714995 0.005042846321 -0.002978765889 0.006554788457 -0.04006002786 0.04068278789 -0.0008547416039
	 -0.2256096794 -0.1966219979 0.3150210039 -0.07175532248 -0.08593117011 -0.1392308829 0.05485282068 -0.06828463297 0.07061498403 -0.02213458274 0.02772200501 -0.0477540182 -0.02527551671 -0.00906763863 0.01842335113 -0.03022501862 0.007944050333 0.02538315003 0.02118663628 -0.03836917098 -0.02818476156 0.02527974367 0.05816936001 -0.009515824658 0.01222882384 -0.002026530018 0.000997175921 0.0007203815072 0.002553289504 0.003886271502 -0.0007210764533 0.001305964988 -0.009690227296 0.01061491375 -1.491009144e-05
	 -0.222717741 -0.1844991108 0.3041360328 -0.07855239229 -0.07165704785 -0.1252697744 0.05626760347 -0.05247019059 0.06189196972 -0.02711701285 0.006859624851 -0.02704219877 -0.01883445706 0.008366093273 0.008340101877 -0.02310548819 -0.003905285774 0.009136832799 0.01689008145 -0.0142030591 -0.01324775108 0.01676122102 0.04741974581 -0.01014915505 0.01817361628 -0.003999601345 0.004724589768 0.004390736287 -0.02887109748 -0.001509021812 0.001169614103 -0.002696953542 0.01470940552 -0.01399739517 0.0003923832692
	 -0.2196331122 -0.1732180094 0.2947185281 -0.08495492932 -0.05889315378 -0.1144593858 0.05725610688 -0.04075967873 0.05627974792 -0.0303241186 -0.0058945866 -0.01530091702 -0.01537835714 0.01764929258 0.003134749215 -0.01842620745 -0.008647144522 0.001633853 0.0132354435 -0.003743876968 -0.006368171531 0.01211266508 0.03943305715 -0.009631088528 0.01914429984 -0.004563171755 0.006814177414 0.00558390543 -0.04204432794 -0.008991208501 0.001906137767 -0.00379535131 0.02269289037 -0.02242294835 0.0001633526125
	 -0.216486709 -0.1625585046 0.28561833 -0.09080760027 -0.04669579972 -0.1044883682 0.05739777759 -0.03065541492 0.05163229167 -0.0322048906 -0.01476690862 -0.007612426657 -0.0130839723 0.02300519942 0.0001465740727 -0.01471010872 -0.01009916861 -0.001895717696 0.009792489112 0.0004969739773 -0.003119199832 0.009108326464 0.03223611243 -0.008437952263 0.01749482065 -0.0043799171 0.007846951639 0.00548509084 -0.0452521574 -0.0166776494 0.002012263732 -0.003389636514 0.02194255712 -0.022141797 -0.0003411393582
	 -0.213191216 -0.1524829084 0.2772619762 -0.09676810833 -0.03456406132 -0.09567030403 0.05840923019 -0.02076857257 0.04850009836 -0.03572405172 -0.02508585205 -0.0005165452142 -0.01252120166 0.03164992438 -0.002570341063 -0.01483707815 -0.01383943256 -0.005996399204 0.008549311313 0.007043979983 0.001758825701 0.00381195953 0.01740106094 -0.005218970213 0.01152053068 -0.003042161758 0.006038894076 0.003916569085 -0.03502399931 -0.01777817039 0.001517912854 -0.00206602485 0.01481269346 -0.01525793827 -0.0007234878644
	 -0.2078916965 -0.1439286886 0.2821357549 -0.1131350482 -0.02095410264 -0.108862583 0.08972564398 -0.006999757599 0.07300818984 -0.08598562512 -0.09179518207 0.02219799679 -0.03978499406 0.132131622 -0.01441343583 -0.0844513511 -0.08317379353 -0.04522861213 0.05150147268 0.09406055857 0.05726350765 -0.04918488227 -0.12630094 0.02652817089 -0.0481323107 0.01243621964 -0.039569802 -0.01306267162 0.1344023535 0.111499201 -0.004261148187 0.0007427091534 -0.02147937042 0.02428982014 0.005219020063
	 -0.2059495418 -0.1339682417 0.2646237801 -0.11051332 -0.0101315125 -0.08308351021 0.06641373559 -0.0003569840714 0.04805290458 -0.05221807135 -0.05686171881 0.01613893006 -0.01766051796 0.06800541001 -0.009510351688 -0.03083000998 -0.03535973891 -0.02145868367 0.01571878014 0.03764118426 0.02280635197 -0.01825615932 -0.04464576655 0.008732131201 -0.01501718971 0.00351372218 -0.008258852169 -0.00367668119 0.02922844776 0.009471156247 -0.001114147747 0.002285896609 -0.0138956885 0.01396163139 -0.0005743106444
	 -0.2034431776 -0.1246957905 0.2511074875 -0.1105482186 0.0008393371401 -0.06307776146 0.05069440042 0.00679336474 0.02999338787 -0.02986319142 -0.0349293107 0.0129529716 -0.003068233183 0.02655581601 -0.00624859927 0.003185319884 -0.00476665863 -0.005901884137 -0.00601287814 0.001861767715 0.0008808283836 0.00127460932 0.00668005442 -0.002340724126 0.005453147486 -0.001831093196 0.007569343666 0.002062696177 -0.02831835811 -0.03365459891 0.0007750342369 0.00100383898 -0.0001102348336 -0.001083163835 -0.001983622762
	 -0.2000740798 -0.1162168502 0.2436657273 -0.1150158547 0.01238166968 -0.05201351615 0.04736982403 0.01560031132 0.02245707808 -0.02596065183 -0.03523831031 0.0165615789 0.001185405881 0.02020613886 -0.006781899307 0.01133443994 0.0008151279201 -0.004180572698 -0.01168858306 -0.002764003965 -0.0013191499 0.002149583356 0.007651267542 -0.002282588647 0.005039322923 -0.001713216286 0.008001050433 0.001813703876 -0.02662315798 -0.03398523293 0.0006473485697 0.001299178173 -0.001838055046 0.000640221287 -0.001948719117
	 -0.1965405652 -0.1081335124 0.2376174777 -0.120051483 0.02393611435 -0.04181819015 0.04518747073 0.02456631881 0.01518465981 -0.02306932714 -0.03652161309 0.02083213379 0.005288728515 0.01444574226 -0.007402911634 0.01864289611 0.005677847832 -0.002822094232 -0.01661348687 -0.006261154813 -0.002812153747 0.002338377402 0.006726688396 -0.001770084884 0.003735216568 -0.001306434471 0.007351196153 0.001268015911 -0.02054378292 -0.02849080977 0.0004279442929 0.001346773027 -0.003094511391 0.002109149607 -0.00157634548
	 -0.1928529266 -0.1004071386 0.2328195912 -0.1255545723 0.03556084145 -0.03217100178 0.04377971796 0.03380579072 0.007655165434 -0.02049295691 -0.03804418751 0.0258002338 0.009935724624 0.007302072778 -0.007970010768 0.02663604137 0.01125296189 -0.001085790939 -0.02172440563 -0.01034525042 -0.004651264451 0.00283741679 0.006526576827 -0.001382897675 0.002602309721 -0.0008951893027 0.006444430948 0.0007178714412 -0.01276736564 -0.01846261708 0.0002095127593 0.0009582606779 -0.002653579511 0.002050663111 -0.0008031358037
	 -0.1890297876 -0.09300194431 0.2291855979 -0.131454972 0.04722263201 -0.02306719491 0.04309393772 0.0432709906 -9.932061415e-05 -0.01820795872 -0.03974953961 0.03139923197 0.01508190281 -0.001197226399 -0.008475076534 0.03523262795 0.01751286672 0.001020202336 -0.02700655147 -0.01505254098 -0.006854576904 0.003695798203 0.007178949659 -0.001163709404 0.001720099216 -0.0005198142847 0.005501425527 0.0001915627656 -0.003897714058 -0.004828314655 -2.26249981e-06 0.0001791864103 -0.0006299902221 0.0005399964253 0.0003400745701
	 -0.1852087496 -0.08584196102 0.2262336524 -0.1372867526 0.05848996808 -0.01436925166 0.04250407563 0.05209125982 -0.007775211303 -0.01579726753 -0.04049610165 0.03619874652 0.01970896451 -0.009640635085 -0.00872812162 0.04261689584 0.02320278526 0.003117231459 -0.03130728206 -0.01935939525 -0.008920133473 0.004612056825 0.008145634717 -0.001047009028 0.0010521909 -0.0001940911959 0.004447487949 -0.0002583728984 0.004665244213 0.009452404341 -0.0001771514537 -0.0007408043707 0.002123427889 -0.001686057595 0.00153982992
	 -0.181653575 -0.07880778133 0.2230647567 -0.142165699 0.06851628516 -0.005769218851 0.04074526335 0.05853681911 -0.0148449696 -0.01234383771 -0.03788868664 0.03730588811 0.02183311837 -0.01538010507 -0.008309459349 0.04521708165 0.02587472185 0.004515736636 -0.0322645662 -0.02123753704 -0.009879611753 0.004999312667 0.008425646983 -0.000906322365 0.0005420252502 7.270017113e-05 0.002924872227 -0.0005238621511 0.01045560516 0.01924208242 -0.0002478171008 -0.001362824815 0.004127850699 -0.003346341581 0.002187190851
	 -0.1785281769 -0.07182030062 0.2191230232 -0.145580643 0.07685520113 0.002923522558 0.03709397931 0.06174103763 -0.02107213075 -0.007268343264 -0.03057650525 0.03313931605 0.02044028647 -0.01722039999 -0.006898856981 0.0408477795 0.02408807605 0.004869545949 -0.02825096919 -0.01940354506 -0.009124332712 0.004490540841 0.007387036165 -0.0006620766843 0.0001482474894 0.0002724606941 0.0007781721281 -0.0005459247313 0.01195897424 0.02131558014 -0.0001819819514 -0.001410152666 0.004414941923 -0.003591679184 0.001941845931
	 -0.1757135549 -0.0648994182 0.214812714 -0.148042186 0.08415866179 0.01159335336 0.03227516504 0.06311592404 -0.02700516042 -0.0008812927753 -0.01988562367 0.02549521006 0.01698658138 -0.01772464218 -0.004415860245 0.03076270812 0.01894364753 0.004715048388 -0.01939577554 -0.01443256881 -0.006936508289 0.003276131601 0.005313135807 -0.0003537483176 -0.0001409686102 0.0003964500279 -0.001687596046 -0.0003909910237 0.01009742028 0.01737162993 -3.854086682e-05 -0.001027909779 0.003365081177 -0.002727906545 0.001109604647
	 -0.1729675188 -0.05806382349 0.2110289012 -0.1506083655 0.09179373625 0.02014787589 0.02755833165 0.06536956702 -0.03394861024 0.006603247079 -0.007585111856 0.01722772203 0.01402828938 -0.02212381619 -0.0003685151935 0.01610275061 0.01194302135 0.005143240059 -0.004521001098 -0.006716207253 -0.003559896897 0.001592462224 0.002589067257 -5.091311005e-05 -0.00032056997 0.0004261622462 -0.004365063539 -0.0001427058161 0.006302982315 0.01034111957 9.040836554e-05 -0.0004862191926 0.001768863566 -0.001426084008 6.238046684e-05
	 -0.1700929936 -0.05120007304 0.2087340798 -0.154463304 0.1015599033 0.02886997451 0.02389381079 0.07170626353 -0.04406820012 0.01613174329 0.00637871945 0.0100009773 0.01398502055 -0.03763459741 0.006895881561 -0.005810970959 0.002826245959 0.00754548004 0.02223965003 0.005691520316 0.001772600208 -0.0008052150211 -0.001125889796 0.0002337782427 -0.0003723262621 0.000319205419 -0.007933074889 0.0002077175383 0.0004833063534 0.0004894081808 0.0001349286859 0.0001295984752 -0.0001715127767 0.0001247238441 -0.001311140717
	 -0.1670309551 -0.04428221318 0.2081700152 -0.1599703517 0.1140779295 0.03788804357 0.02151916997 0.08329967319 -0.05819483254 0.02822158665 0.02224595162 0.004246555823 0.01774248179 -0.06720073658 0.01817367227 -0.03657827469 -0.008808086573 0.01247063385 0.06379470153 0.02390300914 0.009513637606 -0.004096530229 -0.006095194224 0.0005101923596 -0.0002927308542 5.885970352e-05 -0.012816563 0.0006785348383 -0.007646082088 -0.01255130866 7.116364044e-05 0.0008234007567 -0.002504922678 0.001959479153 -0.003186016518
	 -0.1642139455 -0.03842066158 0.2054347991 -0.162558137 0.1216964365 0.04479549313 0.01831671875 0.08817359046 -0.06608914157 0.03579846276 0.03297965307 -0.0008051545724 0.01857615411 -0.08189361467 0.02442553259 -0.05478098886 -0.01615401931 0.01461767252 0.0861156942 0.03402244705 0.01387366415 -0.005936813024 -0.008902692816 0.0006549388495 -0.0002368016435 -0.0001148489357 -0.01489443351 0.0009206790836 -0.01218732304 -0.01977671926 2.152458224e-05 0.001184217346 -0.003733464288 0.002917326224 -0.003987027758
	 -0.1620449488 -0.03463140849 0.1969026964 -0.1579790272 0.1173092314 0.04741455686 0.01224065823 0.07508280705 -0.05822282547 0.03233990941 0.03222483123 -0.00609791955 0.01003052111 -0.05441139359 0.01719347861 -0.04055194769 -0.01298291428 0.008940036 0.0572799289 0.0230673422 0.009450441917 -0.004138475602 -0.006360079272 0.0005523893789 -0.0003424705167 1.858271133e-05 -0.0101992706 0.0006090704728 -0.007690854179 -0.01287636889 0.0001036614316 0.0008358376795 -0.002475796863 0.001927029363 -0.002292908583
	 -0.1600045852 -0.03159342275 0.1870686886 -0.1516666236 0.1101596774 0.04884265601 0.005481847757 0.05834910282 -0.0470317831 0.02681828084 0.0291891169 -0.01143168191 -0.0001564434421 -0.0193477023 0.007577189549 -0.02081534714 -0.008239824898 0.001567505728 0.01865928471 0.008209006378 0.003426031763 -0.001641296201 -0.002770653114 0.0003736627606 -0.0004159471714 0.0001523063703 -0.003166164168 0.0001614792327 -0.001629489916 -0.003455913201 0.0001650867616 0.0003286438038 -0.0007643711886 0.0005919212795 -0.0001230800038
	 -0.1577514409 -0.02848679529 0.1787060174 -0.1469847441 0.1059328848 0.05109942747 -0.0007457147301 0.04647342516 -0.04003975445 0.02471268616 0.02972049651 -0.01706763617 -0.007730558282 0.003401877328 0.002068221342 -0.01165816798 -0.007436093548 -0.004143615471 -0.005958991672 -0.0005728464292 -1.882836974e-06 -0.0001550532934 -0.0006577582423 0.0002183798334 -0.000337501522 8.672606228e-05 0.004436219332 -0.0002066211211 0.001659849241 0.001692764506 0.0001056925052 -2.223640469e-05 0.0002001218178 -0.0001297724832 0.001584147303
	 -0.1553142269 -0.02539971222 0.1713946528 -0.1434532301 0.1037648457 0.05406903144 -0.00683667472 0.03768185924 -0.03590824257 0.0251192856 0.03318508375 -0.02350911777 -0.01405524944 0.01882227873 -0.0007924789909 -0.009939542417 -0.009712053602 -0.009231236385 -0.02235736523 -0.005558110997 -0.001763794889 0.0007047085199 0.000519844956 6.81213984e-05 -0.000129649489 -0.0001521997972 0.01386710041 -0.0005707753553 0.003169272081 0.004059484222 -5.744918926e-05 -0.0002882657394 0.0006695930044 -0.0004307425032 0.003220898997
	 -0.1528430806 -0.0224250186 0.1644713583 -0.1402132185 0.1021491441 0.0570872353 -0.01281520602 0.02996395748 -0.03263903817 0.02626008326 0.03727455213 -0.02974005598 -0.01943629874 0.03046139352 -0.002467449867 -0.0111231414 -0.01300198821 -0.01374224687 -0.03450373972 -0.008742294866 -0.002763187806 0.001269700365 0.001275663878 -7.723550861e-05 0.0001303560993 -0.0004499156917 0.02337797044 -0.0009053185713 0.003811127072 0.005090207377 -0.0002546347682 -0.0004995183612 0.0008949508985 -0.0005315092741 0.004648603472
	 -0.1506297494 -0.01956782705 0.1572547036 -0.1362695932 0.09937769883 0.0589075424 -0.01797693414 0.02220658105 -0.02831701487 0.02586087395 0.03798829132 -0.03246041727 -0.02188742593 0.03657138701 -0.003402389357 -0.01108041866 -0.0142872734 -0.01569470211 -0.0398627032 -0.01010380881 -0.003196334932 0.001516285433 0.001677077045 -0.0001737018887 0.0003025747682 -0.0005901811314 0.02639372851 -0.0009969648281 0.003648758693 0.004993832543 -0.0003536858761 -0.0005665787176 0.0009017218589 -0.0005105513004 0.004797162335
	 -0.1488500392 -0.01678491043 0.149418082 -0.131111545 0.09455462029 0.05881570992 -0.02182754394 0.01393798844 -0.0219407964 0.0226008391 0.03291686823 -0.02954465882 -0.0200191421 0.03549603001 -0.003718350431 -0.007555697537 -0.01174957501 -0.01371472786 -0.0361720502 -0.009373604566 -0.003082456221 0.001386049796 0.001701428723 -0.000189439902 0.0002974636496 -0.0004380334371 0.01865703195 -0.0007043166692 0.002632848601 0.003763562837 -0.0002716559369 -0.0004258690736 0.0006839470379 -0.0004011549285 0.002961853827
	 -0.1472994553 -0.01399536176 0.1414500063 -0.1254317529 0.08876822243 0.0577804693 -0.02494853083 0.005347524549 -0.01446893662 0.01768346929 0.02460789732 -0.02340312561 -0.01571653799 0.03030821107 -0.003694309137 -0.00205496862 -0.007016597743 -0.009496346824 -0.02733007699 -0.007467673852 -0.002657994781 0.001049953875 0.001511644325 -0.0001577442768 0.000189239003 -0.0001239725403 0.005118342056 -0.0002046810364 0.001203587651 0.001999895046 -8.569793743e-05 -0.0001739152136 0.000367140419 -0.0002660978967 3.962403046e-05
	 -0.1456881251 -0.01112134198 0.1340027896 -0.1201753016 0.08353577909 0.05713732309 -0.02817469881 -0.003225342559 -0.007296463401 0.01289693043 0.01673401165 -0.01747248628 -0.01158653967 0.02508233255 -0.00361921992 0.002995906907 -0.002527409325 -0.005422512663 -0.01854791618 -0.005529412281 -0.002190767603 0.0007233510328 0.001301662278 -0.0001263779429 9.098681494e-05 0.0001584743401 -0.007120251431 0.0002505792484 -0.0001097076169 0.0003984953624 8.749183793e-05 5.718800674e-05 9.505663348e-05 -0.0001633510883 -0.002687193554
	 -0.143910309 -0.008115241475 0.1273211687 -0.1156955122 0.07942053448 0.05739261973 -0.03182014498 -0.01168777716 -0.0009142948373 0.008864460284 0.01059752068 -0.01296870608 -0.00856055497 0.02128048996 -0.003603423129 0.00675675726 0.0008671757722 -0.002332003525 -0.01166147452 -0.003961996897 -0.001773611403 0.0004813583814 0.001133636483 -0.0001106035935 4.030497118e-05 0.000338030723 -0.01535308372 0.0005638718973 -0.001090745419 -0.0007717643992 0.0002034229744 0.0002165756673 -8.229952232e-05 -0.0001081596336 -0.004678198928
	 -0.1419796827 -0.004952279615 0.1213787224 -0.1119539327 0.07635559548 0.05851059263 -0.03586611093 -0.0201259414 0.00479116328 0.005440134369 0.005942776 -0.009654597106 -0.006478884394 0.01867968355 -0.003649941683 0.009454309604 0.003373905314 -4.553176379e-05 -0.006290597368 -0.002685162311 -0.001385021827 0.0003078340041 0.0009832928893 -0.0001044992949 2.495072216e-05 0.0004228500927 -0.01971316601 0.0007366251624 -0.00172200334 -0.001514803076 0.0002635268371 0.0003056808615 -0.0001758751926 -8.725153698e-05 -0.005840163312
	 -0.1399301829 -0.001617470738 0.1160907978 -0.1088320709 0.07415065581 0.06035820374 -0.04025035926 -0.02868519435 0.01006254594 0.002332472819 0.002223683827 -0.007027973833 -0.004984466247 0.01676177816 -0.003749454098 0.01154286748 0.005422013874 0.001827722276 -0.001576311334 -0.001509003898 -0.0009734038312 0.0001675945023 0.0008051645783 -9.834148102e-05 2.421090942e-05 0.0004331564402 -0.02078030469 0.0007851809867 -0.002022181784 -0.001890741586 0.0002752757962 0.0003334971473 -0.0002105870138 -7.703799962e-05 -0.006081979397
	 -0.1377834925 0.001899776956 0.1113877587 -0.1062369811 0.07266328564 0.06285453918 -0.04496360689 -0.03753347979 0.01511688308 -0.0006941758266 -0.0009843873643 -0.004707427103 -0.003815682179 0.0151743874 -0.003916692016 0.01345392651 0.00741019967 0.003640296053 0.003278724794 -0.000251638545 -0.0004828738171 2.931403992e-05 0.0005534346495 -8.442477861e-05 2.141720419e-05 0.000379876371 -0.01882754331 0.000715095078 -0.001994257437 -0.001944903794 0.0002395006028 0.0003027307838 -0.0002093844323 -5.06573036e-05 -0.005160834344
	 -0.1355480721 0.005605797629 0.107220843 -0.1041092464 0.07180913609 0.06597479265 -0.05004375746 -0.04684230402 0.02012546672 -0.003803352662 -0.003955095706 -0.002457864066 -0.002824699396 0.01375744828 -0.004190303498 0.01556998204 0.009679961957 0.005680631142 0.008944319232 0.001243329474 0.0001401533323 -0.0001311816304 0.0001869269097 -5.781149187e-05 5.120894185e-06 0.0002649325156 -0.01384756887 0.0005219984408 -0.001627469661 -0.001704541786 0.0001510049436 0.0002101147174 -0.000190746472 1.863259929e-05 -0.002710626887
	 -0.1332317968 0.009493397987 0.1035445491 -0.1023976831 0.07151596013 0.06968633317 -0.05550216778 -0.05669971172 0.02518814485 -0.007085932995 -0.006847409923 -0.0001476497148 -0.001927231147 0.01242540864 -0.004591768238 0.01810350638 0.01241629836 0.008103169779 0.01577131037 0.003056500328 0.0009225850048 -0.0003265416338 -0.0003145872822 -1.657023655e-05 -3.051546053e-05 9.041725561e-05 -0.005923002558 0.0002069664967 -0.0009284588788 -0.001199770394 7.400510872e-06 5.498405466e-05 -0.000168056705 0.0001483906643 0.001503134934
	 -0.1308701007 0.01351887832 0.1002762381 -0.1010056547 0.07162391186 0.07380295781 -0.06114446475 -0.06687183275 0.03023440338 -0.01051758617 -0.009720221707 0.002289251835 -0.001023993248 0.01092918599 -0.005013207994 0.02068584223 0.01530200542 0.01067123334 0.02313340599 0.005028447786 0.001791766612 -0.0005408931996 -0.0009009545063 3.554491629e-05 -8.108291048e-05 -0.0001219728402 0.003954282571 -0.0001892424553 4.638591037e-06 -0.0005079668301 -0.0001716287653 -0.0001408558261 -0.0001459479954 0.0003218930795 0.006905058172
	 -0.1285572126 0.01757458482 0.09725159663 -0.09973270753 0.07177688433 0.07782097898 -0.06636698898 -0.07652248672 0.03490098335 -0.01389772683 -0.01252791383 0.004876756425 7.689309563e-05 0.008600153272 -0.00508736139 0.02186837606 0.01709609431 0.01244049699 0.02862315817 0.006560696599 0.002488418211 -0.0007084005276 -0.001392743727 8.599560552e-05 -0.0001257378385 -0.0003089637174 0.01296203824 -0.0005470795396 0.0008974930271 0.0001970618424 -0.0003217197583 -0.0003103004265 -0.0001149580442 0.0004581033325 0.01131203638
	 -0.1264174991 0.0215137396 0.09426426385 -0.09832416762 0.07151824286 0.0810658774 -0.07035202521 -0.08449195143 0.03866978648 -0.0169273346 -0.01516445703 0.007607640698 0.001608772278 0.004572717669 -0.004319279567 0.01966809637 0.01609846223 0.01211414567 0.02894343439 0.006835352025 0.002660010656 -0.000738177878 -0.00154578406 0.000117714874 -0.0001352844077 -0.0003865867305 0.01736210672 -0.0007080134192 0.001387382417 0.0006934233522 -0.0003565486773 -0.0003637726524 -5.817318378e-05 0.0004435416442 0.01172664611
	 -0.1244952332 0.02524705378 0.09122231826 -0.09666954793 0.07066845875 0.08326756186 -0.07281516473 -0.09035433305 0.04136928857 -0.01948327995 -0.01758470975 0.01044684798 0.003623200164 -0.001338925136 -0.002581544146 0.01357141106 0.01185245748 0.009336908811 0.02316877358 0.005619217741 0.002205585095 -0.0006042582856 -0.001288147099 0.0001239652636 -0.0001008528955 -0.0003301312333 0.01595375084 -0.0006222650069 0.001350749897 0.0008940008007 -0.0002526157556 -0.0002753827144 2.527836644e-05 0.0002496806402 0.007352489028
	 -0.1227155639 0.02877613296 0.08820269702 -0.09487311954 0.06945808482 0.08476364258 -0.07426855337 -0.09479015282 0.043351614 -0.02171507133 -0.01984515776 0.01332996332 0.005908939153 -0.008322436504 -0.0002923815488 0.005253629269 0.005755270704 0.005158689541 0.01391057986 0.003551244982 0.001397996144 -0.0003771333205 -0.0008040631789 0.0001136519072 -4.408723217e-05 -0.0002017931977 0.01129011063 -0.0004013404029 0.001018249753 0.0009103744106 -7.942675154e-05 -0.0001131100237 0.0001121945284 -2.546433576e-05 0.00066212078
	 -0.1209846799 0.0321027377 0.08530688903 -0.09307438704 0.06818309886 0.08597364948 -0.07534035182 -0.09862368623 0.04503754911 -0.0237953696 -0.02199774972 0.01616077939 0.00819345774 -0.01535259617 0.002028572674 -0.003209649738 -0.000464975135 0.0008774686903 0.00439330831 0.001419545089 0.0005733945654 -0.0001442791242 -0.0003201903497 9.82392481e-05 8.511807009e-06 -7.785275269e-05 0.00653159517 -0.0001829233876 0.0006774173271 0.0008858424926 7.874464127e-05 3.933116324e-05 0.0001767603134 -0.0002642320796 -0.005339394442
	 -0.1192670462 0.03516309155 0.08255154236 -0.09131131024 0.06694243334 0.08700206893 -0.07625706952 -0.1020949483 0.04657146623 -0.02573347188 -0.02400987942 0.01881237236 0.01029877097 -0.02179508251 0.004100046737 -0.01071186195 -0.005913008503 -0.002844959394 -0.003777428288 -0.000389280718 -0.0001062361184 5.139686772e-05 5.721329472e-05 8.165440578e-05 4.466656296e-05 7.360854628e-06 0.00305419969 -2.835627977e-05 0.0004460707557 0.0008682529182 0.0001813325336 0.0001421426143 0.000206628576 -0.000410428273 -0.009192659017
	 -0.11757415 0.03784287542 0.07988492431 -0.08954177226 0.06567547454 0.08770126078 -0.07691877715 -0.1049727479 0.04787271773 -0.02740807157 -0.02578139169 0.02113536624 0.01212505048 -0.02734007093 0.005837278884 -0.01694281102 -0.01037815164 -0.005868302733 -0.01032371354 -0.00181809113 -0.000621732411 0.0002028953109 0.0003206129728 6.221156197e-05 6.400052028e-05 5.407608372e-05 0.0007752390928 6.358791125e-05 0.0003039825086 0.0008278188706 0.0002247283206 0.0001916403024 0.0002008513323 -0.0004580497878 -0.01070216868
	 -0.115931763 0.04001819465 0.07723455747 -0.08770242344 0.06427245205 0.08784954303 -0.07711969572 -0.1068787714 0.04878558494 -0.02865900894 -0.02718944612 0.02297606092 0.01360041691 -0.03179498525 0.007224562919 -0.02187206465 -0.01388844034 -0.008233293631 -0.01542752619 -0.002923383561 -0.001003767889 0.0003153913617 0.0004965316491 3.653449023e-05 6.983794012e-05 7.489832246e-05 -0.0008810537459 0.0001156219035 0.0001851591262 0.0007104737428 0.0002183255904 0.0001968375307 0.0001629674728 -0.0004194748822 -0.01012123016
	 -0.1143623842 0.04159047253 0.07453684 -0.0857422293 0.06263836938 0.08726110888 -0.07667794875 -0.1074868057 0.04917083034 -0.02934905048 -0.02812587906 0.02420377503 0.01466592406 -0.03501085974 0.008258178051 -0.02551125146 -0.01650007377 -0.009998352899 -0.01930485286 -0.003768449956 -0.0012858857 0.0003946302928 0.0006126968311 1.941472155e-06 6.581359839e-05 8.300546466e-05 -0.002469857381 0.0001502162721 2.834629921e-05 0.0004692351951 0.0001735061372 0.0001676463549 9.806860789e-05 -0.0003092913795 -0.007755721945
	 -0.1128786268 0.04251249237 0.07175096458 -0.08363524189 0.06071836464 0.08583726666 -0.07549085025 -0.1066163319 0.0489471046 -0.02939995066 -0.02852450519 0.02474053194 0.01528676835 -0.03690493979 0.0089409153 -0.02788765548 -0.01826463792 -0.01121111206 -0.02211960769 -0.00439993869 -0.001493190238 0.0004446016177 0.0006893889981 -4.270364373e-05 5.456863637e-05 8.839470044e-05 -0.00436625839 0.0001833484434 -0.0002059838634 7.769856448e-05 9.99061115e-05 0.000112053173 1.1707011e-05 -0.0001411117338 -0.003890822821
	 -0.1114822653 0.04280364448 0.06886431554 -0.08138304711 0.0585050779 0.08358565659 -0.07355241076 -0.1042684808 0.0481073072 -0.02880957019 -0.02837792977 0.02458207737 0.01546592645 -0.03750009755 0.009291985811 -0.02907794907 -0.01925092181 -0.01192263447 -0.02400812819 -0.004852294727 -0.001643199696 0.0004682871805 0.0007397627291 -9.691705908e-05 3.791018111e-05 9.730621087e-05 -0.006741848897 0.0002235376103 -0.0005319278802 -0.0004649633272 6.087439834e-06 3.647646235e-05 -8.990160319e-05 7.171898657e-05 0.001172680769
	 -0.1101662556 0.04254880475 0.06589084143 -0.07901088775 0.05603424184 0.08061278731 -0.07094718014 -0.1006153582 0.04671505076 -0.02764942345 -0.02773798084 0.02379918175 0.01524781246 -0.03693528047 0.009351940382 -0.02922752149 -0.01956074026 -0.01219922301 -0.02510826349 -0.005154674991 -0.001748799992 0.0004683843289 0.0007714948872 -0.0001586278103 1.708469872e-05 0.0001128180161 -0.009587830671 0.0002729596021 -0.0009400048868 -0.001134323736 -0.0001004028613 -5.365240225e-05 -0.0001996726322 0.000314731164 0.007076701725
	 -0.1089180925 0.041879378 0.06286369111 -0.07655995872 0.05337176802 0.07709453923 -0.06782297659 -0.09595033553 0.04488437232 -0.02604389279 -0.02670035634 0.02251773115 0.01470805936 -0.0354368158 0.009178023615 -0.02853564297 -0.0193231628 -0.01212060778 -0.02556384088 -0.00533347906 -0.001819938711 0.0004475384781 0.0007885418437 -0.0002247148101 -6.987236547e-06 0.0001355454188 -0.01276159292 0.0003291320314 -0.001402885768 -0.001886178751 -0.0002123608732 -0.0001532809308 -0.000309440215 0.0005719271304 0.01339662119
	 -0.107723438 0.0409468114 0.0598248897 -0.07407707732 0.05059617993 0.07323524371 -0.0643544755 -0.09061709883 0.04275106112 -0.02413980531 -0.02537976328 0.020887317 0.01393568543 -0.03326731443 0.008833745943 -0.02722053417 -0.01867515279 -0.01176910435 -0.02551366435 -0.005411683724 -0.001864108421 0.0004080372938 0.000792395982 -0.0002913890133 -3.364934026e-05 0.0001648468473 -0.01604799591 0.0003867244003 -0.001883837399 -0.002666470557 -0.0003230126156 -0.0002579018395 -0.0004107605838 0.0008268059842 0.01967480785
	 -0.1065684863 0.03989590972 0.05681613264 -0.07160658033 0.04778336395 0.06923059291 -0.0607098014 -0.0849465539 0.04044624512 -0.02207894505 -0.02388747295 0.01905271715 0.01301631624 -0.0306783075 0.008378790542 -0.02548656186 -0.01774330369 -0.01122039192 -0.0250807969 -0.005408736243 -0.001887158912 0.000351863831 0.0007833468754 -0.0003551936806 -6.238161137e-05 0.0001994480971 -0.01922462429 0.0004400145286 -0.002346144753 -0.003422996104 -0.0004265590122 -0.0003636551038 -0.0004958959971 0.001064597132 0.02549250701
	 -0.1054399355 0.03884920919 0.05387273968 -0.06918536548 0.044995888 0.06524493597 -0.05702942999 -0.07921727675 0.03807986035 -0.01998163908 -0.02231752069 0.01713733752 0.01202255724 -0.0278839321 0.007863514624 -0.02350822691 -0.01663580657 -0.01053963184 -0.02437209435 -0.005341999303 -0.001893934294 0.0002809360736 0.0007617246549 -0.0004134847043 -9.286109135e-05 0.0002381763944 -0.0221170193 0.0004843901227 -0.002761576436 -0.004115848664 -0.0005188260382 -0.0004677085545 -0.0005597833959 0.001275033575 0.03055476538
	 -65.59824052 13.93304229 -8.156309934 3.638850349 -2.335164358 -1.573682761 1.319972018 1.317232704 -0.6430442953 0.2452116457 0.2960645032 -0.1946896592 -0.1379105453 0.2725789951 -0.07181209132 0.183143297 0.1251898004 0.06995145552 0.1485498314 0.02836035666 0.01208648364 -0.001284150376 -0.004522131341 0.0005515600056 -0.0001668313255 -0.001370967933 0.07082804766 -0.001954783923 0.007906336491 0.01077410018 0.000963220109 0.0008316007802 0.001547210916 -0.003133288485 -0.07388513345
	