101 42	
	 13.33403653 297.7071232 -21.74073387 -77.90173095 98.11119311 81.56130957 72.35375395 58.34546639 -50.86247621 -42.85500478 -38.24426827 34.26651352 28.09075594 -26.44952795 -24.281459 15.36695967 21.8970528 -13.44740218 -3.995577331 20.65113948 -1.935353837 0.7515005394 -12.88631315 7.400979139 -0.4026106423 -4.676373804 9.764512913 0.1620090788 1.413112658 1.40091378 1.461112199 0.1173040055 1.06934867 0.9116105598 0.5284739327 1.081242126 0.04031529423 0.9527537802 0.01670180539 0.6452885708 0.003539738922 0.1445054274
	 -9.161704051 -19.235241 -26.6171424 -14.16402323 6.523306286 1.232379673 -1.662775985 -3.613822927 4.846237591 6.031628489 6.812072026 -8.094102066 -8.051475589 9.39706577 10.64873364 -7.510270499 -13.27614217 8.746063789 3.07547282 -18.15550504 1.781488046 -1.041489457 15.99762906 -9.367080349 0.5581194637 8.741938238 -18.13623812 -0.2609226483 -3.25797759 -3.334002648 -3.867508382 -0.2709373416 -3.039938567 -2.546896912 -1.610352537 -3.321202589 -0.1518331797 -3.054351802 -0.06976226615 -2.23305334 -0.01028599163 -0.5447269563
	 -8.651436553 -18.99411627 -23.65706085 -11.33323863 3.646447478 -1.568429559 -4.659690275 -6.720374448 8.136502109 9.348116046 10.29094442 -11.57753576 -11.1565222 12.28627651 12.98375674 -8.720886441 -13.71134027 8.625164136 2.604367003 -13.3898973 1.192280642 -0.4091641923 5.79126264 -3.211701418 0.1182201811 -1.974605048 4.02716116 -0.07901781386 1.959627916 2.285378452 3.488634652 0.2479416937 3.228137883 2.745289586 2.066585395 4.351574981 0.260543917 4.552424263 0.1401907075 3.999622619 0.01472982326 1.132494968
	 -8.226075564 -18.55672437 -20.94600482 -8.72297595 0.9857944376 -4.075958021 -7.15003729 -8.992856398 10.16354252 10.9161946 11.42684981 -11.9788013 -10.78273346 10.86319624 10.03684806 -6.302832931 -7.58393657 4.357929366 0.746305457 -1.796794293 -0.04003742141 0.2947229564 -5.437557974 3.33636435 -0.2916416586 -5.714432604 11.93213641 0.215633359 1.818942992 1.606636785 0.9037913906 0.05764103502 -0.07712156156 -0.3147471823 -0.9030319374 -2.099461757 -0.2394527163 -3.683382918 -0.1778431281 -5.033190678 -0.01569295552 -1.81334217
	 -7.619319092 -18.40212706 -18.85855888 -6.2785359 -1.723478188 -6.95647127 -10.01682871 -11.6098093 12.28357453 12.29452938 11.87516187 -11.06023845 -8.484887113 6.702052983 3.346739153 -1.312194664 3.102867221 -2.690110202 -1.831124366 12.06883495 -1.331683505 0.6712530738 -10.27844829 5.868246986 -0.2504001963 1.917550318 -4.238305576 0.05534724885 -2.881466718 -3.367611102 -4.481815881 -0.3155736809 -3.428364581 -2.635296551 -1.143343201 -2.110304919 0.0663357965 0.5358184924 0.1491878948 4.665295877 0.01335868338 2.431721735
	 -7.397903128 -17.75033478 -16.33156277 -4.106046379 -3.660616922 -8.295473055 -10.68227905 -11.38956641 11.19002412 10.22287095 8.846530684 -6.884346362 -3.900111383 1.29978772 -2.351174457 2.389045814 7.469085333 -5.115298235 -1.933708679 10.39186366 -0.8988789316 0.2585297046 -2.459170009 1.215370837 0.08895872394 3.956444352 -8.276056409 -0.1612217744 -0.8364623166 -0.2570782965 1.451116842 0.1141870275 2.282204848 2.242866859 1.866916776 3.903246495 0.1306881924 2.516915747 -0.05850310258 -2.714268686 -0.008358304717 -2.63748712
	 -7.010794659 -17.36765736 -14.44833958 -1.976080843 -5.751850078 -10.13245516 -11.85940562 -11.6544929 10.29492905 8.059102307 5.252543425 -1.738454899 1.787630256 -5.035087834 -8.087058372 5.727919925 8.82745653 -5.226606189 -0.7411592793 0.4645091943 0.3967975952 -0.5378714822 9.893674665 -5.878596988 0.3541025068 -0.4628119576 1.478948864 -0.061885264 2.911144832 3.331049374 3.60115033 0.2447577726 1.846340297 0.9241980113 -0.5167273203 -1.442045143 -0.1813352041 -2.874306091 -0.04165491084 -0.1198449616 0.001986259621 1.922510137
	 -6.798894457 -16.71171889 -12.47617011 -0.3099016 -6.913752887 -10.49736072 -11.27286175 -10.12839007 7.954396766 5.088615179 1.819995587 1.870725449 4.661265016 -7.039159538 -8.09984296 5.194251767 5.041017109 -2.506585987 0.3936485136 -5.405581173 0.8380463949 -0.5540565774 8.475542168 -4.852604366 0.1586151701 -2.465157963 5.338720965 0.07692302313 0.9771280492 0.3544717018 -1.340078378 -0.1059893085 -2.006683218 -1.920689186 -1.096606776 -2.081061756 0.01738215087 -0.02707112886 0.06650525508 2.002139748 0.003042678816 -0.09645652016
	 -6.657321204 -16.067118 -10.51225854 1.301570586 -8.039509479 -10.64402061 -10.25197779 -7.869358113 4.652039457 1.062661716 -2.451897557 5.623890571 6.582133343 -6.744077456 -4.32395514 1.995217274 -2.559791278 2.333577045 1.483261182 -8.168700367 0.6197783805 0.008064917257 -2.859336636 1.966992691 -0.2913159243 -1.111804443 1.756469983 0.09464201695 -2.773278719 -3.442688431 -3.904496444 -0.264674159 -1.840222779 -0.6874429112 0.8794673455 2.21380843 0.1961598208 3.224935204 0.006191941818 -1.447364144 -0.005031158346 -2.226558644
	 -6.093788144 -16.04049701 -9.318916519 2.866048793 -9.581871309 -11.72748706 -10.4713016 -7.055696603 2.776190421 -1.632501536 -5.604854679 8.508824105 8.057852842 -6.41082774 -1.331050938 -0.4863752973 -7.606662476 5.413506074 1.853637988 -7.53778836 0.1941354823 0.4145485697 -10.02797367 6.12286552 -0.4378520645 1.292079599 -3.305522252 0.008538359924 -1.909851583 -0.9615709151 1.681054566 0.1364725075 2.65829535 2.511062743 0.7100150054 0.9094356661 -0.1996196084 -2.817601281 -0.08134611104 -0.8063410364 0.005354995045 3.577307513
	 -6.28069495 -14.82574822 -7.382250654 3.563747538 -8.902666381 -9.507182764 -7.218140083 -3.470217218 -0.2972201151 -3.481868334 -5.569939242 6.107571636 4.062507163 -1.453509812 2.557824634 -2.390416933 -5.387751173 3.237386795 0.3112851715 1.009873821 -0.3740312056 0.2826108725 -3.312413128 1.79117552 0.0732354803 1.197977553 -2.304250327 -0.1059336044 1.842878163 2.437684032 2.704851861 0.1810260235 0.7647675503 -0.5161661749 -0.9669820764 -1.964221081 -0.009200860795 -0.6970944711 0.04292566987 2.019953391 -0.006010910432 -2.470060345
	 -5.814981371 -14.81958983 -6.259415316 5.341478986 -10.50134425 -10.22436374 -6.481230408 -1.374776569 -3.38056742 -6.586997823 -7.628151303 5.82050345 1.377552356 3.095854544 6.945977791 -4.798160615 -3.849440675 1.468647039 -1.230691894 9.457162952 -0.943029868 0.07360070996 3.684325754 -2.678653298 0.4730047336 0.3585678525 0.2805913665 -0.05171928457 2.987007161 2.352543604 -0.3058773013 -0.0463658213 -1.896390786 -1.648121871 -0.5474964959 -0.8128705313 0.1336004797 2.359749283 0.06764374871 -0.5345562223 0.005000882637 -0.6209052176
	 -5.630581418 -14.24416378 -5.12931342 6.004465878 -10.35274399 -9.220660212 -4.965514858 0.1324916037 -4.41754677 -6.784486627 -6.791023191 4.029851734 -0.5244445204 4.599691473 6.913187125 -4.360546802 -1.301981268 -0.2245901829 -1.517922268 9.381343668 -0.714407701 -0.09617819592 5.440623098 -3.545882835 0.3333201898 -0.6290569649 1.825028135 0.03598091584 0.1462571152 -0.8858729729 -2.320232184 -0.1621691579 -1.062991942 0.06937752176 0.856037168 1.831273431 -0.004144670351 0.2330260868 -0.0673128835 -1.691234311 0.001958427824 2.677483321
	 -5.796421465 -13.0576486 -3.763378295 5.891168196 -8.706653722 -6.436798734 -2.141887677 1.97026616 -4.48305023 -4.893401213 -3.269122461 0.1501159928 -2.589153455 3.985918571 2.861270961 -1.233418571 2.296248922 -1.868192106 -0.6064781731 1.500300247 0.1717462902 -0.1712419593 1.961480375 -0.9579239659 -0.1546704359 -0.8349600242 1.051787846 0.03851727923 -2.412230637 -2.485376395 -0.5770703545 -0.01373527166 1.446109986 1.259130204 0.5604164358 0.9380255188 -0.1182706818 -2.445679407 -0.06130143025 1.520869601 -0.01028113911 -1.521479193
	 -5.313260687 -13.26388721 -2.711355795 7.761203516 -10.11782174 -6.42823745 -0.412697223 4.629379915 -6.931942548 -5.773095382 -1.794715964 -3.495914541 -6.024861384 5.563966715 0.1866721072 1.289082872 6.84725966 -4.188694103 0.09777008789 -5.549289464 0.9331023176 -0.2605206657 -1.19028611 1.284943182 -0.4831907105 -0.4091888505 -0.09832991811 0.0636626606 -2.346084484 -1.195935042 1.335876182 0.104631872 1.35478995 0.7785203413 -0.5475728148 -1.408830184 -0.009417660291 0.01367365837 0.07136933132 0.6743501946 0.004579096149 -0.9829020331
	 -5.010907926 -13.08188697 -1.918348676 8.607779081 -10.44758353 -5.967589244 0.7272947658 5.856637436 -7.673057792 -5.564415348 -0.5984984874 -5.222595026 -7.116345184 5.467854398 -1.619833882 2.661045205 8.019731583 -4.552209339 0.563945118 -8.399778244 1.064684551 -0.1838490763 -3.009070228 2.311666999 -0.4018580114 0.3079391903 -1.059416375 0.01931282755 0.180672301 1.508054868 1.744585127 0.1015265524 -0.5960143937 -0.9869146358 -0.9368851134 -1.789779186 0.1339173199 2.760650668 0.09624567984 -1.518363147 0.01267512112 1.490215373
	 -5.35244919 -11.50830377 -1.252674539 6.858145953 -7.367526215 -3.202159236 1.495119329 4.253343227 -4.355612581 -2.230071897 0.987942696 -3.595821699 -3.354526003 1.441350307 -1.996840499 1.837340264 2.479784795 -1.156393551 0.427994132 -3.219519779 0.2579750513 0.04241856124 -1.428512796 0.8963970094 0.01055310619 0.3114981637 -0.5709764042 -0.06834301102 1.63832221 1.33860623 -0.3390676405 -0.03538415196 -1.046566743 -1.111871125 0.4949854898 1.447302282 -0.01111355344 -0.700799148 -0.09168670102 0.08741764741 -0.008530534473 -0.00889770424
	 -5.245972163 -11.01280674 -0.3950539151 7.174059615 -6.643446717 -1.620416353 3.021515687 4.656680078 -3.160955334 0.1146133402 3.171869002 -3.816311067 -1.174859012 -1.939359777 -3.271998733 1.768847577 -1.999136527 1.742611315 0.4217448373 0.492509237 -0.3896085797 0.201003306 -0.3244265364 -0.1436174051 0.2984828825 0.3770194179 -0.1690007266 -0.07552401749 2.086628476 0.9298507438 -1.488919618 -0.108689579 -0.963606732 -0.4412555036 0.9891650268 2.314532071 -0.08605134848 -2.094954445 -0.1609637081 0.8853142344 -0.01992546577 -0.7707014721
	 -4.720542157 -11.54538995 0.6702568648 9.48888592 -8.146134602 -0.949858163 5.650612188 7.218593764 -3.784798705 2.180371106 6.679618695 -6.024091874 0.04694677118 -5.745520947 -6.031715313 2.58061643 -6.906706456 5.188059523 0.614513672 4.118655081 -1.20787594 0.4029135501 0.7730504163 -1.33850318 0.648413697 0.4339526707 0.4653801696 0.01837099407 0.5614150078 -0.800956085 -1.322050992 -0.07803203291 0.8889355767 2.017810797 -0.2499984096 -1.327687198 -0.01972512345 0.521196782 0.1454046806 -0.1026575613 0.01719477271 0.09182669702
	 -4.69398679 -10.8807632 1.022211863 8.890346302 -7.156231154 -0.2693597284 5.536672015 6.471399691 -2.89393868 2.586480506 6.253632879 -4.960267147 0.7411272944 -5.574276629 -5.071043362 1.993789127 -6.553664035 4.796632403 0.476461186 4.248912214 -1.116055049 0.3509896591 1.014332926 -1.360775528 0.5170801556 0.1209469815 0.6234732134 0.03757701179 -0.9105513202 -1.580805385 0.08637770798 0.02426997516 1.448005074 1.52905279 -0.7980720417 -2.301415366 0.04328643334 1.586429045 0.2109595694 -0.5556982057 0.02672517513 0.4451001349
	 -5.015527923 -9.389086449 0.998918121 6.345402553 -4.286495783 0.6795808036 3.604002693 3.212226427 -0.5833552479 2.053250322 2.936141356 -1.198813594 1.274906565 -2.397383781 -1.009987269 0.1675254135 -1.979574085 1.279397798 0.05068143322 1.380654824 -0.235835345 0.07433125599 0.3720771336 -0.2846054341 -0.01466494565 -0.2750161601 0.1446013062 -0.02922355588 -0.8179542984 -0.4430912973 1.348990923 0.09362424426 -0.2053471993 -1.782695211 0.08846849209 1.012420579 0.02905407777 -0.4715572665 -0.1658228148 0.1702931058 -0.02326262041 -0.1953575148
	 -4.90331067 -9.007336595 1.649439838 6.370353782 -3.409565885 1.864191834 3.960185156 2.224006304 1.152604118 3.08798905 2.071127254 1.200052609 2.642641299 -1.326382658 1.938051506 -1.510841253 0.370014951 -0.8000583747 -0.41981952 0.04703745546 0.3994108737 -0.1988821526 0.2776620641 0.3125108748 -0.4456558645 -0.5535688966 -0.0645441574 -0.003511792465 -1.446737038 -0.001090114888 2.00001648 0.1311265655 -0.6252056448 -2.560489123 0.1405329073 1.512855685 0.04357513454 -0.6345655928 -0.2933047266 0.1364823304 -0.04356651637 -0.1126515223
	 -4.485472563 -9.443131159 2.924229353 8.429069065 -3.784010602 3.702958182 6.239635042 2.441394921 3.369710201 5.813689025 2.510124888 3.838734237 5.256134597 -1.12449348 5.721088771 -4.020931376 2.734412539 -3.261525133 -1.245419236 -1.417943657 1.348383735 -0.6614205283 0.2535481874 1.092326347 -0.9521625134 -0.5461729992 -0.3870193171 0.08047799051 -0.9255340471 1.355671535 -0.08460304647 -0.02695312114 -0.8265562756 0.4906328944 0.2290090307 0.03785996458 -0.04789529699 -0.07427291258 0.1207925772 -0.01369073911 0.02411043083 0.09544872768
	 -4.248075523 -9.432676043 3.629082763 9.252413561 -3.736660877 4.617355492 7.19689554 2.390811824 4.445995489 6.932528262 2.479910874 5.028116882 6.1612379 -0.8182484906 7.243563582 -4.998843791 3.882784825 -4.392644445 -1.593941568 -2.244597596 1.745228725 -0.8257571091 0.07851648671 1.412555762 -1.00883614 -0.3196954395 -0.5754159326 0.09842743036 0.5236517688 2.052990801 -2.47724467 -0.1936440395 -0.562963406 3.427748545 0.2989402757 -1.373565048 -0.1255573853 0.3731734793 0.5187834062 -0.03659112091 0.08812651299 0.0955226651
	 -4.532837026 -8.07164641 2.88359978 6.395902195 -2.074031715 3.255671996 4.18392345 0.9862058607 2.829824568 3.610792604 0.7090323727 2.999616701 2.810828736 0.04686867945 3.308432232 -2.140359257 1.897336667 -2.002968036 -0.6048170665 -1.003993533 0.587674125 -0.1897684855 -0.1538556353 0.393293051 -0.09434823919 -0.0236319059 -0.116701586 -0.04304207 0.9789049315 -0.576292386 -0.2991961294 -0.002897912956 0.6998676602 -0.3504937759 -0.2253190712 0.01423114617 0.06457152778 0.0572395584 -0.2281350424 -0.007865796653 -0.05007523456 -0.09195282829
	 -4.597212993 -7.317329845 2.779435401 5.075197302 -0.9717823687 2.886742369 2.586664475 -0.1727664274 2.279881654 1.636435171 -0.7590774498 2.046377459 0.5363410987 1.080124574 0.7889451705 -0.1367291211 0.8311351048 -0.3991638195 0.2164937215 -0.3277107901 -0.2962192484 0.2669083048 -0.3737150394 -0.3088875439 0.531730259 0.3101592427 0.1599917747 -0.1149257285 1.503723108 -1.771918365 0.3058035093 0.05547182205 1.261804032 -1.526024888 -0.3986944615 0.4294244313 0.1189945815 -0.06003133409 -0.4259268708 0.02043770467 -0.08124705081 -0.1371323331
	 -4.428455067 -7.201495322 3.467975949 5.41223143 -0.2529213989 3.773837601 2.345226983 -1.4994279 3.063344902 0.751703836 -2.423135292 2.14874434 -1.202296686 2.608545475 -0.9290524556 1.494394589 0.3400001228 0.8533743524 1.041386363 0.009979623567 -1.110580939 0.6433453243 -0.5847237914 -0.9097977078 1.08070053 0.8450037439 0.4364045212 -0.1096211324 1.319328317 -1.724706103 0.3960282825 0.05164834145 0.8622554325 -1.097075086 -0.2495545503 0.2746013144 0.05312741449 -0.03161783626 -0.1560053126 -0.008280850326 -0.02072034754 0.01181564345
	 -4.102441816 -7.521967626 4.838501276 6.931645694 0.4626830111 5.764656092 2.871912443 -3.435074914 5.011929089 0.2249321107 -4.861385981 2.859522229 -3.399951757 4.917365704 -3.083920594 3.617803523 -0.2981950549 2.512723734 2.105206468 0.4397116403 -2.157839761 1.092619043 -0.7758979468 -1.698910575 1.698271774 1.431132518 0.7813603174 -0.002451732046 -0.7669035164 -0.04167524688 0.9012756064 0.03739872121 -1.254120313 0.4550151628 0.4475844089 -0.04959340346 -0.1621127462 -0.06067663956 0.620832622 -0.03478741645 0.140849056 0.2970718903
	 -3.950749892 -7.389787086 5.429992232 7.16020325 1.043811019 6.346383337 2.675702402 -4.269489443 5.435973185 -0.308177468 -5.634034287 2.64438994 -4.21510274 5.20967906 -3.881467079 4.138504875 -0.8013874159 2.941074801 2.035069735 0.6965695944 -1.937649284 0.8714914683 -0.4402343893 -1.366828436 0.9861900737 0.5603203467 0.3776426887 0.1039815883 -2.162122863 1.696634428 0.3947132627 -0.01683618517 -1.786908144 1.355521832 0.5232085589 -0.2759070151 -0.1265429145 -0.01464356841 0.3624655229 0.01355462342 0.05026935084 0.006577659344
	 -4.07216057 -6.552243608 4.657772894 5.318489479 1.234026529 4.62044941 1.439282564 -3.186882109 3.384472611 -0.7745244779 -3.778736168 1.188962373 -2.854733542 2.735612241 -2.524362232 2.358285085 -0.7618745304 1.563468933 0.6952223956 0.5273052012 -0.4591167685 0.1068313852 0.1331916268 -0.1067036356 -0.3758490595 -0.8789981698 -0.3708357693 0.07638613064 -0.9767772359 1.257409968 -0.5794582125 -0.04636105215 0.04782126199 0.4435432028 -0.1307240486 -0.1156830456 0.1015425182 0.04329452909 -0.4581636367 0.06533556966 -0.12808519 -0.3951495993
	 -4.094637318 -5.985166495 4.266911271 4.08277033 1.506027954 3.538837467 0.4157547087 -2.58056124 1.757189185 -1.374376876 -2.374074796 -0.1836404733 -1.928006001 0.6133110713 -1.567540614 0.8984604342 -0.9025837863 0.4055560819 -0.5690911599 0.4290799417 0.975688677 -0.6848624236 0.7858180859 1.21225355 -1.867893659 -2.04108897 -0.995654513 0.04080097618 0.2481163424 0.4407146456 -1.003137052 -0.04242220849 1.543060157 -0.8131107568 -0.560381672 0.1795436385 0.1761997396 0.0461750562 -0.5556869172 -0.01504618034 -0.08033211538 0.02005767669
	 -4.002870808 -5.741758887 4.510907338 3.736787232 2.031999365 3.372431836 -0.4097842062 -2.807758675 0.7902580694 -2.209629841 -1.644435825 -1.452476298 -1.527743941 -0.9929446112 -1.017119338 -0.1464163458 -1.120726331 -0.3912423984 -1.491764971 0.3534226355 1.994033863 -1.255797783 1.243211335 2.098794034 -2.698945934 -2.195508203 -1.127459714 0.01057198199 0.9391156533 -0.250172757 -0.8042562407 -0.02118072181 1.706211385 -1.187837787 -0.4987736143 0.2404361886 0.09356443856 0.03807176608 -0.1802106141 -0.08438474595 0.02064348015 0.3707689964
	 -3.878022209 -5.63490376 5.163696256 3.899685649 2.785148184 3.556582381 -1.309738416 -3.415756084 -0.1074685354 -3.165702807 -0.8437820035 -2.871427414 -0.9083586908 -2.740663713 -0.06039930365 -1.433461546 -0.943951602 -1.252962005 -1.915289605 -0.003763325334 2.030950689 -1.060251665 0.7594003808 1.482046165 -0.8873067061 0.4683837801 0.1643802928 -0.08051263009 1.119755502 -1.511037012 1.036359565 0.06656470754 -1.076610454 0.349813041 0.6328329591 -0.1116026965 -0.2593612756 -0.09869756248 0.9413079853 0.04024681663 0.1497612451 -0.1082328062
	 -3.695316152 -5.652382204 6.166090566 4.268687632 3.872101111 4.05363985 -2.42104478 -4.433479942 -0.9137649952 -4.402313758 -0.2687177154 -4.433575123 -0.4743186784 -4.465203542 0.7896613768 -2.614043197 -0.8189069961 -1.970027358 -2.218179135 -0.2982090912 1.94983933 -0.8283874861 0.3368544158 0.8555479681 0.4230144165 2.007490788 0.8983844989 -0.08959306282 0.7623133644 -1.500652887 1.438869538 0.07716554065 -1.851127802 0.9228652002 0.715533613 -0.2599287593 -0.2290502551 -0.03124054258 0.6719180586 0.01839781299 0.08591968329 -0.1023557028
	 -3.614307315 -5.421990611 6.498077567 3.965081877 4.413484875 3.75651309 -3.1471856 -4.413626056 -1.626831534 -4.594618164 0.4177344655 -4.718312236 0.2218763948 -4.73953434 1.533940365 -2.868644139 -0.09164342404 -1.873853269 -1.145687233 -0.5516127083 0.2820791098 0.2897217572 -0.721974724 -0.9754404761 2.27783474 2.168421505 1.058358772 -0.009392364343 -0.7760719726 0.5734794443 -0.04968756948 -0.02233720914 -0.2732990062 0.407912486 -0.2801460939 -0.01269659288 0.2118981615 0.05902183942 -0.9757828253 0.00865888655 -0.1955987772 -0.04833525125
	 -3.636089189 -4.969441916 5.925203855 3.074928836 3.991258892 2.786739921 -2.905495287 -3.224118149 -1.761751506 -3.485743497 0.7913498492 -3.491508133 0.661989363 -3.439285863 1.518571936 -2.049714953 0.4444446317 -1.135334258 0.006250918773 -0.4746905042 -0.9039131151 0.8695874619 -1.03980724 -1.626780358 2.185828252 0.87046489 0.4788873245 0.03811261694 -1.150803883 1.406715521 -0.913518509 -0.06400494769 0.9359014108 -0.309302331 -0.601779352 0.1686546598 0.2490053331 0.03962718802 -0.8086107892 -0.004949672223 -0.1147023625 0.03932019093
	 -3.666483351 -4.525653121 5.200823767 2.16490972 3.320039393 1.788179842 -2.375586225 -1.838974349 -1.683598296 -2.062876878 1.01852844 -1.884136464 0.9054338604 -1.744480542 1.134839205 -0.945572433 0.6798918552 -0.3078376511 0.760939408 -0.2371728231 -1.336293514 0.8809611971 -0.7571858263 -1.267209252 0.8906742651 -0.6089638692 -0.2341948071 0.03486276771 -0.5534077796 0.8873087984 -0.7484866123 -0.03984056408 1.001491702 -0.6031004666 -0.2365853046 0.1537381144 0.01173077802 -0.02283150139 0.2915503863 -0.01082427557 0.09856292932 0.06967181727
	 -3.632400867 -4.245456208 5.023829184 1.621162292 3.152467471 1.14906314 -2.330180748 -0.973771638 -1.907272843 -1.094089923 1.465094514 -0.7534122424 1.287326412 -0.4656563111 0.9671688092 -0.122324526 0.915176827 0.3652256912 1.391489224 -0.06574738097 -1.678746855 0.8511451255 -0.4762028973 -0.9123577632 -0.2619340695 -1.513667615 -0.6911211915 0.02679215285 0.09049954141 0.0943474011 -0.2105401184 -0.0008668575808 0.4274246872 -0.3964983797 0.1744410878 0.01587728952 -0.1431947673 -0.03537258563 0.7045089178 -0.007755070288 0.1333546191 0.02590953369
	 -3.543023002 -4.093361855 5.359348043 1.353488656 3.481583522 0.713204897 -2.766079976 -0.4317859742 -2.478789567 -0.3878787638 2.218004137 0.1335877002 1.899241875 0.6862631348 0.992315994 0.6038683573 1.241329344 1.050471219 2.104372409 0.06454473852 -2.075166795 0.8239307807 -0.210326807 -0.6052700501 -1.309863477 -2.062824023 -0.9982345079 0.03163846753 0.7271235969 -0.7974091885 0.4739776816 0.04530124574 -0.4702804822 0.1353003119 0.4951572079 -0.1815001424 -0.2164703538 -0.004837609818 0.4992747948 -0.003883940412 0.03355185101 -0.04519294563
	 -3.442089815 -3.96858191 5.84744283 1.132071171 3.969701356 0.2561636846 -3.334846206 0.06917720683 -3.087690545 0.2686886102 2.929891499 0.9771578288 2.366540007 1.800660158 0.8492160482 1.264687523 1.296956011 1.537168387 2.255541585 0.1878533156 -1.766594107 0.4688892956 0.161161414 -0.02252888241 -1.77949828 -1.615474885 -0.8178062001 0.02317467681 0.918743669 -1.143947965 0.7888778581 0.0609846097 -0.9636219188 0.5096006393 0.4737650264 -0.2391735501 -0.1589010598 0.0218685391 0.03531422729 0.002337108586 -0.079211239 -0.07636331386
	 -3.347092625 -3.826645663 6.386773402 0.8435851393 4.569935407 -0.3977732302 -4.010436566 0.7594201051 -3.688215128 1.090262752 3.493250079 2.003596307 2.485095169 3.0740792 0.2457417824 1.967205839 0.7789241505 1.723001823 1.261834054 0.3544055153 0.07972902582 -0.6393125498 0.8476397309 1.296633274 -1.255118151 0.8333694732 0.3543892966 -0.03139036465 0.1660477792 -0.2943455872 0.2728339085 0.001524523773 -0.4571577489 0.3896900204 -0.295420736 0.0649010701 0.2193735429 0.01590997034 -0.7902911216 0.01529200247 -0.1101633006 0.01247096417
	 -3.265153643 -3.670737857 6.79241411 0.5538426489 5.025225117 -1.009551501 -4.49577144 1.412793995 -4.034466766 1.827930033 3.730775019 2.842938033 2.317397402 3.992857175 -0.4027095676 2.419481115 0.1469864159 1.663879738 0.05033974976 0.4660180028 1.964714286 -1.647774882 1.363591436 2.362924437 -0.415758298 3.112547483 1.455274783 -0.07748433972 -0.6421472644 0.6726464708 -0.3752939353 -0.06164605011 0.2623847102 0.1075341903 -0.9690181365 0.347425473 0.5103876531 0.004013587837 -1.247255693 0.01915625275 -0.05295808531 0.1008405714
	 -3.283493443 -3.354860995 5.998821715 0.1062784974 4.053782906 -1.141947495 -3.339732582 1.526017155 -2.84288616 1.738957747 2.410462267 2.378036543 1.196033879 2.82039764 -0.6641315687 1.540179044 -0.3324750596 0.6991898874 -0.7756150494 0.2564501607 1.875648208 -1.093527987 0.6471256165 1.246008018 0.5707574665 1.737634399 0.8392339126 -0.03973555112 -0.5639909449 0.6624007093 -0.4478135819 -0.03243307334 0.5893971078 -0.3684219803 -0.0925208841 0.08256941032 -0.07050916018 -0.01855783827 0.5973464094 -0.01345673578 0.1068939239 -0.002338535263
	 -3.293407535 -3.069096568 5.265178175 -0.2870080051 3.107850409 -1.189244254 -2.205110243 1.567297356 -1.650680553 1.596175408 1.080551692 1.815017171 0.106914881 1.519803298 -0.7990828638 0.5892071314 -0.6658477063 -0.2122882972 -1.286728443 0.03035992269 1.355846656 -0.3453910512 -0.1206522825 -0.0231296997 1.139574981 -0.01660216785 0.02593350292 -0.003016458984 -0.2258751248 0.3086636978 -0.2538031869 0.0007303835045 0.4832321317 -0.4740076339 0.5146603113 -0.1313527018 -0.3789240742 -0.02079213105 1.324568331 -0.02338150872 0.1352804738 -0.06121715152
	 -3.25788795 -2.866974056 5.047240165 -0.5920362398 2.696551969 -1.374656001 -1.643432742 1.778112792 -0.939114326 1.733373446 0.2046557289 1.605787855 -0.7000739093 0.7672272341 -0.9766110173 -0.02955035923 -0.9719163947 -0.8573365681 -1.733942501 -0.1328542797 1.063141733 0.1280511696 -0.6045108723 -0.8411489801 1.372303296 -1.107040214 -0.4970432964 0.02528734445 0.08517180144 -0.06357803186 0.006754437552 0.01650477999 0.09893227872 -0.189367826 0.4816583637 -0.167345883 -0.2400993583 0.000161619346 0.504583349 -0.007652598823 0.01877586134 -0.03227936565
	 -3.198375826 -2.706780515 5.122610108 -0.8627832241 2.57717024 -1.67578179 -1.369148223 2.093984267 -0.4552839378 2.009328465 -0.4561361935 1.540372468 -1.349508108 0.2778939583 -1.149133767 -0.4652120209 -1.249835537 -1.35026885 -2.122180195 -0.2628625228 0.8474570935 0.4495724541 -0.9144848995 -1.383999864 1.437360722 -1.791284959 -0.837713528 0.0603497478 0.3209132062 -0.3633169404 0.2381580247 0.03026576752 -0.3116145418 0.1757667465 0.2624466155 -0.1494072117 0.005916188346 0.02563356826 -0.6114396147 0.01002571095 -0.1293462184 0.0185213124
	 -3.141965912 -2.5506319 5.197118683 -1.116991998 2.482535065 -1.982725187 -1.118793043 2.342243837 -0.02423907868 2.14091803 -0.9968726032 1.314506118 -1.750202058 -0.2093826453 -1.093938938 -0.7626348496 -1.233125456 -1.503941348 -1.937603153 -0.3096316576 0.3942131111 0.6079666458 -0.901030522 -1.420402021 1.012236366 -1.695333145 -0.8020781712 0.06139544173 0.3708100144 -0.4377815139 0.3067502791 0.03075569181 -0.4570421458 0.3305621285 0.05869675133 -0.09102474323 0.1744670246 0.02995181089 -1.078813524 0.01882548297 -0.1863033491 0.04237565286
	 -3.083014148 -2.393171571 5.383475136 -1.434541954 2.488564534 -2.515406353 -0.846505922 2.733192301 0.5458901515 2.257362495 -1.701360481 0.8480345008 -2.195215976 -1.025727236 -0.8012362648 -1.195504745 -0.8843394194 -1.429154579 -0.8757328302 -0.2927077518 -0.7358020399 0.6986106747 -0.4829906032 -0.8750233974 -0.4185780597 -0.4485795664 -0.2183134239 0.01522759549 0.1693946883 -0.2077690375 0.155495841 0.003921741195 -0.2561317446 0.2292542897 -0.2852948126 0.09319283551 0.2023194787 -0.000237445113 -0.4637262939 0.01074756618 -0.03742910892 0.01931141543
	 -2.98633791 -2.258008259 6.128999313 -1.92196948 2.93866006 -3.697675217 -0.7054266769 3.737358498 1.39954451 2.848800525 -2.960757728 0.3299930165 -3.287651572 -2.441666245 -0.5217534118 -2.159842597 -0.5004483394 -1.582978204 0.7838607243 -0.3260063716 -2.832367844 0.9555425669 0.1819837261 -0.0693642894 -3.084437926 1.774797342 0.8091907293 -0.03046078424 -0.2181747465 0.2370137595 -0.1283109744 -0.04754380814 0.06229510475 0.1301360747 -1.167311526 0.5224679267 0.2084289454 -0.05856499158 0.9142175701 -0.01649418392 0.3632650739 -0.0286072878
	 -2.950895942 -2.097704299 5.977776883 -2.100591936 2.637706858 -3.722070099 -0.3348686656 3.548526121 1.721880651 2.436446088 -3.067988963 -0.1705556495 -2.960556124 -2.608128379 -0.1138193666 -1.967464953 0.00538584591 -0.9779575595 1.562352329 -0.1696864892 -2.704237353 0.5814146957 0.512410374 0.5118009432 -2.841382914 1.974044107 0.908603556 -0.0448010465 -0.293625556 0.332945679 -0.2101606528 -0.03775080794 0.2357762771 -0.07261257884 -0.6347801464 0.3084398925 0.00305795333 -0.03958001724 0.9041730105 -0.01659855534 0.2392058507 -0.03072000653
	 -2.966626478 -1.915519334 5.078189808 -2.029781519 1.696441629 -2.780690891 0.2487130637 2.346874756 1.603726436 1.172442231 -2.195189133 -0.6436403694 -1.437816088 -1.707319757 0.3951819353 -0.7893725779 0.6013065659 0.2644353115 1.520925685 0.1367054798 -0.6742216845 -0.2928626275 0.5285181038 0.8502798707 -0.1443862089 0.4439082071 0.214255314 -0.03761693077 -0.09142078811 0.1138113829 -0.1034883068 0.01648101568 0.2494504319 -0.3169175763 0.955542334 -0.3923035541 -0.3056526917 0.03754892134 -0.258604022 0.006017104035 -0.2924622817 0.005365337937
	 -2.942290484 -1.766569727 4.745626005 -2.115562697 1.213241452 -2.459362025 0.6706817987 1.757070129 1.718748618 0.4450460092 -1.839362831 -1.02897165 -0.6451517955 -1.333673794 0.7541301609 -0.1781937128 1.028563451 1.051120749 1.634543077 0.3130168136 0.3839624525 -0.7774842205 0.5731099171 1.072882509 1.21057705 -0.2980413869 -0.1286704868 -0.02961571472 0.002617390434 0.009324078535 -0.04359558342 0.02894180407 0.1892424917 -0.3182845146 1.307765546 -0.5624429734 -0.3280735269 0.0580164658 -0.613292212 0.009611150228 -0.3820462828 0.01852599994
	 -2.904673759 -1.646025067 4.59500408 -2.217485513 0.9331827683 -2.321588498 0.9670359538 1.3920786 1.842021937 -0.05614057406 -1.598132304 -1.275813896 -0.141709204 -1.074520837 0.9451890508 0.1898779101 1.223434776 1.455624227 1.550291346 0.3808708851 0.9440379598 -0.9421013057 0.5020536876 1.014757852 1.746963754 -0.6784357264 -0.3083770255 -0.01486924953 0.0605838394 -0.06348011604 0.02666865349 0.01607146931 0.008237573996 -0.07948563224 0.5515499382 -0.2494675686 -0.06195727142 0.02545780264 -0.3772116049 0.004215220649 -0.0810754178 0.01300332701
	 -2.867276856 -1.539166279 4.45623675 -2.29824065 0.7027562155 -2.186041119 1.187045819 1.070299943 1.889212949 -0.4785091808 -1.30067919 -1.391995199 0.2953778931 -0.7521957443 0.9953330019 0.4799125523 1.196042051 1.556155208 1.193615698 0.3643452736 1.209768743 -0.8765733872 0.320432597 0.7239878049 1.768555519 -0.841805655 -0.3863533432 0.003308408837 0.09871920635 -0.1153672938 0.09095931583 -0.006856905964 -0.181258448 0.2002092849 -0.5099165745 0.2061242176 0.2644039765 -0.02455734652 0.08950843754 -0.002557480625 0.288262112 -0.002409365555
	 -2.830246103 -1.429721829 4.33769124 -2.39277937 0.4857817773 -2.09153594 1.390918533 0.7776171064 1.893582115 -0.8520005341 -0.9484665672 -1.424237798 0.7289046482 -0.3441745722 0.9400215797 0.7341943521 0.9825612535 1.408796563 0.6135095705 0.2766199207 1.20242618 -0.6310166106 0.0826074934 0.2975081217 1.33929243 -0.7446412369 -0.3413008354 0.01863901812 0.102593127 -0.1237468167 0.1110367652 -0.02745942078 -0.2451588557 0.3073030415 -0.9998505765 0.4242441755 0.4015831879 -0.0498344211 0.3540948082 -0.004745095836 0.4389403538 -0.01269256784
	 -2.785297934 -1.303975332 4.371989385 -2.60779654 0.271339881 -2.192831388 1.741114588 0.4720534779 2.001079187 -1.329728263 -0.5337197286 -1.536500199 1.372828046 0.2608462886 0.8499749965 1.096721832 0.6039369675 1.107771558 -0.3467313876 0.1047757961 1.038927296 -0.1302229193 -0.3013347783 -0.429295381 0.3082555756 -0.3175950837 -0.1453753821 0.03714873475 0.05864455089 -0.0722817358 0.07069711625 -0.02774517475 -0.1597440039 0.2117443796 -0.7716029927 0.3348024504 0.2431232966 -0.03735795157 0.3205992074 -0.002653018752 0.2480108233 -0.0121732408
	 -2.716263004 -1.141071406 4.809861418 -3.126135844 0.06677280356 -2.775051301 2.503060225 0.1103346325 2.47943994 -2.159299823 -0.07029210366 -2.017344776 2.568410259 1.224884431 0.8597706885 1.809481269 0.1132593813 0.8357660208 -1.946600818 -0.1711708455 0.9342038666 0.7448710747 -0.9898209313 -1.744407474 -1.544534248 0.512548691 0.2257577248 0.0811191097 -0.04436068313 0.0486449164 -0.03363780208 0.01973770852 0.04075365956 -0.02840521907 0.01124244958 -0.004616015795 -0.2901569765 0.01653499701 0.01822526633 -9.193323202e-06 -0.434439673 0.004241049914
	 -2.661466648 -1.004963252 5.023557083 -3.454094908 -0.1484093872 -3.023352639 2.96464642 -0.2427748531 2.619057868 -2.646030173 0.3313629233 -2.167341548 3.223973847 1.844898259 0.7267969704 2.096997833 -0.3047528483 0.4569158624 -2.810391282 -0.3486972663 0.6654266868 1.255378692 -1.294683259 -2.35612248 -2.579248278 1.010782566 0.4492696673 0.09443840316 -0.1118771063 0.1298543545 -0.1072057628 0.06143895007 0.1857149069 -0.2059810981 0.6149181623 -0.267309908 -0.6263950473 0.05441329854 -0.2196680116 0.001830183847 -0.8375715245 0.01581657265
	 -2.663895706 -0.9605525837 4.31981357 -3.061734837 -0.4091549781 -2.062006804 2.367381716 -0.515363705 1.65426196 -2.046398674 0.5824643047 -1.194113608 2.151899392 1.387504352 0.1492581195 1.107861124 -0.5165842162 -0.2610436262 -1.549520631 -0.2349228457 -0.09596448506 0.6593965797 -0.4952008182 -0.9176133459 -1.15023925 0.4492417479 0.2084815774 0.01313330557 -0.04838384281 0.05998294111 -0.0525979135 0.02586972021 0.1170265543 -0.1380471362 0.380611973 -0.1540643442 -0.1593749251 0.01771252131 -0.1036705449 0.003455748826 -0.123120435 0.0012872471
	 -2.651209216 -0.8821922084 3.867706964 -2.866319452 -0.7035012416 -1.361700352 2.041046267 -0.8879099758 0.8704804598 -1.666993706 0.9186101124 -0.349449167 1.297608325 1.090471131 -0.4264645951 0.2027010027 -0.7837585708 -0.9934791278 -0.4775067861 -0.1614283275 -0.8992893063 0.1703546389 0.2709212939 0.4349303554 0.1158933413 -0.01586370383 0.003638198115 -0.0737545771 -0.002609490363 0.007583586409 -0.01126006057 -0.01213175321 0.05879906509 -0.08516756622 0.2860529905 -0.1135819707 0.2846211013 -0.01028170696 -0.1053717851 0.002686112978 0.6756186889 -0.007059578452
	 -2.61576356 -0.7626802699 3.798850393 -2.958695835 -1.001993796 -1.105918747 2.108759367 -1.322225076 0.4532127468 -1.646812123 1.319050406 0.1661711015 0.9201709801 1.081216934 -0.8622042662 -0.3625879561 -1.059745248 -1.560301458 0.05512490856 -0.1581734362 -1.504450442 -0.04442780742 0.7445592963 1.240265142 0.776534763 -0.2278494408 -0.09817713802 -0.1187858407 0.01495289525 -0.01840808597 0.01421358307 -0.02902441575 -0.01124507022 -5.908456118e-05 0.06073335689 -0.02628379698 0.3363089791 -0.01856155165 -0.02903350713 -0.001564261993 0.5465243055 -0.004415641578
	 -2.576575677 -0.6521220362 3.787350084 -3.065406564 -1.224903028 -0.9668687404 2.190951414 -1.636471927 0.184395726 -1.651357491 1.601345412 0.5065914039 0.6667576168 1.061340678 -1.101663336 -0.6891811261 -1.181823352 -1.820845492 0.3206771801 -0.1568167966 -1.772777647 -0.1297057781 0.9538226294 1.58870759 1.033482072 -0.2959098434 -0.1340841848 -0.140360868 0.01861682597 -0.02648059773 0.0246205093 -0.04820584662 -0.04740373435 0.04511473153 -0.03592281009 0.00653219701 0.3085206607 -0.01784286364 -0.005599776199 -0.004201014064 0.3599257461 -0.000263991948
	 -2.547039194 -0.5858080986 3.633008363 -3.011098508 -1.315260691 -0.7438194986 2.03185834 -1.687201214 -0.06208001031 -1.442351243 1.607896285 0.7413159711 0.3073836297 0.8097042505 -1.054576235 -0.7988450036 -0.9810914627 -1.578169662 0.476600629 -0.1002714338 -1.457325382 -0.1777265014 0.8259250526 1.387023565 0.9357169876 -0.2805756866 -0.1254896968 -0.1154196272 0.02268690633 -0.03039252243 0.0301460668 -0.05836256736 -0.06042766781 0.06937999361 -0.1674971026 0.06649836126 0.1210002205 -0.01074977875 0.08297742384 -0.002560401307 -0.1803481959 0.001910545918
	 -2.520854703 -0.5285093182 3.437295506 -2.915784798 -1.387124914 -0.4748502314 1.778262956 -1.652724376 -0.3379153491 -1.099582965 1.491980571 0.9725962756 -0.1747132435 0.4040375386 -0.8702482127 -0.8414075832 -0.5799837221 -1.034699578 0.6171159031 -0.004503010328 -0.768168606 -0.2339263178 0.4865755996 0.8386815901 0.6266417483 -0.2095549286 -0.08990072299 -0.05159086409 0.02356674519 -0.0281408266 0.0285481393 -0.05841779102 -0.05157416243 0.06825530022 -0.2570353223 0.1135851073 -0.07342186242 -0.003238561534 0.1653638239 0.0004902340519 -0.6568442692 0.001942022125
	 -2.486949396 -0.4330694964 3.3770962 -2.966801551 -1.585636685 -0.2490316249 1.657880807 -1.791626742 -0.7078038098 -0.7473405467 1.473276926 1.334982641 -0.8010729878 -0.05986662189 -0.7245364452 -1.001259165 -0.09944773647 -0.3896095656 0.8569147251 0.1177327005 0.1278722114 -0.3370351236 0.03734598108 0.1003835873 0.1985732709 -0.08572277453 -0.03669841738 0.06108873202 0.01542387799 -0.01599099796 0.01559461408 -0.02121015229 -0.03021631278 0.04813692915 -0.246700125 0.112209963 -0.2314683639 0.005754943356 0.1494580307 0.002141762212 -0.7108296134 0.001438201003
	 -2.439854268 -0.2797850549 3.537604994 -3.252661631 -1.977446409 -0.1015105577 1.773359759 -2.244503196 -1.245018618 -0.4066967735 1.650071645 1.92550074 -1.647636931 -0.5922674211 -0.6808047897 -1.386099975 0.471081386 0.3520462372 1.300848819 0.2821999303 1.299867082 -0.5093981907 -0.5392074101 -0.8614667105 -0.3728937469 0.108280584 0.03780735862 0.248062648 -0.004090215925 0.008136702547 -0.01337165845 0.1014646873 -0.0007258007984 0.01226615324 -0.1120463125 0.0464364291 -0.416505891 0.02228094126 -0.03724161201 0.002157120165 -0.09803761348 0.0007640571668
	 -2.393571849 -0.1370401144 3.697797555 -3.52640529 -2.33790083 0.02255552764 1.886371276 -2.657427062 -1.725864884 -0.09308176765 1.779427184 2.400670227 -2.341492143 -1.030048089 -0.6337540373 -1.690985109 0.9457113843 0.9776328698 1.639243639 0.4119114427 2.259617444 -0.6154124103 -1.007822909 -1.649504121 -0.8584280777 0.2799108644 0.1031264105 0.3901892937 -0.0233841444 0.03123246622 -0.0419689258 0.2297277387 0.02902876796 -0.02953359901 0.08855531579 -0.0502312956 -0.4923268428 0.0350711506 -0.2679753119 0.001501606897 0.7700291137 -0.0004900144868
	 -2.377943971 -0.1416731865 3.38583264 -3.258061668 -2.200042706 0.2464295515 1.473910641 -2.245261884 -1.63049274 0.1337063778 1.34614773 2.004272723 -2.043057801 -0.9872382246 -0.3613121708 -1.232820655 0.8766215043 0.9737628524 1.141262185 0.3198277913 1.833353497 -0.37721551 -0.8189439918 -1.33756491 -0.7099832717 0.211666262 0.08470548175 0.2227828929 -0.01722689511 0.02362122959 -0.02907795062 0.1332915669 0.03635165154 -0.04600038675 0.1652560339 -0.0754360889 -0.1208503566 0.0131251975 -0.170730194 0.0008246516474 0.5995714976 -0.001989845543
	 -2.372260917 -0.1874978519 2.915647999 -2.806010278 -1.911471456 0.5285148775 0.857140453 -1.53480803 -1.328425544 0.3464734075 0.6704415755 1.23734818 -1.337185282 -0.7552889102 0.02984312575 -0.4348524253 0.5885385548 0.7257201314 0.2680548145 0.1270354809 0.7903223605 0.01318072988 -0.3325573143 -0.5329824177 -0.2873432566 0.04746844811 0.0307093051 -0.05948840744 -0.0001463794913 0.00235778309 0.0004867648695 -0.04365231411 0.02813331255 -0.04200417296 0.1524200851 -0.05681073735 0.3480552078 -0.0184522959 0.0430199031 0.000296224333 -0.001609454564 -0.002651519891
	 -2.351728908 -0.1517228301 2.668011435 -2.604738368 -1.883020621 0.817818843 0.4158840031 -1.156117806 -1.2771233 0.6472126877 0.1356510138 0.7097730076 -0.9270814235 -0.6750528328 0.403453148 0.1995842108 0.4547045912 0.6796075465 -0.4666983447 -0.02812982616 0.03953469284 0.3458543604 0.02082851313 0.03746971352 -0.01469993424 -0.04322483069 -0.001663908404 -0.2402474936 0.007031533716 -0.008527015006 0.01619031365 -0.1403758915 0.01791925621 -0.03357792539 0.1515152985 -0.05347883624 0.6237411828 -0.03592061326 0.1400337808 -0.001408278592 -0.2642540103 -0.001360366305
	 -2.317924934 -0.03766148286 2.619257524 -2.631437136 -2.106452997 1.139943762 0.1068815739 -1.065977332 -1.462538232 1.055122378 -0.302100581 0.3756424717 -0.7710538255 -0.7312561567 0.7851284378 0.7267907947 0.4487925377 0.8116159651 -1.133837659 -0.1615400225 -0.5015758704 0.6352733958 0.2776777568 0.4351337404 0.1502069435 -0.07282597353 -0.017052095 -0.3222941538 0.004333970233 -0.00897504017 0.01900454183 -0.1674905154 0.00486776573 -0.01688150178 0.122876093 -0.04659447309 0.6361041174 -0.03679271078 0.1485975375 -0.003858820063 -0.3081478701 0.00159795971
	 -2.278147641 0.1172272133 2.668965293 -2.768777721 -2.459939708 1.484182164 -0.1471403185 -1.101552779 -1.742118163 1.50400676 -0.6993866711 0.1123339694 -0.7059926414 -0.8269999834 1.150296963 1.191014337 0.475345281 0.9830289235 -1.727724625 -0.2806952371 -0.945405229 0.8614943477 0.4890513823 0.7537834342 0.2796304155 -0.07364774543 -0.02600134381 -0.3093519784 -0.002798419242 -0.003967642792 0.01242843965 -0.1217550244 -0.01377236113 0.01552218307 -0.01559801485 0.004013902568 0.1699382628 -0.01086567218 0.06639436314 -0.003387908044 -0.1990741738 0.003653569725
	 -2.241835845 0.2439555441 2.687396361 -2.856329542 -2.717944816 1.745373598 -0.362087146 -1.075145676 -1.884565703 1.794585352 -0.9939266583 -0.1209611342 -0.5897747084 -0.8311276194 1.334334523 1.449703725 0.4411451742 1.004552649 -1.984643328 -0.3385527362 -1.169654214 0.9300121708 0.5924491066 0.9085534349 0.3473020674 -0.06351815112 -0.0283803265 -0.2724939854 -0.009029263474 0.001604186385 0.00515291702 -0.08321975023 -0.02476564312 0.03965083264 -0.1481082675 0.05483984302 -0.3301500643 0.01699902156 -0.02172416244 -0.001396989068 -0.06155103269 0.003735893842
	 -2.216300958 0.2842029731 2.578367837 -2.768119425 -2.688281316 1.820098614 -0.5383063879 -0.8359012565 -1.69209076 1.746511911 -1.113045151 -0.342844875 -0.3073641895 -0.6218196224 1.161852464 1.334517254 0.2586888745 0.6898549151 -1.599594566 -0.2806441479 -1.00904185 0.7147213238 0.4974052786 0.7672108867 0.3028103756 -0.05382205736 -0.02368733739 -0.2392668123 -0.008308479043 0.002097515577 0.004542818216 -0.09366109779 -0.02045331425 0.03747940997 -0.1747459056 0.06768610013 -0.5232876422 0.02829615043 -0.07361926264 0.001820867232 0.07845165843 0.0004870352896
	 -2.194322701 0.2945018044 2.42817672 -2.617641486 -2.552586457 1.83165443 -0.7281331173 -0.4703415092 -1.330992574 1.560469099 -1.195863757 -0.623323331 0.1254626962 -0.2574681583 0.7786193201 1.015195575 -0.04997646752 0.1219151947 -0.7931289768 -0.1519903203 -0.6225471358 0.2649093624 0.267588075 0.4223788618 0.1817189843 -0.03810551174 -0.01470574954 -0.1580702226 -0.003286866218 -0.0002424859326 0.006509837417 -0.112292294 -0.009150231292 0.02127295252 -0.1344762122 0.05508222677 -0.5397447885 0.03031004759 -0.1140970157 0.00553700703 0.239354479 -0.004268816943
	 -2.164657734 0.3628017076 2.368191126 -2.578979855 -2.590114354 1.963602912 -0.9962417631 -0.127567204 -1.05996304 1.531845814 -1.433674727 -1.045574657 0.661145097 0.1587295666 0.4134094968 0.7506894379 -0.4378604773 -0.5514275804 0.08250322994 -0.02263936328 -0.2507466177 -0.3294595207 0.005212446342 0.02300063802 0.04138175871 -0.003270210522 -0.004488812918 0.06599942312 0.001450119048 -0.0007897808261 0.002391430063 -0.05890226617 -0.001547518788 0.009301339132 -0.1005090529 0.04228050943 -0.6145617092 0.03605321529 -0.1758617349 0.008550714297 0.4349664184 -0.007701429205
	 -2.118812658 0.5104215877 2.414817282 -2.703438895 -2.893344306 2.309019016 -1.395361938 0.1683881896 -0.9664239766 1.775392002 -1.927959428 -1.684148244 1.346113111 0.6341683569 0.1240356721 0.6426105249 -0.9702219893 -1.414545308 1.059049172 0.1067731122 0.07283405476 -1.246269065 -0.3361123999 -0.4997329586 -0.1412377489 0.07092548653 0.008477762487 0.8869501932 0.01733829715 -0.001551795351 -0.03075636105 0.482400901 0.006357483756 -0.01498091997 0.04815419657 -0.01731477142 0.0109378497 0.0007563550284 -0.03819636418 0.001974736491 0.1468308449 -0.002460915128
	 -2.066437677 0.6390920052 2.419061047 -2.814615151 -3.182869817 2.675006939 -1.786164835 0.4292955868 -0.9296405498 2.031015153 -2.387215411 -2.243932768 1.938357045 1.033361548 -0.0904779978 0.6115102902 -1.473429392 -2.226192904 1.965555814 0.2292126006 0.365991943 -2.235544186 -0.7045287651 -1.058933395 -0.3370407703 0.1548638967 0.02213935149 2.171091075 0.0478270749 -0.006249952107 -0.08862392556 1.516360523 0.02096519678 -0.06504289766 0.3938818623 -0.1524837065 1.919552092 -0.1106158605 0.4820159944 -0.01952327783 -1.064292571 0.01530182913
	 -2.081017991 0.5191901612 2.147902697 -2.397946895 -2.568190575 2.164318848 -1.471269815 0.5203799099 -0.4758118478 1.274355151 -1.570966446 -1.478916822 1.295182615 0.7052929331 -0.1822158382 0.2118331538 -0.829872798 -1.281672712 1.195549029 0.1565935001 0.3684330589 -0.8593680255 -0.3165362462 -0.4748048562 -0.1426853231 0.02801965825 0.009435428437 -0.01747114439 -0.002868115482 0.001313500508 0.01315489687 -0.2543916667 0.003816280676 0.0002418240008 -0.02781669236 0.009070869947 -0.3426841961 0.02096577672 -0.1193620815 0.004002257459 0.2964248172 -0.003435817038
	 -2.073448731 0.4394675091 1.904755845 -2.100774956 -2.16244642 1.890872177 -1.333854232 0.6464321624 -0.1466267142 0.7603085531 -1.04476937 -0.9999325542 0.9205835441 0.5259730184 -0.2647342075 -0.04127699408 -0.4823341438 -0.7883120574 0.8374523609 0.1325184657 0.4150405723 -0.2278960511 -0.165746623 -0.2439525947 -0.06842603909 -0.02890434397 0.004379601951 -0.7104095474 -0.01435943498 0.0008241073842 0.0418682136 -0.6877741142 0.002560309189 0.007525047673 -0.05996065052 0.02246049039 -0.3565106829 0.02066942743 -0.09543514352 0.003767950552 0.2145121379 -0.003210815291
	 -2.057764563 0.4106550493 1.728437035 -1.898396568 -1.914068509 1.749070511 -1.302391616 0.7976777995 0.1417070667 0.3625158659 -0.6608889979 -0.6746678333 0.6845976356 0.4318977376 -0.3707823258 -0.2789457146 -0.2287473645 -0.4325079923 0.5962404217 0.1167918198 0.4581803098 0.2050105041 -0.06814878427 -0.09736360383 -0.02837038936 -0.05909359181 0.002417691746 -1.083795999 -0.02067414293 0.001015311775 0.05530452043 -0.8848714869 0.0022169734 0.008880852987 -0.04533028856 0.0159943687 -0.1786449093 0.009917111609 -0.03224722163 0.001182341637 0.05022408859 -0.0008427077055
	 -2.036573166 0.4332145576 1.615173591 -1.76985933 -1.79935494 1.715995364 -1.369456958 0.9871928377 0.4278175953 0.02508781117 -0.3548980113 -0.4412183216 0.5268656578 0.3890399412 -0.4977581017 -0.5287497762 -0.003918180294 -0.1118988202 0.3657518036 0.09303784016 0.4469044901 0.5201542993 0.01927006937 0.03023311036 0.004867572254 -0.06529299374 0.0004611615742 -1.066166922 -0.01966755837 0.0008574806755 0.0469964564 -0.7385833055 0.0007157885512 0.007850103806 -0.03081581477 0.01093621386 -0.06191057846 0.002925472362 0.00272566602 1.517578664e-05 -0.03204569798 7.200569605e-05
	 -2.009489568 0.5151336634 1.557146769 -1.70328241 -1.818326824 1.806935267 -1.567460708 1.26091572 0.7692619743 -0.3138901049 -0.07222281141 -0.2617123178 0.4268124357 0.4011057146 -0.6974914529 -0.8792374768 0.2552750458 0.2611765904 0.09329921232 0.05653370885 0.3874613624 0.8128909219 0.120591914 0.1730537429 0.03724825032 -0.0489454726 -0.001373814521 -0.7031273241 -0.01269700942 0.001062532295 0.01743213792 -0.2667071938 -0.002099369702 0.005336712038 -0.01840076888 0.007542512203 -0.0003358021749 -0.0006618857927 0.01479782265 -0.0001157841802 -0.04875110337 -2.454942528e-06
	 -1.974743277 0.6715342546 1.554033976 -1.699475101 -1.989927488 2.053905677 -1.94352492 1.671509059 1.220066075 -0.7000597544 0.2176820403 -0.1262096772 0.3935591263 0.4932790385 -1.040287919 -1.433500443 0.5964138452 0.7467812232 -0.2310215078 0.01016789419 0.3208760899 1.18210447 0.2487755143 0.3468909064 0.06399299762 -0.01318000972 -0.00137453222 -0.1913041043 -0.005670472785 0.003881657533 -0.02367661365 0.3481036164 -0.006795333202 0.004797694726 -0.006538776464 0.001917037118 0.02162748778 -0.001278803303 0.01026241857 -0.0006713903494 -0.02912463141 0.000855792417
	 -1.936747505 0.8575763387 1.575908312 -1.720795109 -2.216263888 2.347252692 -2.368918385 2.114701466 1.697952833 -1.09699232 0.5120575937 0.003068136496 0.3644719789 0.5901295203 -1.381490498 -1.987388943 0.9359818461 1.234584279 -0.5662644266 -0.04171933936 0.2227073547 1.483935645 0.367524222 0.50566242 0.08559623948 0.02988479907 -0.001111480833 0.402641923 0.002415044762 0.006891303219 -0.0667089177 0.987421631 -0.01186477715 0.004811919493 0.003006062922 -0.003251688246 0.02102050659 -0.0004447010626 -0.002218002383 -0.00115221462 0.01105696335 0.001801436816
	 -1.90878764 0.9359065402 1.540140006 -1.675139963 -2.228361917 2.380872645 -2.465507899 2.264210292 1.918330887 -1.339340814 0.7389341371 0.1785104479 0.2089567429 0.4989701238 -1.300618722 -1.923854141 0.9780751894 1.31947323 -0.7020347697 -0.07247659041 0.06698445894 1.264555988 0.3457662139 0.4759745306 0.08082080886 0.04541881627 -0.001080839574 0.6688593442 0.008006174918 0.005669863431 -0.07012183771 1.047708316 -0.01001717495 0.002002166634 0.008326980994 -0.004541418866 0.02069593757 -0.0003657216985 -0.006399495749 -0.0007325257171 0.02966005845 0.001213105267
	 -1.891670974 0.8971251558 1.439727825 -1.553254757 -2.001660201 2.126134935 -2.200780346 2.095835664 1.865984658 -1.426141791 0.9074107811 0.4197243233 -0.1000695027 0.1916587216 -0.7463938659 -1.172052523 0.6938036938 0.9639931536 -0.6252177267 -0.08143814943 -0.1599461112 0.4530093754 0.165472612 0.23352025 0.04712431555 0.02953167186 -0.00173700649 0.5673276906 0.01085468906 -0.0005721208529 -0.02669085149 0.4237288764 -0.0004579477624 -0.003698972706 0.009278420947 -0.001842139363 0.02453266842 -0.001355392515 0.0003797611045 0.0005212151471 0.01627473775 -0.000847065656
	 -1.871579791 0.8832558049 1.355915117 -1.442985067 -1.802849587 1.888938175 -1.959253368 1.948834512 1.845301694 -1.546319777 1.113745375 0.6956160433 -0.4507523406 -0.1487701671 -0.1357631159 -0.3496526073 0.3859749895 0.5844383095 -0.5567593033 -0.09685921645 -0.4364300749 -0.5025488304 -0.04359548247 -0.0502373871 0.007045346189 0.01512638988 -0.003309736064 0.4894420093 0.01417363256 -0.007711165894 0.02568298436 -0.3342520041 0.009199992105 -0.008279688864 0.008573870824 0.0006458699007 0.01784889674 -0.001675730995 0.005187967529 0.0014397553 -0.002319712038 -0.002267105722
	 -1.845812183 0.9269413377 1.306218313 -1.367206643 -1.707643895 1.766540975 -1.859416629 1.919481643 1.923582156 -1.719396723 1.342164323 0.9513109922 -0.7562324471 -0.4221408845 0.3319660074 0.2643209558 0.1708996267 0.33058025 -0.5423072894 -0.1184657875 -0.684733808 -1.276424855 -0.2049038782 -0.2722126305 -0.02612398653 0.01170886053 -0.004951642569 0.5007234707 0.01678669311 -0.01236585915 0.06247078145 -0.8745912035 0.01470501294 -0.009879376442 0.008128126216 0.0007855279048 0.0006646737611 -0.0008888434801 0.00384332097 0.001496304105 -0.01497407498 -0.002208020345
	 -1.822061664 0.958827452 1.251198031 -1.291995097 -1.618849172 1.666329497 -1.775310085 1.877729683 1.942301625 -1.796007353 1.457366259 1.092654679 -0.9339519191 -0.5901827057 0.6367815562 0.6757282507 0.00331047133 0.1190099746 -0.4660416216 -0.1179560116 -0.7557804471 -1.595085705 -0.2781454265 -0.3745729658 -0.04432766739 0.007376697413 -0.004677890322 0.3622370005 0.01307928814 -0.01128639532 0.06605523663 -0.9448654795 0.01309611052 -0.007178448322 0.005824249393 -0.0003730073832 -0.01296523104 0.0002233673565 -8.185527241e-05 0.0007244896636 -0.0142665205 -0.0009415753394
	 -1.805142121 0.9349367941 1.167090927 -1.196724723 -1.472108616 1.521955418 -1.618288985 1.737633186 1.807691508 -1.698045391 1.395701213 1.084225364 -0.9595970522 -0.6525119615 0.8036834494 0.9358124507 -0.1574669948 -0.1146844732 -0.2671523529 -0.0821346128 -0.5949971778 -1.39018779 -0.2583497572 -0.3485163055 -0.0458108204 -0.005084257858 -0.001698327067 -0.03095430189 0.001405277096 -0.004041741969 0.03429753476 -0.5112539104 0.004466200619 -0.000522816662 0.000277001533 -0.001397133285 -0.01528869114 0.001048345454 -0.003146908481 -0.0005446743389 -0.0007094568264 0.0009292612592
	 -1.792082184 0.8825435901 1.071350108 -1.09666045 -1.303795516 1.361743997 -1.428822737 1.549431091 1.597660495 -1.515454659 1.249875628 1.003956881 -0.9101328362 -0.659023174 0.8896555525 1.101117728 -0.3033130705 -0.3430559308 -0.02084781062 -0.03126556922 -0.3312759349 -0.9408281616 -0.1936250296 -0.2603023944 -0.03881378282 -0.01946117784 0.002290441352 -0.4771892741 -0.01193088359 0.004862125921 -0.008515845171 0.08351041806 -0.005454969258 0.006231689333 -0.005509193975 -0.001891607664 -0.01275080525 0.001537866006 -0.004496562492 -0.001627999195 0.009689756259 0.002498070526
	 -1.779496869 0.8316996418 0.9836421035 -1.008876565 -1.155211765 1.219457149 -1.255226026 1.37049765 1.394405723 -1.335629642 1.10414202 0.9168430227 -0.8467260526 -0.645777449 0.9296809571 1.198824357 -0.4141228667 -0.5231655042 0.1932941827 0.01476333388 -0.08262620963 -0.4869427665 -0.1232227495 -0.1641430771 -0.02935696457 -0.02887949714 0.005462185186 -0.7608821328 -0.02036194228 0.01085438364 -0.03926864959 0.517739908 -0.01144060664 0.009500153606 -0.008804528541 -0.001321654998 -0.008885237011 0.001450812519 -0.003727650196 -0.001846513854 0.009627860623 0.00276556219
	 -1.766408304 0.7894867931 0.9079263414 -0.9356492277 -1.031928553 1.097341681 -1.103069811 1.210126783 1.213825383 -1.175186889 0.9732544504 0.8332252734 -0.7793160333 -0.6193482027 0.9322256012 1.236807663 -0.4863511497 -0.6466646214 0.3590400103 0.05202495992 0.1286772642 -0.07253684755 -0.05383110915 -0.06926618772 -0.01772896633 -0.03139838011 0.007131352777 -0.8069376514 -0.02147029805 0.01221835726 -0.05011016383 0.6855790512 -0.01184376393 0.00813510184 -0.00881038495 0.0006763129103 -0.001652547257 0.0005188261601 -0.0005847043109 -0.0009149859751 0.002717283254 0.001256712597
	 -1.751502115 0.7655863867 0.8435067412 -0.8710301663 -0.9316394309 0.9920655709 -0.9726494505 1.069205894 1.058700636 -1.036252029 0.8603842736 0.7570345392 -0.7153307926 -0.5884537242 0.9195563254 1.247581647 -0.5400244206 -0.7412239645 0.5017364647 0.08459747694 0.3276493711 0.3435152755 0.02107798255 0.031891413 -0.003557578413 -0.02680643065 0.007115062178 -0.6377828155 -0.01627302425 0.009631419285 -0.0438564244 0.6224360259 -0.008018374356 0.00357658585 -0.00626606903 0.003353658503 0.007952755765 -0.0009241233319 0.0037154462 0.0007112757804 -0.005795868021 -0.001336910984
	 -1.732157903 0.7823142554 0.7915314227 -0.806235308 -0.8580785658 0.9062057086 -0.8750973556 0.9581514356 0.9437860717 -0.9323855832 0.7819958463 0.7043140589 -0.6768812903 -0.5734927349 0.9365721726 1.294416678 -0.6131432715 -0.8586443435 0.6683154533 0.1194910563 0.5590118151 0.8345483202 0.1133412093 0.1523297204 0.01301440322 -0.01371803621 0.005037138175 -0.2893112026 -0.006733609233 0.004533255797 -0.0262230922 0.3971231523 -0.0024839498 -0.001443604031 -0.002451431268 0.005012118164 0.01516143658 -0.00204847647 0.006722597181 0.002060784997 -0.01114719537 -0.003491563463
	 -1.704901198 0.8707334703 0.7548310901 -0.7308886468 -0.8189856543 0.8445572834 -0.8259181449 0.8899448134 0.8879543265 -0.880460609 0.7589869047 0.6943740331 -0.6905318438 -0.5981340381 1.036384792 1.452164256 -0.7531500954 -1.064109707 0.9232453436 0.1667825439 0.8916485442 1.5260823 0.2452013819 0.3177851179 0.03330621576 0.01243914058 -7.849978551e-05 0.2750999652 0.007078345933 -0.002685418341 0.001796157225 0.01127697359 0.003418354712 -0.004923299075 0.002829538608 0.003405205256 0.01549584488 -0.001965480905 0.005742055596 0.002132205757 -0.008453292323 -0.003521741226
	 -1.666265359 1.062531342 0.7371421067 -0.6361076605 -0.8243641998 0.8128298776 -0.8397216127 0.8739814387 0.904438638 -0.8899021332 0.8042095314 0.7380067605 -0.7733170747 -0.6779381117 1.259592401 1.779728261 -1.003443549 -1.418769033 1.335808732 0.2381644015 1.408873657 2.58106204 0.4467478721 0.5642948723 0.06012638992 0.05895320931 -0.009582023379 1.175771637 0.02765594441 -0.01324358866 0.04735402512 -0.6467039713 0.01068886717 -0.006621596859 0.01219902776 -0.004016132691 0.006232780329 6.452309575e-05 -0.001759540529 7.435108279e-05 0.006813717775 0.0002905941074
	 -1.623537142 1.29145262 0.7313992177 -0.5420113545 -0.8555599798 0.8002810733 -0.8821201477 0.8789052167 0.9462281258 -0.9174009158 0.8675869826 0.7917993793 -0.8687900876 -0.7648175862 1.500861619 2.130310021 -1.271032945 -1.79498112 1.772030305 0.3118884758 1.953071171 3.691169916 0.6602387483 0.8233072799 0.08758057814 0.1106234927 -0.02059572375 2.156283146 0.04982233424 -0.02489099761 0.1008661093 -1.430118486 0.01860372758 -0.007462574256 0.02033666444 -0.01253475205 -0.01496749271 0.003132469394 -0.01216511068 -0.003095971134 0.02251823679 0.006084448439
	 -1.605737296 1.288510634 0.6987534279 -0.5166534911 -0.8156462862 0.7468666982 -0.8076880575 0.793154728 0.8577031589 -0.8397683822 0.8039381841 0.7405102895 -0.8145700509 -0.720082555 1.420112577 2.020659213 -1.212982102 -1.714929293 1.689689068 0.2976596035 1.861745634 3.550192552 0.6418348611 0.8048533452 0.09278339813 0.1022256251 -0.02071110921 2.066108783 0.0484363932 -0.02478606663 0.09623790301 -1.338109035 0.01657236428 -0.005978569387 -0.0007728196229 -0.0007452842263 -0.05148195731 0.003401009922 -0.009261104412 -0.001832391946 -0.003020100505 0.003084844819
	 -1177.261305 201.3948737 -176.1066155 59.99942955 54.97763802 -29.70545442 27.26326872 -18.52772218 -17.45848977 12.55077663 -10.4794427 -7.137341138 7.067709564 4.842187091 -8.155153402 -10.55981283 5.221193865 6.878163272 -5.819658538 -0.8777712495 -5.586543459 -9.745397756 -1.699845668 -2.035423664 -0.2115556908 -0.2249229317 0.06556251475 -4.041113519 -0.08947484355 0.04848299474 -0.1644199195 2.323144646 -0.02988782418 0.01668661329 -0.01823993715 0.0111753653 0.04264781993 -0.002277428681 0.01388954717 0.003710512474 -0.01146540227 -0.004907143173
	