101 24	
	 -0.0001005173931 -6.822741026e-06 -2.006079672e-05 -2.128463459e-05 1.633780831e-05 1.034740825e-05 1.067193877e-05 -9.03115431e-06 -6.82954493e-06 5.364673342e-06 3.514136798e-06 -2.655305176e-06 -2.225545131e-06 9.247283181e-07 2.087568997e-06 -4.782074131e-07 -4.075391338e-07 3.520486674e-07 -8.750122049e-08 3.741982268e-07 -1.129920524e-07 6.495813974e-08 5.209258364e-08 1.367988161e-08
	 4.186656418e-07 -6.807753805e-07 -1.450126004e-06 6.971333128e-07 -9.550151796e-07 -1.535053428e-06 -2.273279233e-06 2.852669161e-06 2.78338349e-06 -2.859121249e-06 -2.379763726e-06 2.230044311e-06 2.271830082e-06 -1.04280977e-06 -3.110657237e-06 7.832044888e-07 7.85669396e-07 -7.642410997e-07 2.040203115e-07 -9.803997046e-07 3.189743764e-07 -1.977651969e-07 -1.615521461e-07 -4.756032924e-08
	 2.764575027e-07 -6.972649907e-07 -9.000426266e-07 1.016763766e-06 -1.391196359e-06 -1.834896532e-06 -2.634514229e-06 3.072692566e-06 2.839145904e-06 -2.67105259e-06 -1.875471497e-06 1.465386886e-06 1.092000113e-06 -4.27996266e-07 -2.912156593e-07 -6.839388121e-09 -1.914921156e-07 3.286466346e-07 -1.303444775e-07 8.297761915e-07 -3.347257127e-07 2.380696828e-07 2.157735102e-07 7.081916727e-08
	 2.262554908e-07 -6.380084687e-07 -3.862869271e-07 1.280337382e-06 -1.65341127e-06 -1.87499091e-06 -2.512077522e-06 2.661119095e-06 2.218958806e-06 -1.763594426e-06 -9.032380393e-07 3.534189607e-07 -1.721178179e-07 1.862250688e-07 1.466703187e-06 -4.247682901e-07 -4.658713268e-07 4.143692989e-07 -7.931731455e-08 1.684699081e-07 3.284317242e-08 -7.097278009e-08 -9.755958616e-08 -4.548383711e-08
	 2.379828123e-07 -5.69039352e-07 1.026692823e-07 1.483247439e-06 -1.793945791e-06 -1.685726932e-06 -1.982900991e-06 1.720998854e-06 1.086836337e-06 -4.326403713e-07 1.662111959e-07 -5.344584163e-07 -7.479120816e-07 3.704373408e-07 8.867635467e-07 -1.758302741e-07 -2.790662312e-08 -1.246240077e-07 8.440272573e-08 -6.078588543e-07 2.369341762e-07 -1.556876594e-07 -1.217013769e-07 -2.622969161e-08
	 1.988475362e-07 -5.476239911e-07 3.517914895e-07 1.644484522e-06 -1.982175819e-06 -1.631769197e-06 -1.672454586e-06 1.047865722e-06 2.015251969e-07 6.102203639e-07 9.213155585e-07 -1.023921426e-06 -8.405483695e-07 3.035657295e-07 -3.956234756e-07 2.209216036e-07 3.937803039e-07 -4.065866053e-07 7.400868854e-08 -7.649152489e-08 -9.063341798e-08 1.264356011e-07 1.513574898e-07 5.910891133e-08
	 1.507930703e-07 -5.358730357e-07 4.932711414e-07 1.71393446e-06 -2.053385442e-06 -1.495564661e-06 -1.327147906e-06 5.038917626e-07 -3.286534751e-07 1.009959247e-06 9.99579323e-07 -8.44370595e-07 -4.629434916e-07 1.080622983e-07 -7.994461919e-07 2.668068009e-07 2.862327332e-07 -1.637780669e-07 -1.644830055e-08 3.588877901e-07 -1.674821816e-07 1.075378017e-07 6.815577459e-08 2.073321104e-09
	 1.209802702e-07 -4.847651419e-07 6.256180628e-07 1.72325641e-06 -1.973684347e-06 -1.204164604e-06 -7.90088911e-07 -9.440511807e-08 -6.910386465e-07 9.466453068e-07 5.582382524e-07 -1.348531885e-07 2.542701428e-07 -1.722884541e-07 -3.915429092e-07 2.664162938e-08 -1.591468735e-07 2.72203984e-07 -7.032068492e-08 1.616317551e-07 4.699843773e-08 -1.014570606e-07 -1.321322184e-07 -5.249210865e-08
	 8.182444445e-08 -4.434432182e-07 6.950016076e-07 1.748319803e-06 -1.942320044e-06 -1.005240003e-06 -3.906632606e-07 -5.319044783e-07 -9.407532229e-07 8.399565262e-07 1.710903012e-07 4.23956114e-07 7.4074255e-07 -3.46822493e-07 4.320630547e-08 -1.590984394e-07 -3.941711175e-07 4.040159734e-07 -5.408292593e-08 -1.497862504e-07 1.598222308e-07 -1.243911932e-07 -8.180421078e-08 7.974591811e-10
	 6.863432111e-08 -3.856591192e-07 7.542843555e-07 1.674734528e-06 -1.747350864e-06 -7.36273072e-07 -2.675372368e-08 -7.492454814e-07 -8.843196461e-07 5.037093921e-07 -1.528270374e-07 6.045244108e-07 6.720542647e-07 -2.624692569e-07 3.262936896e-07 -1.618884003e-07 -1.760319995e-07 4.228676784e-08 2.940522807e-08 -1.907002351e-07 1.13437518e-08 5.050013684e-08 8.498918964e-08 3.711812453e-08
	 7.690587215e-08 -3.089513036e-07 8.094855767e-07 1.520210644e-06 -1.424518358e-06 -4.168985254e-07 2.925900902e-07 -7.933968328e-07 -6.143781087e-07 5.423655481e-08 -3.746949543e-07 4.903092675e-07 2.731814049e-07 -4.696659414e-08 3.715609555e-07 -5.722483779e-08 1.482855913e-07 -3.179142984e-07 8.024480112e-08 -3.672648019e-08 -1.384348722e-07 1.47827269e-07 1.223267254e-07 1.406437934e-08
	 8.190456187e-08 -2.354544972e-07 8.4502339e-07 1.382226139e-06 -1.140163116e-06 -1.497819029e-07 5.300739471e-07 -7.700827205e-07 -3.341196257e-07 -3.157732123e-07 -4.828280236e-07 2.72988358e-07 -1.283004073e-07 1.341160932e-07 2.063698314e-07 4.691323719e-08 2.547080299e-07 -2.942406717e-07 3.931554418e-08 1.014231731e-07 -7.892091432e-08 2.855141662e-08 -1.4532383e-08 -2.243144786e-08
	 8.205551224e-08 -1.784778796e-07 8.652979636e-07 1.275876543e-06 -9.147296911e-07 6.18851889e-08 7.033791666e-07 -7.199296214e-07 -8.978145771e-08 -5.879950041e-07 -5.151257976e-07 4.038811755e-08 -4.489808827e-07 2.559368796e-07 -4.113519237e-08 1.194887528e-07 1.900200287e-07 -4.741728304e-08 -3.736532903e-08 1.460806676e-07 6.664218288e-08 -1.260417918e-07 -1.359670732e-07 -2.96194736e-08
	 9.00203761e-08 -1.266572512e-07 8.666611031e-07 1.131034512e-06 -6.690593603e-07 2.139035148e-07 7.396195194e-07 -5.719914886e-07 1.024114636e-07 -6.519761721e-07 -4.018471003e-07 -1.417530524e-07 -5.278605063e-07 2.494942508e-07 -2.162365332e-07 1.145201945e-07 1.177412213e-08 1.96737395e-07 -6.818715845e-08 3.592575146e-08 1.102587151e-07 -9.859600003e-08 -6.080528463e-08 5.283044559e-09
	 1.069875121e-07 -7.037923631e-08 8.501308542e-07 9.335463224e-07 -3.868520356e-07 3.057655064e-07 6.264994541e-07 -3.248195972e-07 2.246558587e-07 -4.904951027e-07 -1.631713264e-07 -2.153677666e-07 -3.392160851e-07 1.254506877e-07 -2.112154074e-07 4.893559122e-08 -1.13356595e-07 2.31400448e-07 -3.449009466e-08 -8.623331158e-08 3.071919007e-08 3.686653243e-08 7.852562269e-08 2.985620151e-08
	 1.178223717e-07 -2.629500229e-08 8.348472472e-07 7.739886299e-07 -1.49476186e-07 3.755872442e-07 5.004094955e-07 -8.928299346e-08 3.08022013e-07 -2.813760232e-07 7.093172805e-08 -2.254216492e-07 -8.177025436e-08 -1.602974148e-08 -1.125752819e-07 -2.012413614e-08 -1.300365356e-07 1.129374167e-07 9.307028279e-09 -1.003464466e-07 -4.110390356e-08 9.107124417e-08 1.014416161e-07 2.000046484e-08
	 1.158855589e-07 -4.230450745e-09 8.339526626e-07 6.975052007e-07 1.264918373e-08 4.569850565e-07 4.439390253e-07 8.919527153e-08 3.963542325e-07 -1.300320631e-07 2.581423477e-07 -2.40127543e-07 1.371599786e-07 -1.389442897e-07 -1.973712902e-08 -8.387108314e-08 -1.154056701e-07 -4.012805099e-08 4.174149116e-08 -4.483790844e-08 -6.990008469e-08 5.865894951e-08 2.544852166e-08 -1.05161169e-08
	 1.067638288e-07 4.633002195e-09 8.395119554e-07 6.685749374e-07 1.227311792e-07 5.332127695e-07 4.23168507e-07 2.163711218e-07 4.672303776e-07 -2.751322845e-08 3.825768797e-07 -2.473121735e-07 2.875534706e-07 -2.219836165e-07 4.687093165e-08 -1.267620498e-07 -8.71167211e-08 -1.618656201e-07 5.526968849e-08 2.91574123e-08 -5.878012528e-08 -1.177034781e-08 -7.229745315e-08 -3.536397941e-08
	 1.007018396e-07 1.651599134e-08 8.285639348e-07 6.164561935e-07 2.090756887e-07 5.46159148e-07 3.503350113e-07 2.857933851e-07 4.354476798e-07 5.881986578e-08 3.799381728e-07 -1.770996556e-07 3.02842485e-07 -2.027791118e-07 7.978118479e-08 -9.872943419e-08 -1.631985762e-08 -1.609963016e-07 3.082812379e-08 6.461223708e-08 -6.542493627e-09 -5.558408124e-08 -8.441801348e-08 -2.062883397e-08
	 9.924854882e-08 3.498842997e-08 7.999575432e-07 5.320711715e-07 2.84172636e-07 4.974155737e-07 2.197470706e-07 3.096668388e-07 3.081571689e-07 1.367706266e-07 2.688021284e-07 -3.991617593e-08 2.015832245e-07 -9.751436326e-08 7.909562287e-08 -1.507672344e-08 6.916969509e-08 -5.279506194e-08 -1.502908042e-08 4.435590095e-08 4.750677278e-08 -4.253964293e-08 -8.499751975e-09 1.706059915e-08
	 9.642242452e-08 5.24746151e-08 7.734992077e-07 4.590577677e-07 3.484299331e-07 4.449804763e-07 9.644551342e-08 3.217581187e-07 1.781077136e-07 1.994228306e-07 1.481547439e-07 8.626824639e-08 8.925953255e-08 5.591324651e-09 6.421741374e-08 5.504862136e-08 1.18612213e-07 4.356817217e-08 -4.422442862e-08 1.317467571e-08 6.592755159e-08 -1.37963467e-08 4.815507283e-08 3.316702427e-08
	 9.11122782e-08 6.672527147e-08 7.538421666e-07 4.070751544e-07 4.016390825e-07 4.055058923e-07 -3.066008179e-10 3.312326768e-07 7.487853461e-08 2.436838311e-07 5.099953723e-08 1.748798818e-07 1.989578716e-09 7.7051782e-08 4.34739374e-08 8.978646018e-08 1.205613237e-07 8.895244509e-08 -4.674695744e-08 -1.008962623e-08 4.555185873e-08 1.032769322e-08 5.222280192e-08 1.958247589e-08
	 8.547245135e-08 7.898163127e-08 7.345062284e-07 3.633060027e-07 4.416700694e-07 3.677624898e-07 -7.82108399e-08 3.294566899e-07 -9.639228562e-09 2.647262776e-07 -2.790538731e-08 2.25478236e-07 -6.454715438e-08 1.198330939e-07 1.737535454e-08 9.373402833e-08 8.343799157e-08 9.321516714e-08 -2.923090404e-08 -2.578154533e-08 2.940422961e-09 2.749934765e-08 2.466046207e-08 -6.998212639e-09
	 8.160429914e-08 9.047023048e-08 7.080116557e-07 3.155415862e-07 4.629207373e-07 3.200416245e-07 -1.410309513e-07 3.050966949e-07 -7.928482749e-08 2.535452684e-07 -8.889649522e-08 2.318420494e-07 -1.08801455e-07 1.322298759e-07 -1.085684432e-08 7.07184776e-08 2.085271257e-08 6.451840361e-08 -1.359175122e-09 -2.998584021e-08 -3.627620185e-08 3.016393712e-08 -9.683012149e-09 -2.475284462e-08
	 8.017865747e-08 1.020290333e-07 6.714252244e-07 2.595714657e-07 4.628098514e-07 2.591719045e-07 -1.883320005e-07 2.553306162e-07 -1.323118979e-07 2.08892483e-07 -1.279590806e-07 1.942893809e-07 -1.261571427e-07 1.147357303e-07 -3.432269784e-08 3.029035148e-08 -4.43547483e-08 1.677863749e-08 2.473895514e-08 -2.107266816e-08 -5.206334221e-08 1.636120808e-08 -3.161388301e-08 -2.260506419e-08
	 8.032588064e-08 1.138029567e-07 6.283234116e-07 1.997228463e-07 4.464675532e-07 1.912907646e-07 -2.20781105e-07 1.894328728e-07 -1.681248394e-07 1.428471647e-07 -1.450765865e-07 1.284284066e-07 -1.185902396e-07 7.734507653e-08 -4.687424617e-08 -1.108918489e-08 -8.785219891e-08 -2.806148038e-08 3.863614191e-08 -5.264264988e-09 -4.21324096e-08 -3.953794947e-09 -3.338459906e-08 -6.661540718e-09
	 8.073808004e-08 1.252504943e-07 5.847177323e-07 1.423363892e-07 4.226459904e-07 1.242550164e-07 -2.418737656e-07 1.19499706e-07 -1.899809853e-07 7.019384426e-08 -1.456883037e-07 5.280131526e-08 -9.392248014e-08 3.231068318e-08 -4.748156349e-08 -4.176186718e-08 -9.988466538e-08 -5.532118688e-08 3.762951276e-08 9.385615909e-09 -1.778163384e-08 -1.942066709e-08 -2.009438747e-08 1.029376216e-08
	 8.061371182e-08 1.356612829e-07 5.449131014e-07 9.111373361e-08 3.981956123e-07 6.254461725e-08 -2.557453608e-07 5.31878126e-08 -2.024458473e-07 1.808996291e-10 -1.362783805e-07 -2.101434791e-08 -5.994548384e-08 -1.243228011e-08 -3.854053683e-08 -5.829318745e-08 -8.336119979e-08 -6.145291664e-08 2.437596151e-08 1.80508057e-08 8.583650421e-09 -2.413430303e-08 -1.146749067e-09 1.895461953e-08
	 7.979433209e-08 1.445141535e-07 5.10232314e-07 4.677158298e-08 3.758262804e-07 7.568645446e-09 -2.646126691e-07 -6.337509837e-09 -2.082464949e-07 -6.291165272e-08 -1.210189588e-07 -8.748007568e-08 -2.197518655e-08 -5.294445914e-08 -2.303716917e-08 -6.175661898e-08 -4.555052833e-08 -4.910195487e-08 2.808786408e-09 1.954077889e-08 3.000565041e-08 -1.750048176e-08 1.68863117e-08 1.633568768e-08
	 7.862661786e-08 1.515175177e-07 4.790424101e-07 8.291475992e-09 3.536355836e-07 -3.977425734e-08 -2.669071728e-07 -5.702571154e-08 -2.062885644e-07 -1.147788465e-07 -1.013091625e-07 -1.405195244e-07 1.480310514e-08 -8.493063321e-08 -4.592580575e-09 -5.464649924e-08 2.412198382e-09 -2.464832924e-08 -2.085331988e-08 1.496450742e-08 4.21433129e-08 -3.446274397e-09 2.904089683e-08 5.310139354e-09
	 7.787658851e-08 1.566234785e-07 4.470882638e-07 -2.603202257e-08 3.253305895e-07 -7.743988183e-08 -2.565564469e-07 -9.554702724e-08 -1.909366796e-07 -1.477517142e-07 -7.610753003e-08 -1.690208809e-07 4.322746105e-08 -1.006672236e-07 1.198158761e-08 -3.914037441e-08 4.434449736e-08 2.866853462e-09 -3.643050024e-08 6.386066226e-09 3.910287688e-08 1.033218882e-08 2.895889062e-08 -6.736301956e-09
	 7.811486927e-08 1.600613823e-07 4.1077367e-07 -5.756845565e-08 2.855302394e-07 -1.038198962e-07 -2.284488081e-07 -1.192247534e-07 -1.575823432e-07 -1.556745304e-07 -4.474064031e-08 -1.641809021e-07 5.721849444e-08 -9.425497674e-08 2.233734274e-08 -1.829713138e-08 6.590876883e-08 2.444131539e-08 -3.605111482e-08 -3.363859973e-09 1.924242213e-08 1.686957405e-08 1.428182856e-08 -1.268883761e-08
	 7.903806334e-08 1.62273567e-07 3.716703146e-07 -8.647551048e-08 2.371854871e-07 -1.207288625e-07 -1.865229974e-07 -1.299627921e-07 -1.107150557e-07 -1.422946119e-07 -1.049020803e-08 -1.31706132e-07 5.720890128e-08 -7.005153285e-08 2.537217381e-08 2.299055214e-09 6.505700606e-08 3.507907172e-08 -2.292797643e-08 -1.084552323e-08 -6.91537981e-09 1.555901694e-08 -6.37025163e-09 -1.151183953e-08
	 7.973656193e-08 1.637489223e-07 3.349961989e-07 -1.122734962e-07 1.890426495e-07 -1.32703942e-07 -1.409662907e-07 -1.333736792e-07 -6.06410402e-08 -1.186440881e-07 2.170796203e-08 -8.720335314e-08 4.913800007e-08 -3.8810678e-08 2.323245521e-08 1.821128693e-08 5.023115034e-08 3.545198373e-08 -6.533467992e-09 -1.406251098e-08 -2.625408247e-08 1.030055616e-08 -2.169077947e-08 -6.831956393e-09
	 7.953826431e-08 1.648984866e-07 3.047932615e-07 -1.348473576e-07 1.478347911e-07 -1.438723959e-07 -9.966816934e-08 -1.346335666e-07 -1.483470117e-08 -9.410063532e-08 4.934893124e-08 -4.297226289e-08 3.894074717e-08 -8.361668902e-09 1.87678662e-08 2.910581634e-08 3.032902069e-08 2.913272765e-08 7.000823644e-09 -1.325475049e-08 -3.388467477e-08 4.210660709e-09 -2.710232861e-08 -1.835405164e-09
	 7.823373979e-08 1.660138501e-07 2.822529341e-07 -1.546001726e-07 1.157402061e-07 -1.564221894e-07 -6.548555107e-08 -1.365124635e-07 2.428680334e-08 -7.300550686e-08 7.250437666e-08 -3.987088333e-09 2.979269894e-08 1.861163431e-08 1.379252709e-08 3.682736159e-08 9.843804262e-09 1.910161729e-08 1.637151409e-08 -9.426238291e-09 -3.089787049e-08 -1.842860837e-09 -2.296437534e-08 2.44085529e-09
	 7.60871012e-08 1.671911009e-07 2.664971565e-07 -1.720762392e-07 9.191233793e-08 -1.706156472e-07 -3.804368221e-08 -1.395250908e-07 5.706526999e-08 -5.603569003e-08 9.188703365e-08 2.910633031e-08 2.252455892e-08 4.198428792e-08 8.991395983e-09 4.288071586e-08 -9.936543426e-09 6.971957125e-09 2.238438898e-08 -3.443218432e-09 -1.984883987e-08 -8.027707285e-09 -1.105679222e-08 6.161712656e-09
	 7.338146735e-08 1.684215156e-07 2.555181426e-07 -1.874184465e-07 7.392536531e-08 -1.849239947e-07 -1.572070105e-08 -1.422548313e-07 8.387089956e-08 -4.205063238e-08 1.068607791e-07 5.618053825e-08 1.662237971e-08 6.105625436e-08 4.492668402e-09 4.69083432e-08 -2.779858846e-08 -5.768088072e-09 2.553696315e-08 3.554542849e-09 -4.091618977e-09 -1.383030731e-08 5.331051265e-09 9.228762227e-09
	 7.047152768e-08 1.695150956e-07 2.465133166e-07 -2.001142048e-07 5.854393082e-08 -1.95813714e-07 3.275384704e-09 -1.413077373e-07 1.035412006e-07 -2.903238868e-08 1.141253201e-07 7.527717971e-08 1.084261936e-08 7.257522653e-08 2.827065653e-10 4.588635087e-08 -4.023226203e-08 -1.640331617e-08 2.47126409e-08 9.429318888e-09 1.118859591e-08 -1.688119882e-08 1.981756319e-08 1.033859766e-08
	 6.779567514e-08 1.701403599e-07 2.366684395e-07 -2.094399102e-07 4.275159927e-08 -1.991501646e-07 2.038735538e-08 -1.32785619e-07 1.141058526e-07 -1.497497309e-08 1.093712531e-07 8.340972678e-08 3.923568287e-09 7.222682503e-08 -3.606091819e-09 3.593650015e-08 -4.263810447e-08 -2.162773963e-08 1.80841213e-08 1.164647971e-08 2.013315817e-08 -1.411675024e-08 2.484712867e-08 7.72486367e-09
	 6.554579165e-08 1.702238686e-07 2.248624028e-07 -2.154060685e-07 2.530529636e-08 -1.939040581e-07 3.637795275e-08 -1.158429664e-07 1.15612149e-07 6.959300892e-10 9.221920971e-08 8.044196274e-08 -4.33153381e-09 5.969669839e-08 -7.038008064e-09 1.712544614e-08 -3.438212231e-08 -2.054487601e-08 6.200135498e-09 9.569004202e-09 2.064340047e-08 -5.491725715e-09 1.847939236e-08 1.584725415e-09
	 6.356517441e-08 1.700490375e-07 2.120840538e-07 -2.190626225e-07 7.095182501e-09 -1.831613862e-07 5.132986723e-08 -9.366709342e-08 1.110325493e-07 1.681654379e-08 6.767272572e-08 7.032459332e-08 -1.28220736e-08 4.019697984e-08 -9.809902507e-09 -5.246718377e-09 -2.037006078e-08 -1.563446322e-08 -7.162190803e-09 5.168088573e-09 1.583664543e-08 5.013335614e-09 6.460298975e-09 -5.287448881e-09
	 6.161087961e-08 1.699400175e-07 1.997789848e-07 -2.215745851e-07 -1.047243928e-08 -1.706822823e-07 6.504492172e-08 -7.014283067e-08 1.036628731e-07 3.184430569e-08 4.150637259e-08 5.75122481e-08 -2.021485813e-08 1.968551961e-08 -1.171926166e-08 -2.524471285e-08 -6.234570801e-09 -9.903660732e-09 -1.801239817e-08 8.039441855e-10 9.782760004e-09 1.307926146e-08 -4.381627358e-09 -9.987264719e-09
	 5.959568041e-08 1.700175427e-07 1.885838964e-07 -2.235178835e-07 -2.66824664e-08 -1.583286405e-07 7.733782698e-08 -4.736633705e-08 9.518052226e-08 4.485591209e-08 1.685529647e-08 4.431068824e-08 -2.572825937e-08 1.337319285e-09 -1.260740588e-08 -3.966543257e-08 5.199210582e-09 -4.789671845e-09 -2.434031694e-08 -2.401582282e-09 4.36770597e-09 1.673617241e-08 -1.096787255e-08 -1.130844738e-08
	 5.754853007e-08 1.702124873e-07 1.784158205e-07 -2.249504493e-07 -4.143539178e-08 -1.463304863e-07 8.804031738e-08 -2.593360183e-08 8.593299176e-08 5.544661807e-08 -5.296978935e-09 3.129891983e-08 -2.905583615e-08 -1.392625454e-08 -1.237461932e-08 -4.757607862e-08 1.334418928e-08 -5.016924626e-10 -2.577324665e-08 -4.310788708e-09 -1.874814263e-10 1.598246707e-08 -1.320617618e-08 -9.486968088e-09
	 5.553819595e-08 1.703574153e-07 1.689045535e-07 -2.256891224e-07 -5.483047931e-08 -1.342735768e-07 9.693769204e-08 -5.912464056e-09 7.576839177e-08 6.337706354e-08 -2.471649135e-08 1.847222908e-08 -3.010025712e-08 -2.598471328e-08 -1.098938199e-08 -4.901336102e-08 1.838533081e-08 3.103164834e-09 -2.269777725e-08 -5.107094477e-09 -4.046271949e-09 1.169641795e-08 -1.202205857e-08 -5.435195372e-09
	 5.363710533e-08 1.702635544e-07 1.596554738e-07 -2.25484429e-07 -6.693718316e-08 -1.216862328e-07 1.03771822e-07 1.263062757e-08 6.45321709e-08 6.844610529e-08 -4.120803522e-08 5.880114124e-09 -2.889735198e-08 -3.482125202e-08 -8.531162002e-09 -4.449420823e-08 2.061506688e-08 6.093964746e-09 -1.593394682e-08 -4.999852473e-09 -7.198339894e-09 5.104294719e-09 -8.473242333e-09 -2.912496191e-10
	 5.190583388e-08 1.697753076e-07 1.503657217e-07 -2.241050441e-07 -7.773332596e-08 -1.082814205e-07 1.082942951e-07 2.947906308e-08 5.227760282e-08 7.052954025e-08 -5.445877282e-08 -6.157447264e-09 -2.567291154e-08 -4.041303164e-08 -5.247147079e-09 -3.510535335e-08 2.036565257e-08 8.385227972e-09 -6.790757952e-09 -4.198177855e-09 -9.426209144e-09 -2.335570154e-09 -3.647348623e-09 4.773680498e-09
	 5.038587122e-08 1.687893542e-07 1.408428676e-07 -2.213668193e-07 -8.711725288e-08 -9.398938468e-08 1.103022556e-07 4.428098187e-08 3.92850526e-08 6.961499645e-08 -6.407498927e-08 -1.706430927e-08 -2.085393676e-08 -4.277145246e-08 -1.546136435e-09 -2.251001123e-08 1.805731802e-08 9.785375242e-09 2.982648992e-09 -2.935104547e-09 -1.042241817e-08 -9.024065231e-09 1.309949361e-09 8.664199128e-09
	 4.906524743e-08 1.67247951e-07 1.309815713e-07 -2.171404978e-07 -9.495951242e-08 -7.887645273e-08 1.096541221e-07 5.6645269e-08 2.595361926e-08 6.578434526e-08 -6.967980288e-08 -2.617405839e-08 -1.497009038e-08 -4.197140282e-08 2.10009884e-09 -8.611666081e-09 1.417207083e-08 1.009412816e-08 1.156630461e-08 -1.450298555e-09 -9.922216806e-09 -1.349274903e-08 5.332740987e-09 1.050622918e-08
	 4.795682029e-08 1.651378921e-07 1.207411211e-07 -2.113784475e-07 -1.011701331e-07 -6.3098759e-08 1.063308738e-07 6.628882834e-08 1.268882215e-08 5.923517376e-08 -7.108758363e-08 -3.29447656e-08 -8.546942601e-09 -3.822345151e-08 5.280018677e-09 4.871146318e-09 9.216856547e-09 9.21713161e-09 1.755866309e-08 4.370383508e-11 -7.855644693e-09 -1.480840255e-08 7.678079972e-09 9.865543585e-09
	 4.705874851e-08 1.625066059e-07 1.101743674e-07 -2.041899384e-07 -1.057633055e-07 -4.690771887e-08 1.005356231e-07 7.315381454e-08 -1.472118904e-10 5.035788641e-08 -6.847956562e-08 -3.712569628e-08 -2.059117887e-09 -3.196941752e-08 7.721289871e-09 1.664172414e-08 3.729924657e-09 7.261271771e-09 2.030746884e-08 1.379577079e-09 -4.476171954e-09 -1.287160267e-08 8.100257374e-09 6.928608423e-09
	 4.633178468e-08 1.594667068e-07 9.944611667e-08 -1.958541118e-07 -1.088829419e-07 -3.065836225e-08 9.271230165e-08 7.744142332e-08 -1.223976485e-08 3.974859088e-08 -6.244524298e-08 -3.878638413e-08 4.082182413e-09 -2.389902579e-08 9.298402695e-09 2.586247957e-08 -1.720402296e-09 4.540303519e-09 1.993233346e-08 2.433795721e-09 -3.575346956e-10 -8.409184563e-09 6.846274453e-09 2.4694813e-09
	 4.572879195e-08 1.561677348e-07 8.878387579e-08 -1.867553389e-07 -1.107598239e-07 -1.475008082e-08 8.344944949e-08 7.952893453e-08 -2.333417658e-08 2.811211018e-08 -5.382962934e-08 -3.822411801e-08 9.540205348e-09 -1.483012236e-08 9.999941605e-09 3.208101753e-08 -6.588333266e-09 1.48672636e-09 1.707578986e-08 3.124664756e-09 3.758136566e-09 -2.650943972e-09 4.482864274e-09 -2.418345714e-09
	 4.519783707e-08 1.527543464e-07 7.841021025e-08 -1.77280363e-07 -1.116449692e-07 4.644739849e-10 7.332897247e-08 7.983926551e-08 -3.324942267e-08 1.611327504e-08 -4.350026508e-08 -3.582328476e-08 1.406766675e-08 -5.533078619e-09 9.879202412e-09 3.512177178e-08 -1.042395972e-08 -1.469264657e-09 1.256702392e-08 3.40814945e-09 7.163876907e-09 3.101939428e-09 1.665965071e-09 -6.664334719e-09
	 4.46968699e-08 1.493374672e-07 6.849197915e-08 -1.677403058e-07 -1.117582721e-07 1.473727038e-08 6.282086486e-08 7.874490149e-08 -4.188117048e-08 4.276563911e-09 -3.218332621e-08 -3.195092907e-08 1.751245948e-08 3.389517381e-09 9.016801449e-09 3.499985393e-08 -1.292242907e-08 -3.986384942e-09 7.172000501e-09 3.273575889e-09 9.328609831e-09 7.786429108e-09 -1.029960972e-09 -9.45547395e-09
	 4.421111309e-08 1.459817368e-07 5.912638872e-08 -1.583441375e-07 -1.11269327e-07 2.792567049e-08 5.225427559e-08 7.653727052e-08 -4.918662718e-08 -7.031572035e-09 -2.04272739e-08 -2.692285247e-08 1.981329234e-08 1.152911655e-08 7.50493233e-09 3.188318494e-08 -1.39374607e-08 -5.846211635e-09 1.488770066e-09 2.738068165e-09 9.950323664e-09 1.070093587e-08 -3.186945942e-09 -1.03180891e-08
	 4.370757675e-08 1.427121368e-07 5.035640047e-08 -1.492161129e-07 -1.102950044e-07 3.996512147e-08 4.184723396e-08 7.342715607e-08 -5.515818129e-08 -1.755638235e-08 -8.64851267e-09 -2.10272813e-08 2.0988666e-08 1.863774442e-08 5.454410266e-09 2.610201191e-08 -1.347905225e-08 -6.948286081e-09 -4.047924686e-09 1.847500703e-09 8.957008472e-09 1.152090639e-08 -4.558756307e-09 -9.114397328e-09
	 4.317957621e-08 1.395209621e-07 4.21841042e-08 -1.404079566e-07 -1.088958052e-07 5.081254806e-08 3.175046601e-08 6.956100501e-08 -5.978253841e-08 -2.708454832e-08 2.78045455e-09 -1.456217012e-08 2.112013327e-08 2.455557868e-08 3.008888675e-09 1.818941167e-08 -1.170701136e-08 -7.295139725e-09 -9.109680356e-09 6.824378983e-10 6.506804314e-09 1.027950197e-08 -5.062222792e-09 -6.034177446e-09
	 4.265116169e-08 1.363695192e-07 3.457928811e-08 -1.319089466e-07 -1.070557979e-07 6.039951638e-08 2.20842914e-08 6.501012894e-08 -6.299077095e-08 -3.5365391e-08 1.345420327e-08 -7.872649307e-09 2.032239402e-08 2.912859424e-08 3.654358778e-10 8.91808025e-09 -8.919589339e-09 -6.964336257e-09 -1.338053241e-08 -6.279709716e-10 2.994192325e-09 7.350296777e-09 -4.759018872e-09 -1.609095648e-09
	 4.213625755e-08 1.331887476e-07 2.748920123e-08 -1.236409698e-07 -1.046698727e-07 6.859824457e-08 1.294906649e-08 5.975175795e-08 -6.460673243e-08 -4.205910101e-08 2.288609287e-08 -1.356737351e-09 1.870940106e-08 3.213271448e-08 -2.223671402e-09 -7.09674566e-10 -5.518144283e-09 -6.07086854e-09 -1.645269217e-08 -1.89747192e-09 -9.580569975e-10 3.402470643e-09 -3.820949011e-09 3.283678562e-09
	 4.165878296e-08 1.29885107e-07 2.084360892e-08 -1.154627332e-07 -1.015566641e-07 7.522425881e-08 4.42159668e-09 5.367682555e-08 -6.435233574e-08 -4.675131595e-08 3.053125764e-08 4.567333651e-09 1.636859531e-08 3.326022754e-08 -4.473829383e-09 -9.566078199e-09 -1.948081088e-09 -4.735158382e-09 -1.781140241e-08 -2.898943354e-09 -4.577933802e-09 -7.14097056e-10 -2.480796378e-09 7.527289463e-09
	 4.123250359e-08 1.263722082e-07 1.456843426e-08 -1.072255723e-07 -9.753118981e-08 8.011323877e-08 -3.446268945e-09 4.665902618e-08 -6.196388493e-08 -4.907026956e-08 3.591188917e-08 9.529495015e-09 1.337592394e-08 3.223501455e-08 -6.125136708e-09 -1.661900315e-08 1.37556369e-09 -3.074512526e-09 -1.700182828e-08 -3.42222879e-09 -7.134656012e-09 -4.168721802e-09 -9.839864512e-10 1.006371226e-08
	 4.087186737e-08 1.226181263e-07 8.61154633e-09 -9.885500855e-08 -9.253327723e-08 8.323042131e-08 -1.063102939e-08 3.869071658e-08 -5.738494315e-08 -4.888135092e-08 3.879550425e-08 1.329856601e-08 9.852565117e-09 2.90192361e-08 -7.024420514e-09 -2.120593625e-08 4.13904706e-09 -1.227183347e-09 -1.393650394e-08 -3.362354409e-09 -8.187554051e-09 -6.39010147e-09 4.481129961e-10 1.030480805e-08
	 4.056448611e-08 1.186801505e-07 2.963533999e-09 -9.041327579e-08 -8.67122733e-08 8.475229739e-08 -1.713345783e-08 2.99695191e-08 -5.089998434e-08 -4.641353527e-08 3.931564645e-08 1.583393257e-08 6.00306818e-09 2.395232058e-08 -7.173252444e-09 -2.3205348e-08 6.17234836e-09 6.36073166e-10 -9.081587899e-09 -2.772170697e-09 -7.741907066e-09 -7.215437309e-09 1.646077718e-09 8.381175508e-09
	 4.027779115e-08 1.146906247e-07 -2.348962406e-09 -8.20843347e-08 -8.03995924e-08 8.50394826e-08 -2.297668244e-08 2.086713689e-08 -4.308391273e-08 -4.220624992e-08 3.792224561e-08 1.726732429e-08 2.090355237e-09 1.767897771e-08 -6.70835372e-09 -2.297758813e-08 7.446629192e-09 2.333873163e-09 -3.323505745e-09 -1.831626028e-09 -6.180579265e-09 -6.85438189e-09 2.512469426e-09 5.009876279e-09
	 3.997675765e-08 1.108075612e-07 -7.284827125e-09 -7.409160548e-08 -7.399430392e-08 8.452298559e-08 -2.820691935e-08 1.180672441e-08 -3.460786149e-08 -3.692095121e-08 3.520397026e-08 1.782755592e-08 -1.634727392e-09 1.092302882e-08 -5.830828822e-09 -2.113027899e-08 8.034406865e-09 3.718190656e-09 2.380766491e-09 -7.624240902e-10 -4.039627034e-09 -5.711163626e-09 3.02507868e-09 1.106514484e-09
	 3.961598783e-08 1.071687603e-07 -1.181388925e-08 -6.662402622e-08 -6.784256698e-08 8.359632063e-08 -3.288536893e-08 3.136945437e-09 -2.605395867e-08 -3.115056722e-08 3.171247882e-08 1.775592825e-08 -4.991247743e-09 4.28486506e-09 -4.731825873e-09 -1.827626475e-08 8.053625337e-09 4.702577109e-09 7.292103941e-09 2.504439257e-10 -1.799256133e-09 -4.195104082e-09 3.215645171e-09 -2.552610915e-09
	 3.918700716e-08 1.038660656e-07 -1.592868274e-08 -5.979289931e-08 -6.217835139e-08 8.25487681e-08 -3.708000545e-08 -4.917743977e-09 -1.782480505e-08 -2.532599021e-08 2.786501037e-08 1.725545008e-08 -7.885246853e-09 -1.847939422e-09 -3.553921373e-09 -1.489201947e-08 7.623383092e-09 5.258096374e-09 1.098101189e-08 1.08847216e-09 2.143380052e-10 -2.613726022e-09 3.136619324e-09 -5.464104499e-09
	 3.868577083e-08 1.009458718e-07 -1.964403003e-08 -5.363686505e-08 -5.711940832e-08 8.156396199e-08 -4.085733566e-08 -1.225848407e-08 -1.014273424e-08 -1.970539731e-08 2.393074855e-08 1.647231088e-08 -1.029359624e-08 -7.284903334e-09 -2.383433233e-09 -1.128580092e-08 6.84060113e-09 5.39624101e-09 1.328285169e-08 1.696029381e-09 1.831105788e-09 -1.145449363e-09 2.834367002e-09 -7.372316257e-09
	 3.811703455e-08 9.841754828e-08 -2.298825329e-08 -4.813614955e-08 -5.269640758e-08 8.07355105e-08 -4.427985831e-08 -1.887461051e-08 -3.091192304e-09 -1.441398166e-08 2.005735627e-08 1.550281277e-08 -1.223805044e-08 -1.197773218e-08 -1.26383518e-09 -7.624873594e-09 5.776162138e-09 5.148897799e-09 1.42066468e-08 2.060551062e-09 2.997064228e-09 1.375723406e-10 2.336920174e-09 -8.189283248e-09
	 3.748033447e-08 9.626683345e-08 -2.599806039e-08 -4.3238745e-08 -4.888082328e-08 8.009766739e-08 -4.739932908e-08 -2.481108853e-08 3.332003634e-09 -9.48876433e-09 1.631192491e-08 1.440462419e-08 -1.376245119e-08 -1.595893716e-08 -2.094791315e-10 -3.984040322e-09 4.479691729e-09 4.557960256e-09 1.385802132e-08 2.195519946e-09 3.728098513e-09 1.234398502e-09 1.655044233e-09 -7.922766921e-09
	 3.678367421e-08 9.44643119e-08 -2.8711234e-08 -3.88751385e-08 -4.561204301e-08 7.96423585e-08 -5.025420635e-08 -3.013329758e-08 9.171855666e-09 -4.919688575e-09 1.271378482e-08 1.32098621e-08 -1.491438023e-08 -1.929256209e-08 7.789075844e-10 -3.923011631e-10 2.990629715e-09 3.669915677e-09 1.239170236e-08 2.127184746e-09 4.075744418e-09 2.17822423e-09 7.924721171e-10 -6.638218343e-09
	 3.60435927e-08 9.296985923e-08 -3.116324013e-08 -3.496966676e-08 -4.281228638e-08 7.932965056e-08 -5.286374141e-08 -3.490251282e-08 1.448412283e-08 -6.792839401e-10 9.257825505e-09 1.193250597e-08 -1.572837756e-08 -2.203279077e-08 1.701741163e-09 3.126169066e-09 1.350995137e-09 2.537885162e-09 9.992915057e-09 1.887464002e-09 4.102808448e-09 3.004765639e-09 -2.374293074e-10 -4.455771791e-09
	 3.52672554e-08 9.173448253e-08 -3.338501037e-08 -3.144923333e-08 -4.039248452e-08 7.909408317e-08 -5.521912765e-08 -3.916151325e-08 1.931190103e-08 3.260462114e-09 5.931920537e-09 1.056996184e-08 -1.621153772e-08 -2.418665038e-08 2.551988841e-09 6.512922248e-09 -3.801391688e-10 1.230148541e-09 6.883270848e-09 1.513304539e-09 3.869175835e-09 3.726066357e-09 -1.388788117e-09 -1.577569891e-09
	 3.447437745e-08 9.069767755e-08 -3.540024243e-08 -2.824247169e-08 -3.825625283e-08 7.883657403e-08 -5.727710343e-08 -4.291581961e-08 2.367109878e-08 6.913139296e-09 2.722689394e-09 9.104439442e-09 -1.632833469e-08 -2.568498774e-08 3.304425461e-09 9.645206227e-09 -2.111615521e-09 -1.628112084e-10 3.334392195e-09 1.044890029e-09 3.423504713e-09 4.304453432e-09 -2.560317518e-09 1.670653147e-09
	 3.367329123e-08 8.978880466e-08 -3.722484962e-08 -2.528465865e-08 -3.629788435e-08 7.84292611e-08 -5.895538923e-08 -4.613393092e-08 2.754310263e-08 1.027447831e-08 -3.772183228e-10 7.501227457e-09 -1.599598249e-08 -2.636746631e-08 3.914433777e-09 1.231903015e-08 -3.713467798e-09 -1.520728608e-09 -3.198765567e-10 5.287504263e-10 2.798826606e-09 4.64333054e-09 -3.582954076e-09 4.817220699e-09
	 3.28808134e-08 8.893084079e-08 -3.886689302e-08 -2.251516798e-08 -3.441250173e-08 7.772320153e-08 -6.014667236e-08 -4.875091126e-08 3.088226356e-08 1.332231378e-08 -3.369937701e-09 5.717721736e-09 -1.509772647e-08 -2.601025052e-08 4.320229564e-09 1.427199251e-08 -5.027347356e-09 -2.70500983e-09 -3.705319399e-09 1.314137035e-11 2.017482101e-09 4.6016258e-09 -4.239355608e-09 7.288643563e-09
	 3.210515521e-08 8.805300054e-08 -4.033208995e-08 -1.988455203e-08 -3.250532911e-08 7.658440472e-08 -6.07475184e-08 -5.070275975e-08 3.363789977e-08 1.603098828e-08 -6.250640187e-09 3.717037955e-09 -1.352676957e-08 -2.44039685e-08 4.464546976e-09 1.52547867e-08 -5.904049603e-09 -3.584541336e-09 -6.470771393e-09 -4.551410361e-10 1.101022743e-09 4.049746536e-09 -4.327679976e-09 8.553845145e-09
	 3.136421705e-08 8.710735877e-08 -4.162807454e-08 -1.73540714e-08 -3.051441919e-08 7.493167344e-08 -6.070365992e-08 -5.195937744e-08 3.578735087e-08 1.838491385e-08 -9.010826366e-09 1.491380627e-09 -1.124401578e-08 -2.146452679e-08 4.317575086e-09 1.513328129e-08 -6.25528377e-09 -4.078129073e-09 -8.381974627e-09 -8.424403873e-10 8.633547723e-11 2.942964651e-09 -3.750845595e-09 8.324413222e-09
	 3.066401157e-08 8.607883731e-08 -4.276872803e-08 -1.490347421e-08 -2.842041742e-08 7.27708783e-08 -6.00396932e-08 -5.255862223e-08 3.736032895e-08 2.039486153e-08 -1.163936135e-08 -9.261082888e-10 -8.316919829e-09 -1.730480934e-08 3.895891276e-09 1.395638548e-08 -6.088594818e-09 -4.179944842e-09 -9.382219767e-09 -1.131533323e-09 -9.646585997e-10 1.373712144e-09 -2.576891625e-09 6.690572818e-09
	 2.999659654e-08 8.498265904e-08 -4.377312827e-08 -1.252700027e-08 -2.624271999e-08 7.018637403e-08 -5.88522916e-08 -5.260081182e-08 3.843451658e-08 2.209579992e-08 -1.412315594e-08 -3.465528929e-09 -4.909165803e-09 -1.221720957e-08 3.258137189e-09 1.194099365e-08 -5.499754026e-09 -3.953279264e-09 -9.578828347e-09 -1.321715322e-09 -1.969622774e-09 -4.43429155e-10 -1.022471152e-09 4.084517345e-09
	 2.936025469e-08 8.384866629e-08 -4.466253532e-08 -1.022693196e-08 -2.402380745e-08 6.730025173e-08 -5.727445381e-08 -5.221149614e-08 3.911050098e-08 2.353199462e-08 -1.644911902e-08 -6.038326165e-09 -1.229779941e-09 -6.578648825e-09 2.481786065e-09 9.38343035e-09 -4.626672491e-09 -3.496697151e-09 -9.163222114e-09 -1.421868242e-09 -2.839639165e-09 -2.243429579e-09 6.307039082e-10 1.093908007e-09
	 2.874386544e-08 8.270745117e-08 -4.545595998e-08 -8.009688064e-09 -2.180575838e-08 6.423232179e-08 -5.543120595e-08 -5.150979132e-08 3.947975528e-08 2.474407275e-08 -1.86020464e-08 -8.560780935e-09 2.524607155e-09 -7.423866212e-10 1.639920314e-09 6.56104769e-09 -3.599323964e-09 -2.903143063e-09 -8.320717005e-09 -1.441389004e-09 -3.49820402e-09 -3.787725714e-09 2.126442669e-09 -1.741782929e-09
	 2.814783728e-08 8.157818134e-08 -4.616643219e-08 -5.879392654e-09 -1.962218475e-08 6.107207355e-08 -5.341795706e-08 -5.058220293e-08 3.960980311e-08 2.575846392e-08 -2.056745443e-08 -1.096534949e-08 6.203101234e-09 5.022503702e-09 7.856059227e-10 3.676736251e-09 -2.510995987e-09 -2.239549176e-09 -7.181924302e-09 -1.387234814e-09 -3.890254033e-09 -4.910442967e-09 3.287073796e-09 -4.048869414e-09
	 2.756308227e-08 8.047030928e-08 -4.680247693e-08 -3.839356399e-09 -1.7492208e-08 5.787828428e-08 -5.129492432e-08 -4.948594753e-08 3.954138799e-08 2.658981575e-08 -2.23305245e-08 -1.320506456e-08 9.705327922e-09 1.054141051e-08 -4.831485173e-11 8.513774527e-10 -1.415134762e-09 -1.542558043e-09 -5.815874438e-09 -1.26232022e-09 -3.985492565e-09 -5.52374357e-09 4.02027523e-09 -5.634534568e-09
	 2.699492758e-08 7.938284724e-08 -4.736870109e-08 -1.890081082e-09 -1.542664267e-08 5.468260991e-08 -4.909781771e-08 -4.82513805e-08 3.929658844e-08 2.724264208e-08 -2.387951451e-08 -1.524829691e-08 1.29713254e-08 1.571219649e-08 -8.454138552e-10 -1.854604411e-09 -3.357221749e-10 -8.28698042e-10 -4.251644284e-09 -1.068479516e-09 -3.774740729e-09 -5.604219185e-09 4.300802853e-09 -6.445590021e-09
	 2.643872664e-08 7.831044345e-08 -4.786933317e-08 -3.372352211e-11 -1.342833542e-08 5.150439877e-08 -4.684536091e-08 -4.689764819e-08 3.88861908e-08 2.771887222e-08 -2.520433481e-08 -1.707611259e-08 1.596674871e-08 2.047993306e-08 -1.597821346e-09 -4.416875064e-09 7.191041753e-10 -1.026268771e-10 -2.499473476e-09 -8.073352979e-10 -3.266263883e-09 -5.170885346e-09 4.146489072e-09 -6.515405379e-09
	 2.590007575e-08 7.724487514e-08 -4.830614305e-08 1.730057864e-09 -1.150024834e-08 4.835382272e-08 -4.455127808e-08 -4.54350455e-08 3.831787087e-08 2.801830292e-08 -2.629976912e-08 -1.867635367e-08 1.867284521e-08 2.481480271e-08 -2.303129634e-09 -6.8265292e-09 1.747644488e-09 6.334172666e-10 -5.692125225e-10 -4.835231666e-10 -2.481143397e-09 -4.269895956e-09 3.599387673e-09 -5.922103761e-09
	 2.537387846e-08 7.617825475e-08 -4.86799838e-08 3.399502641e-09 -9.642770472e-09 4.524079237e-08 -4.22258894e-08 -4.387473481e-08 3.759866794e-08 2.814359111e-08 -2.716328895e-08 -2.00433557e-08 2.107920364e-08 2.870109161e-08 -2.959562582e-09 -9.079426663e-09 2.748411508e-09 1.377266896e-09 1.522001244e-09 -1.032831664e-10 -1.450693227e-09 -2.961829717e-09 2.712890704e-09 -4.762308712e-09
	 2.486571648e-08 7.510302371e-08 -4.899104646e-08 4.974474988e-09 -7.859129144e-09 4.217342114e-08 -3.98809127e-08 -4.222595269e-08 3.673762136e-08 2.809822635e-08 -2.779723808e-08 -2.117428701e-08 2.318073721e-08 3.212913398e-08 -3.566559833e-09 -1.117049254e-08 3.718083147e-09 2.123231537e-09 3.745602932e-09 3.236776084e-10 -2.12942486e-10 -1.316561321e-09 1.546101913e-09 -3.138630086e-09
	 2.437200167e-08 7.401297374e-08 -4.9239136e-08 6.453546843e-09 -6.150273587e-09 3.916131848e-08 -3.752680034e-08 -4.050107208e-08 3.574483489e-08 2.788936663e-08 -2.820626492e-08 -2.207106551e-08 2.497539343e-08 3.509445959e-08 -4.122215395e-09 -1.30921559e-08 4.650247434e-09 2.863501498e-09 6.062377315e-09 7.861819256e-10 1.18797617e-09 5.918346229e-10 1.595048997e-10 -1.153175838e-09
	 2.390047259e-08 7.290229089e-08 -4.942438204e-08 7.83621252e-09 -4.520148785e-09 3.621324358e-08 -3.517675968e-08 -3.871114861e-08 3.463297137e-08 2.752497942e-08 -2.839933631e-08 -2.273706318e-08 2.646456349e-08 3.75954543e-08 -4.62507591e-09 -1.483473978e-08 5.536635584e-09 3.587032233e-09 8.424566498e-09 1.270978206e-09 2.705298899e-09 2.686049614e-09 -1.3858244e-09 1.093907502e-09
	 2.344473528e-08 7.176637763e-08 -4.954621324e-08 9.1206479e-09 -2.970343823e-09 3.333981808e-08 -3.284199645e-08 -3.687089144e-08 3.341503605e-08 2.701624959e-08 -2.838600811e-08 -2.317949138e-08 2.765170698e-08 3.963456598e-08 -5.072778411e-09 -1.63874503e-08 6.366989695e-09 4.282440715e-09 1.077973048e-08 1.764504056e-09 4.289382997e-09 4.889331574e-09 -3.029818443e-09 3.505714525e-09
	 2.301146064e-08 7.059959687e-08 -4.960390361e-08 1.030613465e-08 -1.505246933e-09 3.054945576e-08 -3.053603484e-08 -3.49917255e-08 3.210586881e-08 2.637347695e-08 -2.817921188e-08 -2.340588273e-08 2.854310015e-08 4.121645458e-08 -5.464185273e-09 -1.77389144e-08 7.131096003e-09 4.936349541e-09 1.307260409e-08 2.251796412e-09 5.891317032e-09 7.124990721e-09 -4.713969388e-09 5.988646645e-09
	 2.25951689e-08 6.939791615e-08 -4.959684366e-08 1.139049271e-08 -1.268124302e-10 2.785153745e-08 -2.82698232e-08 -3.308758896e-08 3.071911388e-08 2.560912366e-08 -2.779121916e-08 -2.342618808e-08 2.914633143e-08 4.234924055e-08 -5.797142912e-09 -1.887892823e-08 7.818301201e-09 5.536711976e-09 1.524922597e-08 2.719414399e-09 7.46299861e-09 9.320576237e-09 -6.382759013e-09 8.454223721e-09
	 2.220084189e-08 6.815667006e-08 -4.952395232e-08 1.237404646e-08 1.161561482e-09 2.525230001e-08 -2.605448771e-08 -3.116862436e-08 2.926883449e-08 2.473397571e-08 -2.723619624e-08 -2.325048727e-08 2.947129646e-08 4.30433173e-08 -6.071321637e-09 -1.979844573e-08 8.419215626e-09 6.071236579e-09 1.725844442e-08 3.153545883e-09 8.960144451e-09 1.140842535e-08 -7.985010704e-09 1.082081499e-08
	 2.182881438e-08 6.687321795e-08 -4.938462134e-08 1.325625122e-08 2.357705172e-09 2.275775041e-08 -2.389951197e-08 -2.924525817e-08 2.776810716e-08 2.375944378e-08 -2.65279933e-08 -2.289013826e-08 2.952947694e-08 4.331279793e-08 -6.286475423e-09 -2.049176338e-08 8.926130783e-09 6.529996797e-09 1.905638167e-08 3.542623713e-09 1.034390658e-08 1.332963825e-08 -9.475881762e-09 1.301652705e-08
	 2.14709197e-08 6.554800854e-08 -4.917911361e-08 1.403830056e-08 3.461647879e-09 2.037238572e-08 -2.18119554e-08 -2.732789009e-08 2.62288038e-08 2.269748815e-08 -2.568053896e-08 -2.235823702e-08 2.933494014e-08 4.317668295e-08 -6.442680817e-09 -2.095739259e-08 9.3335978e-09 6.905944139e-09 2.060860963e-08 3.877953166e-09 1.158230187e-08 1.503712754e-08 -1.081900433e-08 1.498304671e-08
	 2.112229317e-08 6.418258267e-08 -4.890615744e-08 1.472361955e-08 4.472415369e-09 1.809889895e-08 -1.979890675e-08 -2.542523059e-08 2.466340042e-08 2.155950389e-08 -2.470946338e-08 -2.166921298e-08 2.890502874e-08 4.265906646e-08 -6.542205054e-09 -2.11982941e-08 9.639181494e-09 7.194423319e-09 2.189148435e-08 4.152114476e-09 1.265183272e-08 1.649579263e-08 -1.198709051e-08 1.667606399e-08
	 -8.858172274e-05 1.720994169e-07 -6.372569304e-06 1.631142547e-06 1.916060952e-06 -1.444238708e-06 1.205552742e-06 7.166839378e-07 -6.695322831e-07 -3.593296085e-07 3.863141806e-07 2.446748988e-07 -2.885060179e-07 -3.789506844e-07 5.33130228e-08 1.439004844e-07 -5.853578377e-08 -3.85018454e-08 -1.064519967e-07 -1.773307723e-08 -5.109282915e-08 -6.255426571e-08 4.309080397e-08 -5.656770501e-08
	