101 30	
	 2.199128574 59.72323907 -6.66971497 -17.70910771 20.12553638 15.84336681 13.53160902 11.00796178 -8.771512209 -6.948243933 -7.51691328 6.443985205 2.658337508 -5.004959204 -0.3557741018 4.498770363 0.3825567154 -0.05923413191 0.3034843802 -0.3535415783 1.872136363 -0.2132586669 -0.2559607041 -0.05077416264 0.7078696016 0.18014758 0.007969209476 0.3160346953 0.01733784067 0.01392223896
	 -2.220708444 -4.070886325 -5.338473808 -2.467887807 0.8485836537 -0.138697875 -0.6820894604 -1.154033714 1.236707798 1.372862641 1.884637526 -2.357751703 -1.072363892 2.601550023 0.2142088942 -3.570920513 -0.3172092301 0.1091083194 -0.2886996565 0.4637615284 -2.516698702 0.3237268076 0.410051022 0.1031933946 -1.255796987 -0.3675350416 -0.01982672983 -0.7193804012 -0.05355262739 -0.03531110931
	 -2.03450577 -4.012331703 -4.681563015 -1.88146754 0.2681492464 -0.636309642 -1.181614274 -1.592751049 1.655263128 1.687827587 2.237976521 -2.52730323 -1.120644188 2.453799849 0.179427247 -2.575179441 -0.2096479186 0.02079798611 -0.181389703 0.1295443031 -0.6449416415 0.03814632304 0.01495847343 -0.02203687971 0.1264628814 0.1196856212 0.01557518498 0.3980464144 0.06050991609 0.02604106664
	 -1.925266242 -3.878638747 -4.102914135 -1.309016232 -0.2294477365 -1.088253456 -1.575401701 -1.918214092 1.892857792 1.811556703 2.248012686 -2.187386222 -0.9093899196 1.640964859 0.08809407059 -0.6735265681 -0.02617502133 -0.02868145838 0.02627175009 -0.1617411596 1.114005516 -0.174660269 -0.2411144827 -0.063349231 0.8262682593 0.2332175583 0.007027073072 0.3490014309 -0.007766964557 0.009281394563
	 -1.812273646 -3.765675528 -3.595488056 -0.8108344437 -0.6614678656 -1.465384926 -1.868997617 -2.104400004 1.953568223 1.741188133 1.956116286 -1.486044289 -0.5356382698 0.5435242786 -0.009764113843 0.9450846785 0.1068425919 -0.03607773074 0.1360321456 -0.1877638682 1.001954765 -0.1014813925 -0.1048134042 -0.005189382883 0.1269853572 -0.05727749066 -0.01047838955 -0.2985268965 -0.03555199722 -0.01937935609
	 -1.681394402 -3.686617044 -3.138588448 -0.4015773631 -1.037132936 -1.752044829 -2.063168916 -2.145230887 1.863437025 1.514410953 1.473293624 -0.6607792376 -0.1316592386 -0.4518365332 -0.0814240326 1.805995746 0.1584909416 -0.02913090635 0.1380192324 -0.07333097542 0.04116617124 0.06005343705 0.1261442695 0.05128726391 -0.6534175545 -0.2389163281 -0.009840423483 -0.3888894554 0.001812260694 -0.01070676849
	 -1.596198604 -3.55919421 -2.694863101 -0.05931330564 -1.284130871 -1.856393197 -2.01977685 -1.912710606 1.505245188 1.064343392 0.7823139479 0.122621337 0.1947378208 -0.9428096929 -0.08993136944 1.341764831 0.0971274523 -0.006490625137 0.04174618286 0.05582533299 -0.6388928463 0.1133994594 0.1608960422 0.03477374824 -0.4734274427 -0.05472651276 0.006233202217 0.1707442055 0.03771811511 0.01999813111
	 -1.526453254 -3.435511366 -2.31135429 0.2720922537 -1.521959906 -1.968302324 -1.954165244 -1.637462313 1.067248666 0.5365471528 -0.008724959485 0.9075318863 0.4928007856 -1.177147935 -0.06436588303 0.1379508875 -0.02301338352 0.02897547342 -0.09337876885 0.16009026 -0.842932735 0.06500751688 0.03208412499 -0.02404422661 0.3556092211 0.2728169567 0.01620930155 0.5969636683 0.001397250273 0.01603526099
	 -1.448017039 -3.337973206 -2.006703235 0.5829317486 -1.764332388 -2.115515902 -1.922441233 -1.406269009 0.6682208253 0.06584133044 -0.6898594949 1.472051728 0.675913306 -1.114438111 -0.02059117867 -1.044596264 -0.1219295758 0.04739815248 -0.1457466679 0.1155360132 -0.1156492645 -0.05416699699 -0.1193771832 -0.03956704123 0.5594067004 0.1067827114 -0.006602569681 -0.2454607928 -0.04544002963 -0.02944343002
	 -1.399515555 -3.189713198 -1.700534281 0.7702441612 -1.814281393 -2.014994236 -1.673652001 -1.042357637 0.2926531743 -0.2527912051 -0.9615537867 1.412353041 0.5875615817 -0.7096111847 0.01300280701 -1.31957201 -0.130129754 0.03380519664 -0.1083912962 0.02289420524 0.4198859107 -0.09837399486 -0.1393738228 -0.02132930708 0.2214871464 -0.1188671392 -0.01394190587 -0.500717851 -0.012891771 -0.01821969676
	 -1.380432529 -3.000007667 -1.381260182 0.8722965682 -1.719383521 -1.706919533 -1.223310704 -0.5286050794 -0.1037751677 -0.4777863778 -0.9119868616 0.8160077446 0.2628119957 -0.01471376915 0.03498257816 -0.7570371754 -0.05819372747 -0.003934371637 -0.009909846274 -0.06701908636 0.4980941317 -0.05468942311 -0.03762036336 0.01154778221 -0.3371570392 -0.2194266955 0.0008714840231 0.08041865155 0.06403163937 0.03777131495
	 -1.323183754 -2.898627409 -1.115729452 1.053481541 -1.778157695 -1.574359793 -0.8971827109 -0.06289709568 -0.5333732317 -0.7692641068 -0.9646108345 0.2631633511 -0.05761440897 0.7084841217 0.05706725565 -0.1210041464 0.02103767869 -0.03352582864 0.08444260264 -0.1157801439 0.3718557207 0.002893740524 0.05745714136 0.03174344878 -0.5477126799 -0.1735462052 0.009447348323 0.4125865563 0.05168153046 0.03954952384
	 -1.230496396 -2.885813146 -0.9003751326 1.326603024 -2.001228917 -1.629359324 -0.695772738 0.3633611617 -1.017187905 -1.148680061 -1.147836192 -0.2369196114 -0.3734352279 1.477983892 0.07965356554 0.5890768645 0.1099685049 -0.05110586688 0.1750353585 -0.1138086986 -0.06166069713 0.08759040567 0.1494056269 0.03054682807 -0.1664600315 0.2036730107 0.006345450861 0.1740951633 -0.08539386205 -0.04532696326
	 -1.175972207 -2.805843086 -0.698714012 1.453222561 -2.015425453 -1.50858268 -0.4602019101 0.6355476877 -1.215117458 -1.227274987 -1.05283077 -0.5576147448 -0.5201187489 1.666740039 0.07351821455 0.9889398853 0.1475965633 -0.05048443904 0.1876485607 -0.06927422297 -0.5252908488 0.1414084509 0.1709685495 0.002892205738 0.5029245769 0.6406190356 -0.006364895816 -0.5275971427 -0.1562918964 -0.1105704627
	 -1.210114967 -2.551735921 -0.5070065111 1.321202158 -1.610031371 -1.01820716 -0.1173129955 0.6254966118 -0.8511651079 -0.6942477812 -0.3857296232 -0.4807561446 -0.2970880268 0.6139639674 0.01356124796 0.408219045 0.04450002134 -0.007862678746 0.02213457746 0.003698210646 -0.1533376354 0.001870266822 -0.0366566732 -0.01695157724 0.1162351248 -0.2037983957 -0.002850576428 0.05888449388 0.1421578735 0.09187714568
	 -1.191957687 -2.415477622 -0.3152049656 1.345918131 -1.431139624 -0.6821455606 0.2182809282 0.7623871279 -0.6930039259 -0.3385757035 0.176752558 -0.5631153146 -0.1781337027 -0.1890164189 -0.03939752846 0.0686283374 -0.0273616097 0.02604067719 -0.1005333201 0.08194563273 -0.03256051881 -0.07042157039 -0.140679723 -0.03020203684 0.06515114869 -0.4367101619 -0.003228250886 0.1117168195 0.1812449264 0.1155708932
	 -1.129437832 -2.381161291 -0.1259141172 1.517585814 -1.454616154 -0.4847054025 0.5482364255 1.020881074 -0.7034539693 -0.122730873 0.6593697044 -0.7608309968 -0.1324553657 -0.8205900899 -0.08675417265 -0.1462624261 -0.08103544331 0.05546591068 -0.1902176227 0.1545816051 0.0286429007 -0.1018100498 -0.1574721496 -0.02309965365 0.01554691681 -0.2792827759 -8.44143782e-05 0.05980583729 -0.01870323167 -0.01284813579
	 -1.065660849 -2.354291201 0.03954418511 1.663229083 -1.476064147 -0.3288395981 0.7980094723 1.20333653 -0.6969687256 0.04003239013 0.9868864053 -0.8614514837 -0.09059576012 -1.21491676 -0.1125182776 -0.2973871526 -0.1102158165 0.06781608901 -0.215368455 0.166377506 0.1061795252 -0.08418923796 -0.08506308093 0.002548022028 -0.1149064129 0.1174493828 0.004883238779 0.004195387523 -0.218998205 -0.139001337
	 -1.043901974 -2.237776581 0.1515691248 1.600619804 -1.297727494 -0.1532476013 0.8384136126 1.079168133 -0.5137271325 0.1584196084 0.9426522392 -0.6362207477 -0.02234891806 -1.059792609 -0.08728630578 -0.2898324533 -0.08625588879 0.04537774591 -0.1376124647 0.08523620238 0.1205534791 -0.02843802489 0.003949163763 0.01612536688 -0.1470228891 0.2936593746 0.003935370316 -0.03102713048 -0.1185463204 -0.07329054583
	 -1.045522992 -2.077628655 0.2403858671 1.44313677 -1.013828315 0.04520017023 0.7754973167 0.777717145 -0.2139835275 0.2659789556 0.682679362 -0.2020664543 0.06540752771 -0.5567650814 -0.0299341316 -0.1740732701 -0.02919772165 0.004852943251 -0.008902638834 -0.02839182727 0.06854797261 0.02725436248 0.05573421741 0.01169899545 -0.06313514639 0.1686479655 -0.0008897148546 -0.03257280627 0.1029404781 0.06665871988
	 -1.030538617 -1.965489195 0.3541166518 1.38588681 -0.8016103077 0.2569437437 0.7875671375 0.5354423564 0.08273491644 0.4123348526 0.4852194065 0.2310654797 0.1634169833 -0.07955252737 0.02785627356 -0.07114606464 0.02768706811 -0.03286248577 0.1184777992 -0.1244406625 0.01552646795 0.07400540911 0.1014055672 0.008963039318 0.01707697285 0.02158820838 -0.003269206649 -0.01696831836 0.1674107218 0.1058792544
	 -0.9941906522 -1.909961835 0.4966038905 1.442538733 -0.6791669059 0.4758453024 0.8895070326 0.3849259374 0.3495232874 0.5923995745 0.3885386376 0.611896004 0.2635481984 0.2973717019 0.0785614484 -0.002182378694 0.07669412579 -0.06371966123 0.2311628279 -0.1949764301 -0.02533770204 0.1116618756 0.1487833571 0.01145905411 0.07230472945 -0.08298322578 -0.002757995016 0.003566771412 0.07633278975 0.04729096496
	 -0.9536606066 -1.868252121 0.63034413 1.507604717 -0.5896094284 0.6548038094 0.9792182797 0.2756249481 0.545829849 0.7232564775 0.3219395314 0.8641086625 0.3275017593 0.5450615532 0.1103844944 0.04392186409 0.1059738539 -0.07906198342 0.2859180699 -0.215667714 -0.05243899867 0.1180060061 0.1570531266 0.01239718506 0.09750655222 -0.1398052973 -0.001145904875 0.01950999378 -0.05046983254 -0.03339869984
	 -0.9281024784 -1.793123607 0.7101328511 1.463597545 -0.4756944274 0.7318219132 0.9391063285 0.159727868 0.6116034329 0.7026277946 0.2131898869 0.8760376447 0.3050235016 0.6033166536 0.1056338023 0.07420169167 0.09707036338 -0.06487708954 0.2176255674 -0.1438311786 -0.058311986 0.05694492506 0.06503900302 0.003198147298 0.07054978991 -0.1179759913 0.0003938886979 0.02102463287 -0.1039937389 -0.06792372603
	 -0.9161803016 -1.688375211 0.7463031948 1.323171121 -0.3299918519 0.7312460507 0.7819485253 0.01991484941 0.5789788629 0.5509515182 0.04768164441 0.6908390168 0.2051189759 0.518976739 0.06908459182 0.1005264136 0.05237464295 -0.0212671508 0.02192341606 0.03207138886 -0.04805253019 -0.08171826123 -0.1461182974 -0.02000321503 -0.009724902962 -0.02371862242 0.0026916346 0.009372535473 -0.09968333076 -0.06447112425
	 -0.9046888939 -1.587979162 0.7811793769 1.178464049 -0.1765254065 0.7235184305 0.5978529345 -0.1350327126 0.5239711131 0.3592857446 -0.139506398 0.433899235 0.07686543753 0.3762536221 0.02183731432 0.1150997767 -0.002448689115 0.02786486969 -0.1876765793 0.214051054 -0.02615979086 -0.2063592558 -0.3271191796 -0.0385873041 -0.09276121509 0.0936478303 0.003939498 -0.0106944062 -0.01858188732 -0.006930766157
	 -0.8892839586 -1.504550515 0.8318756097 1.076413056 -0.03018145874 0.7316774976 0.4262332194 -0.2914911132 0.4672113293 0.1671475107 -0.3099683749 0.1524762977 -0.04824473169 0.1838437214 -0.01981709697 0.08434479136 -0.03494619179 0.04453794972 -0.2245451417 0.2166741287 0.00168116449 -0.1626275853 -0.2410362959 -0.0252095455 -0.08497354352 0.1066374199 0.00171878398 -0.01625960177 0.07462809673 0.05129157039
	 -0.8661443369 -1.447270887 0.9157344118 1.039535635 0.1133256936 0.7876166912 0.2881430485 -0.4672097171 0.4460110116 -0.006894828413 -0.490892945 -0.1240375409 -0.1729714799 -0.009977176491 -0.05918475449 0.03788272355 -0.0619180605 0.05184874369 -0.1959585474 0.1552567436 0.03211659902 -0.04034806095 -0.0284801076 0.002233415336 -0.03148541256 0.05642376445 -0.001184524323 -0.01062575884 0.1001436254 0.06379747429
	 -0.8367305968 -1.411766722 1.02670547 1.053082472 0.2538739344 0.884754808 0.1836842796 -0.6568812732 0.4633104506 -0.1574709925 -0.6846637109 -0.3776113406 -0.2946020152 -0.1770974046 -0.09749801606 -0.00259102681 -0.09434331134 0.06589907523 -0.1838814494 0.1131846072 0.06193897221 0.08175592165 0.1860354549 0.02896638843 0.02539365636 -0.008501103371 -0.003280764484 -0.0007182358833 0.04363024945 0.02548056742
	 -0.8113429667 -1.371364502 1.111780705 1.046259702 0.3647308874 0.9396779151 0.09867488581 -0.7804210417 0.4603969888 -0.2657951391 -0.7985348531 -0.5487941792 -0.3661034251 -0.2923387966 -0.1173893822 -0.03544297503 -0.1093547661 0.06815478602 -0.1389658293 0.05013937076 0.07209115182 0.1637031199 0.3194611033 0.04432234405 0.0668909278 -0.06323301122 -0.004409909015 0.00867467653 -0.03295227888 -0.02543984373
	 -0.7995355401 -1.300707549 1.1164962 0.9498879549 0.4148340353 0.8684564856 0.02430649551 -0.7507180185 0.3806447674 -0.3024840319 -0.7304189176 -0.5575065794 -0.3334738062 -0.3122832627 -0.09959303518 -0.05113327453 -0.0839580961 0.04245782325 -0.03115673662 -0.04742352697 0.04040887569 0.1365455248 0.2403921223 0.03117574551 0.05838904118 -0.06355286464 -0.003443303424 0.009735123119 -0.05980684089 -0.04320239675
	 -0.7966925471 -1.211099073 1.066457601 0.7943484305 0.4237532517 0.7124047955 -0.0452035494 -0.6169519775 0.2467841855 -0.2897325589 -0.5361053368 -0.4518599544 -0.2304328262 -0.26341085 -0.05833863676 -0.05187018399 -0.03691707123 0.004295821695 0.09340840269 -0.1521542807 -0.0127677354 0.04327892656 0.03432080992 0.001260632954 0.01765215236 -0.02586324782 -0.001056082386 0.004559608914 -0.04038839645 -0.02924073169
	 -0.7931473136 -1.127227792 1.017290834 0.6481468625 0.4312486309 0.5596491997 -0.1168367893 -0.4770825355 0.1077972493 -0.2676075585 -0.3267039017 -0.3254061069 -0.1239004335 -0.1985331363 -0.02074648561 -0.04572408258 2.930278416e-05 -0.0226273925 0.1717886596 -0.2264923213 -0.05314467261 -0.02985966276 -0.1357464782 -0.02519673992 -0.017465946 0.008679566788 0.002512664126 -0.0005908854008 -0.01276252068 -0.007392438323
	 -0.7851202655 -1.058338059 0.9930878813 0.5374439122 0.4572952802 0.4426421723 -0.1998703593 -0.3671212756 -0.02492441627 -0.2522477005 -0.1359925518 -0.2092930747 -0.03604960336 -0.1350841596 0.004548670512 -0.03587047758 0.01920866309 -0.03308946309 0.1878213759 -0.2505142222 -0.06955152091 -0.05767305548 -0.2199314874 -0.04249643336 -0.03585975358 0.02805523316 0.007941545258 -0.003973283865 0.007794161362 0.01403863314
	 -0.7717971683 -1.005293698 1.004622673 0.4624944955 0.5137656484 0.3596121816 -0.3066262241 -0.290426669 -0.1636016874 -0.2525532112 0.05151955313 -0.1026681146 0.04536907221 -0.07101603679 0.02616644605 -0.02446177726 0.03277703862 -0.0356819875 0.1619148963 -0.214995162 -0.06517691212 -0.05602304051 -0.2277406203 -0.04828155555 -0.04009081186 0.03473704287 0.0138335212 -0.005955430446 0.01742906795 0.0333713603
	 -0.7522578399 -0.9690145996 1.065505571 0.4210868227 0.6172169238 0.3044802251 -0.4576622954 -0.2480132891 -0.3324431638 -0.2821675871 0.2706724871 0.002610727525 0.1468409042 0.001696529304 0.06193982188 -0.01410769808 0.06589886691 -0.04760787018 0.124344175 -0.089227345 -0.04127757493 -0.05063630377 -0.1602418435 -0.03442806644 -0.03158094475 0.03076135378 0.01478403161 -0.006442316388 0.0190361428 0.04507108366
	 -0.7248290872 -0.9522756989 1.190067032 0.4111196505 0.7886853534 0.2744313096 -0.6823847044 -0.2420437932 -0.5657964534 -0.3590470391 0.5703572071 0.1223831438 0.3039575707 0.09843960784 0.1377046898 -0.005133749308 0.1599849778 -0.09657474099 0.09122997845 0.2319133224 0.01916071646 -0.06719872203 0.04864609934 0.02724657833 0.001599936593 0.005350668359 -0.01053320518 -0.0006635156829 0.02927166895 0.004595237206
	 -0.6962850177 -0.940022596 1.317745975 0.4032056051 0.9587350507 0.2512002562 -0.9003824877 -0.2440610958 -0.7888960416 -0.4400133402 0.859454941 0.2338145629 0.4646779206 0.1945160627 0.2247609797 0.003703781255 0.2775170532 -0.1619217515 0.05712887173 0.6409197135 0.09863756861 -0.09888335495 0.3369823413 0.1198481404 0.05065740358 -0.03512224281 -0.06416835895 0.01140851358 0.06958231936 -0.09760833541
	 -0.6913179943 -0.8823834939 1.259327622 0.332718867 0.8908666341 0.1837903226 -0.8152010893 -0.1670483815 -0.7053539164 -0.3497050215 0.7531531579 0.2320175627 0.3748341825 0.1764020207 0.1454182245 0.01737442932 0.1319259072 -0.0534991925 -0.06263747255 0.3258809583 0.05872722272 0.002010494734 0.1828647832 0.04560122903 0.02768265427 -0.02278640741 -0.002422798535 0.002918566848 -0.04515080518 -0.005330650993
	 -0.6932847546 -0.8114090883 1.132135607 0.2322199551 0.7387603926 0.1034746612 -0.6282402814 -0.06671759091 -0.5214314994 -0.2138000639 0.5248675227 0.189165092 0.2258943518 0.1233697643 0.04712997104 0.02799891776 -0.02107356966 0.04893515321 -0.1549519897 -0.02726069741 0.0105591241 0.07819536974 0.006119398188 -0.02251273492 0.002095577693 -0.005720388784 0.02728880017 -0.002226774841 -0.06416581525 0.03268998276
	 -0.6915593839 -0.7508018011 1.035537862 0.1441560836 0.621313772 0.03206495219 -0.4825646471 0.01768512768 -0.3758234032 -0.1054242661 0.3480548766 0.1540174922 0.1190132577 0.08386045369 -0.01067349665 0.03312568457 -0.09691573392 0.09505560885 -0.1975532189 -0.1942646459 -0.01045280796 0.1083851184 -0.07071721329 -0.04920346674 -0.008037580808 0.001749528576 0.0270708921 -0.00252496372 -0.03559577244 0.02476160809
	 -0.6860750182 -0.7005097334 0.9759949845 0.07083007661 0.5432709623 -0.03512467067 -0.3796329525 0.09100733811 -0.2662099115 -0.01638763949 0.2156705249 0.1263197745 0.04199830008 0.0548758428 -0.04158455004 0.03284460128 -0.1217215622 0.1039275934 -0.1980376714 -0.2445057507 -0.01693929439 0.1104400534 -0.09445557906 -0.05523628988 -0.01104388784 0.005162116858 0.02039979391 -0.001746338324 -0.006393471562 0.01210783558
	 -0.6774924047 -0.6578588558 0.9496150091 0.005722189477 0.4977833256 -0.1081012814 -0.307002811 0.1655954157 -0.1766081185 0.07051007599 0.1043485569 0.1029172645 -0.02560504985 0.03045677978 -0.06156210115 0.02792259852 -0.1204983387 0.09151788995 -0.1621545826 -0.2278711215 -0.01723959277 0.08927768333 -0.09028133005 -0.0481128678 -0.01081859583 0.006891792171 0.01151123792 -0.0008844974059 0.01707428196 0.001604666899
	 -0.6658106267 -0.6214868357 0.9588011091 -0.05683977011 0.4851955472 -0.1981767988 -0.2597563991 0.2547676553 -0.09731802879 0.1720323858 -0.001893068197 0.08445316127 -0.1013710636 0.00776190336 -0.08515222179 0.01945774428 -0.1149767524 0.07126199189 -0.09446865448 -0.1713922686 -0.0155883092 0.04318748323 -0.0656138536 -0.02758132138 -0.008290181473 0.007016963451 3.113904223e-05 -0.0001071576109 0.03129499046 -0.006622758624
	 -0.650784938 -0.5908454098 1.00813878 -0.1211982651 0.5087140503 -0.3157143944 -0.2366188582 0.3706017914 -0.02209511596 0.3029352018 -0.1146417194 0.07259883799 -0.2001450473 -0.01495175819 -0.1246006995 0.008047427073 -0.1216362215 0.05211549858 0.006689668989 -0.08608419992 -0.01421558602 -0.03590423913 -0.01920273808 0.01095234309 -0.003156611031 0.004979805643 -0.01646723636 0.0007126564315 0.03363247735 -0.01393425881
	 -0.6329900858 -0.564836518 1.09171299 -0.1882591732 0.5624767642 -0.4583723542 -0.2325880419 0.5108732288 0.05146694321 0.4611168296 -0.2355903206 0.06638333984 -0.3213150297 -0.03819047225 -0.1802383122 -0.005634556337 -0.1427913102 0.0363567535 0.1362121399 0.0199339247 -0.01371120536 -0.144749715 0.0457448682 0.06578008847 0.004316041336 0.0007750666393 -0.03729252862 0.001620925018 0.0230526424 -0.020009737
	 -0.6158747163 -0.5393448763 1.167389645 -0.2496937621 0.6079790759 -0.5832828176 -0.2267081393 0.6271870128 0.1154520108 0.5896743195 -0.3356624448 0.05649261681 -0.4129978368 -0.05746491078 -0.2144910476 -0.01834264582 -0.1435683949 0.01573599203 0.2395799871 0.1162866571 -0.01099833411 -0.2188119013 0.09726039381 0.1031280455 0.0104322878 -0.003744480701 -0.0461530938 0.001985428551 0.002532435181 -0.01851444794
	 -0.6045620233 -0.508649051 1.171659381 -0.2911461174 0.5877054348 -0.6229205306 -0.1893075659 0.6434633325 0.1549347025 0.5991056704 -0.3665152742 0.02973800338 -0.3935397331 -0.06476812419 -0.1691955406 -0.02487328893 -0.07081299259 -0.021768305 0.231205826 0.1563317046 -0.001214107257 -0.1581592392 0.08640812469 0.07086768666 0.009431033589 -0.005514143834 -0.01802615585 0.0007610151141 -0.0210757611 -0.0001980552159
	 -0.5987866048 -0.4737285456 1.10801226 -0.3126988424 0.5062702255 -0.5814164603 -0.1238741226 0.5671826326 0.1705737048 0.500615211 -0.3338381587 -0.008872852368 -0.2802148245 -0.06104239083 -0.06365117198 -0.02496421949 0.05064256567 -0.06689790299 0.1325176917 0.1416521367 0.01223593388 -0.001862201588 0.02685825184 -0.01050410154 0.002840646831 -0.004441656847 0.03273781613 -0.00136290181 -0.0405562463 0.02693917799
	 -0.5944900686 -0.4400498392 1.026750479 -0.3257536026 0.4107573652 -0.5130589057 -0.05547776272 0.462597129 0.1738733442 0.3726457613 -0.2787343188 -0.0421453183 -0.1538286512 -0.05213984705 0.03286355741 -0.0208416963 0.1423179086 -0.09236119341 0.02664526031 0.0974152942 0.0197673861 0.1196556889 -0.02716813293 -0.0691430099 -0.003051677648 -0.001744812723 0.0528267257 -0.002102502065 -0.03010660705 0.02885686173
	 -0.5895327169 -0.4095577089 0.9553682149 -0.3378675116 0.3243372402 -0.44909709 0.00606843754 0.3631308977 0.1738604684 0.2543614651 -0.2237687529 -0.06528072661 -0.04956656292 -0.04172644399 0.09555168142 -0.01497045566 0.1821825416 -0.09408857571 -0.04781535742 0.04708708693 0.01989130931 0.1662205997 -0.05497269015 -0.08609896101 -0.005947654974 0.001063684015 0.04105525174 -0.001468798014 -0.002451475553 0.01144570243
	 -0.5834211952 -0.3815677096 0.9013048755 -0.3531142643 0.2500575964 -0.3996690482 0.06317497761 0.2750035485 0.176227578 0.1510201767 -0.1748161889 -0.08237614045 0.03377944989 -0.03121219657 0.1316884596 -0.009171734293 0.1849023997 -0.08108728227 -0.08819972628 0.004602821927 0.01555877679 0.1565700122 -0.05984200891 -0.07498066583 -0.006297074384 0.00276154696 0.02157954965 -0.0005581683502 0.01575961613 -0.002691553984
	 -0.5760955154 -0.3550535685 0.8659041211 -0.3747235938 0.1853334279 -0.3673266659 0.1213900256 0.195097425 0.1842135317 0.05662368737 -0.130811545 -0.09810387127 0.1072195053 -0.02017163027 0.1525549636 -0.003648060325 0.1625835191 -0.05684765856 -0.1056725881 -0.0323092661 0.008052738446 0.1083508215 -0.04804318366 -0.04424415548 -0.004780778887 0.003279191443 -0.0007922257593 0.0003367608324 0.02363058974 -0.01181804743
	 -0.5675050023 -0.3290708194 0.850266008 -0.4055388445 0.1277530612 -0.3539945174 0.1856244168 0.1203636101 0.2004754115 -0.03419583991 -0.09081955919 -0.1164080633 0.1797467146 -0.0084169172 0.1672829072 0.001334397936 0.1255202187 -0.02468734206 -0.1084954303 -0.06515482876 -0.001589986198 0.0359393305 -0.02493009246 -0.0006392809617 -0.001956923111 0.002627837331 -0.02381004369 0.001063763806 0.02209988717 -0.01640690235
	 -0.5577676999 -0.3029528897 0.8531117127 -0.4462159876 0.07520180811 -0.358582079 0.2573100854 0.04878818213 0.2244518127 -0.1235745365 -0.0536138263 -0.137464873 0.2527683733 0.003891040173 0.1783723523 0.005504232851 0.08032845794 0.01144338319 -0.100339935 -0.09191609197 -0.01187732963 -0.04577691704 0.004011664317 0.04729301296 0.001536332011 0.0009776475708 -0.04389535752 0.001503934227 0.01268779232 -0.0167661672
	 -0.547406562 -0.2765040252 0.8674388206 -0.492888766 0.02553632142 -0.3732053307 0.3310118922 -0.01998309111 0.2488611575 -0.207888476 -0.01677364694 -0.1539968988 0.314115847 0.01622449925 0.1771857635 0.008800083284 0.02882037368 0.04582502567 -0.08063514168 -0.1048148639 -0.0199094071 -0.1150018446 0.03095001357 0.08460419535 0.004623153034 -0.001028484209 -0.05354903358 0.001521194755 -0.0005658516609 -0.01282665035
	 -0.5372763543 -0.2499800986 0.8814127958 -0.5377791074 -0.02319278578 -0.3843346428 0.3953422383 -0.08449047973 0.2610311122 -0.2783625814 0.02269838537 -0.1529181145 0.3409272276 0.02771274265 0.1471083876 0.01134253426 -0.02993874905 0.07112380949 -0.04669723963 -0.09199415472 -0.02167208437 -0.144322857 0.04613034231 0.09155680017 0.005874573362 -0.002337404214 -0.0426180373 0.0009666622052 -0.01147089093 -0.004323187711
	 -0.5279808456 -0.2237669137 0.8864822002 -0.5749912673 -0.07192862428 -0.3822907187 0.4419931891 -0.1433218001 0.2528144347 -0.3289144098 0.06590624838 -0.1269093563 0.3198916221 0.03746035638 0.08031573845 0.0131558892 -0.09454366726 0.08290412218 0.001270322167 -0.04939999266 -0.01540808882 -0.1208502874 0.0444606429 0.05955201165 0.004613384506 -0.002367297908 -0.008246076701 -0.0001274533476 -0.01603293613 0.00772541271
	 -0.5195430179 -0.1983929538 0.8818273996 -0.6033172623 -0.1195109917 -0.3666430789 0.470349958 -0.1952488555 0.2269350291 -0.3599941324 0.1094461394 -0.08243931561 0.2606998022 0.04448378756 -0.009292043053 0.01395179688 -0.1556559199 0.08214523617 0.05497351247 0.01000114624 -0.004056021941 -0.060714963 0.03005390613 0.003121043455 0.001689230228 -0.001535856701 0.0369748209 -0.00137970154 -0.0150185746 0.01953379361
	 -0.5118806249 -0.1750215385 0.8675155577 -0.6208524374 -0.1623735617 -0.3385569569 0.4792186106 -0.2360055566 0.1898514554 -0.3708224149 0.1455117038 -0.03221410566 0.1819389889 0.04707276345 -0.09467954662 0.01323264364 -0.1950758865 0.07068658548 0.09798637296 0.06339488587 0.007154956173 0.005991231522 0.0110899822 -0.05066542441 -0.001349064408 -0.0005087049172 0.07061531072 -0.002179114734 -0.01030292328 0.02507265641
	 -0.5050891455 -0.1550433625 0.8409766331 -0.6235225857 -0.1967052393 -0.2962231828 0.4639103152 -0.2597331814 0.1450468432 -0.3570445649 0.1663299321 0.0145542053 0.09581225559 0.04338429125 -0.1531680242 0.01061677803 -0.1950574838 0.04865423622 0.1142809635 0.09204127319 0.0142176149 0.05605897894 -0.006347182478 -0.08004783761 -0.003348781033 0.0004116183523 0.0743558249 -0.002038401628 -0.002547710063 0.01959388807
	 -0.4990741995 -0.1386660403 0.8030042812 -0.6117144639 -0.2221990146 -0.2406182203 0.4255668885 -0.2662240434 0.09487693885 -0.3196559979 0.1704305446 0.05440952373 0.008425487985 0.03351055931 -0.1782323685 0.0062311688 -0.1531203222 0.01779499362 0.1000806407 0.09124045619 0.01595038025 0.08102801645 -0.01943594977 -0.0786959358 -0.00394675133 0.001126179073 0.04608476434 -0.0009725914967 0.006690394776 0.004259207011
	 -0.4933794155 -0.1245882499 0.7603676578 -0.5925940848 -0.2426471863 -0.1783257037 0.3746570026 -0.2627221742 0.04285398364 -0.2683121598 0.1633275151 0.08768597208 -0.07601192693 0.01988946809 -0.1782913056 0.0007168480673 -0.08379150642 -0.01698973125 0.06513153161 0.0694543908 0.01352404229 0.08418446734 -0.02750089918 -0.05387410311 -0.003393814547 0.00152507825 -0.001185618404 0.000525580621 0.01405805279 -0.01413630315
	 -0.487536543 -0.1112236775 0.7204302372 -0.5741241547 -0.2624166832 -0.1165793649 0.3226323453 -0.2573159472 -0.007602088238 -0.2137733441 0.1517101385 0.1155497034 -0.1538055581 0.005393619395 -0.1652170095 -0.00513750504 -0.005663661139 -0.05020024357 0.02262005822 0.03840270689 0.008778327888 0.07252727754 -0.03072868574 -0.01705261697 -0.0021305928 0.001512744361 -0.05054097631 0.001880862849 0.0164809475 -0.02818308085
	 -0.4814049677 -0.09774876328 0.6863725947 -0.5596421345 -0.283093876 -0.05918869541 0.2745809754 -0.2527304378 -0.05383252681 -0.1615116295 0.1384221307 0.1371059269 -0.219222158 -0.007915065062 -0.1451831015 -0.01043577262 0.06671579448 -0.07663634321 -0.01789160165 0.00623406993 0.003135696654 0.05075518775 -0.02878861367 0.02087808321 -0.0005546567106 0.001086612667 -0.08419351073 0.002585409473 0.01284320869 -0.03214552917
	 -0.4751787569 -0.08415849059 0.6571850251 -0.5477032246 -0.3030749001 -0.006948134566 0.2292751413 -0.2457902943 -0.09313653406 -0.1119268263 0.1220981907 0.1484519651 -0.2624637975 -0.0185581003 -0.1178924564 -0.01403432948 0.1217870864 -0.09063855731 -0.05028013583 -0.02240465895 -0.002402673177 0.02078139481 -0.02052049447 0.04923912917 0.0009696898522 0.0003601458925 -0.08254715233 0.002175530802 0.004097646368 -0.02184550011
	 -0.4690606653 -0.070563752 0.630769983 -0.5362160042 -0.3207889397 0.04065858804 0.1841318949 -0.2329227149 -0.1241467868 -0.06381973242 0.1010734107 0.146877015 -0.2770913367 -0.02571064263 -0.08291730522 -0.01520526642 0.1529215507 -0.08971572616 -0.07126829328 -0.04449143721 -0.006983209285 -0.01324745394 -0.006840686376 0.06203367182 0.002170745391 -0.0004705955295 -0.04263943584 0.0007114092599 -0.006908203387 0.0006123726762
	 -0.4630131237 -0.05660329364 0.6065273045 -0.5256671199 -0.3375191721 0.08479937104 0.1385945573 -0.2146420446 -0.1486374912 -0.01621954999 0.07600534904 0.1341069801 -0.2663228549 -0.02951288523 -0.04314021091 -0.01417873902 0.1608007056 -0.07669394046 -0.08042633126 -0.05805845815 -0.009933613309 -0.04332642426 0.008063255484 0.06108136779 0.002938132721 -0.001204028842 0.01311229682 -0.001049297868 -0.01647569285 0.02551719792
	 -0.4568861496 -0.04166653421 0.5850904086 -0.5179680992 -0.35613503 0.1274396016 0.09259858659 -0.1932616205 -0.1699302563 0.03252920283 0.04767660234 0.1125460306 -0.2354481807 -0.03042297107 -0.0008719418782 -0.01137919549 0.147203845 -0.05452232899 -0.07717368372 -0.06104502043 -0.01066648184 -0.06096928119 0.01926417966 0.04896790117 0.003088503808 -0.001565496153 0.05645354147 -0.002198394571 -0.02018531653 0.03999579483
	 -0.4505115443 -0.02499650716 0.5678961445 -0.515464044 -0.3801711619 0.1713459749 0.04554403665 -0.1713210733 -0.1920436685 0.08546144507 0.01574503386 0.08337193328 -0.1880344558 -0.02897622548 0.04490142425 -0.007025436546 0.1125824832 -0.0234099562 -0.06012330864 -0.05163756195 -0.008804142271 -0.06084216427 0.02352701918 0.02576745353 0.002356363835 -0.001284202054 0.06865731731 -0.002145779384 -0.01433591278 0.03383980111
	 -0.44367105 -0.005351254003 0.5576381873 -0.5213075076 -0.414513657 0.2196430416 -0.002568630754 -0.153222478 -0.2210980362 0.1468494955 -0.01989749902 0.04932044201 -0.1321017822 -0.02663477488 0.09937872964 -0.00169763925 0.06313701075 0.01760366985 -0.03204752697 -0.03298864335 -0.005237145082 -0.04894460328 0.02346565173 -0.005792083939 0.0009668990408 -0.0006414584514 0.05712492203 -0.001325940616 -0.002948784322 0.01403712689
	 -0.4362645459 0.01783486435 0.5556510408 -0.5367897041 -0.4613501478 0.2737252033 -0.05138094389 -0.141626734 -0.2602880861 0.2183705021 -0.05872486875 0.01294790117 -0.07435899685 -0.02449517225 0.1649896195 0.004022953495 0.005576344446 0.06788241647 0.003178133095 -0.009012952218 -0.0009672673028 -0.03233844427 0.02218324058 -0.04208588775 -0.0007625811931 3.719492461e-05 0.03383448142 -0.0003059308939 0.009115125252 -0.009852693905
	 -0.4285559458 0.04271851778 0.5587226581 -0.557390387 -0.5140702151 0.3295096712 -0.09916788963 -0.1338349161 -0.3028920817 0.292171097 -0.09754957179 -0.02347161366 -0.01735469445 -0.02217019639 0.2307830046 0.009433654397 -0.0531898834 0.1190502216 0.04031213691 0.01680695531 0.003354152677 -0.01326746334 0.01951228787 -0.07646039091 -0.002541688118 0.0006670657179 0.003887507197 0.0007054661806 0.01962127942 -0.03304732066
	 -0.4212921966 0.06420636158 0.5578919886 -0.5707875821 -0.5541899201 0.3748648733 -0.1409867554 -0.1215555206 -0.3293178911 0.3462211892 -0.1279732548 -0.05537207787 0.03616434677 -0.01797775275 0.2665684563 0.01302647281 -0.09911798375 0.1496418828 0.06796512736 0.03744643029 0.00656129844 0.005860563281 0.01372759961 -0.09305983476 -0.003684795407 0.001087831803 -0.02367520748 0.001406744587 0.02430702267 -0.04594602414
	 -0.4152775342 0.07689034818 0.5435935841 -0.5640026917 -0.5621146891 0.3967540097 -0.171367685 -0.09623332516 -0.3189698214 0.3572024327 -0.1409980476 -0.07781455663 0.08297995687 -0.01020255226 0.2412316355 0.01320763106 -0.1176388942 0.1374709245 0.07430880699 0.0455168832 0.007396860519 0.02232734365 0.003206457791 -0.07526896768 -0.003464959142 0.001099981727 -0.03875977882 0.00144859661 0.01809210814 -0.03723267227
	 -0.4105317947 0.08076847532 0.5156222862 -0.5372361244 -0.5380296133 0.3954020575 -0.1903334364 -0.0583872109 -0.2730453102 0.3263423949 -0.1369618454 -0.09061866724 0.1219928149 0.0007433252112 0.1592804336 0.01013316119 -0.1099072412 0.08532082501 0.06025337034 0.04140602462 0.005909061015 0.03587316664 -0.01148101148 -0.02565496195 -0.002009310313 0.0007481415025 -0.0421248295 0.0008517107199 0.001081426854 -0.007065280837
	 -0.4063905369 0.08048140091 0.4821863189 -0.5018747954 -0.4994235724 0.3824282548 -0.2024223334 -0.01651708084 -0.2119014528 0.2759394548 -0.1243065936 -0.0970273551 0.1529178856 0.01208721128 0.05734696341 0.005855301488 -0.08982688845 0.01874754233 0.03750968444 0.03161790312 0.00349172128 0.04602998687 -0.02616252788 0.03259129057 -0.0001441457872 0.0002847678076 -0.04004204026 5.463225367e-05 -0.01867569805 0.02883034781
	 -0.4023599103 0.07939337338 0.4499953132 -0.4659739814 -0.4598414124 0.3662406019 -0.210268082 0.02234611284 -0.151779006 0.2224253554 -0.1092198383 -0.09760666788 0.1722534401 0.02043847069 -0.03253604425 0.002675301512 -0.0658740245 -0.03937632517 0.01449711315 0.01950089543 0.001530046038 0.04620431683 -0.03306149555 0.07151972938 0.001522723579 -0.0001409425879 -0.02678157484 -0.0004605189213 -0.02700720908 0.04555547027
	 -0.3983053269 0.07850880246 0.4210339918 -0.4321986642 -0.4235550491 0.3494255433 -0.214602277 0.05562932145 -0.09823260737 0.1714123988 -0.09357395068 -0.09236773353 0.1778850522 0.02458164223 -0.09752025839 0.001205369963 -0.04139026236 -0.08004824575 -0.005518327775 0.006425308072 0.0003484704523 0.03443183542 -0.02954154437 0.08109064849 0.002648444308 -0.0004682347904 -0.001796252498 -0.0005699977347 -0.01988271904 0.03597764998
	 -0.3941913023 0.07832491967 0.3950631403 -0.4022385833 -0.3914611183 0.3333274372 -0.2168555256 0.08331507533 -0.05184282343 0.1253515635 -0.07805287236 -0.083797961 0.1728813997 0.02585289059 -0.1374743346 0.0004589359783 -0.02080529028 -0.1038517063 -0.02032305103 -0.004650219297 -0.00051175533 0.01921440809 -0.02132019768 0.07233171169 0.00298805597 -0.000616287312 0.0189044049 -0.0004757299688 -0.008389604288 0.01787788336
	 -0.3900074625 0.07907730643 0.3715587469 -0.3761620351 -0.3632928948 0.318496652 -0.2182961074 0.1069039458 -0.01069455196 0.08351850682 -0.06251726936 -0.073243908 0.1599088635 0.02530779375 -0.1571417841 -0.0001764755711 -0.004706751158 -0.113796509 -0.02999051958 -0.01290708145 -0.001312082175 0.00466167827 -0.01162338941 0.05340497054 0.002607850571 -0.0005889050845 0.02945865574 -0.0003130050437 0.001710293226 0.0007954920088
	 -0.38571584 0.08110556209 0.3503795489 -0.3534687421 -0.339068662 0.3055932462 -0.2202906042 0.128488067 0.02774157215 0.04403486896 -0.04666094055 -0.06116480957 0.1409084205 0.02349248814 -0.1623225655 -0.0008519674662 0.008664313452 -0.112754918 -0.03565068112 -0.0189074272 -0.002063928003 -0.009127183235 -0.00106053639 0.02786861248 0.001752825442 -0.0004489683874 0.03249357552 -0.0001339266788 0.01005370704 -0.01432534082
	 -0.3812450358 0.0849799812 0.3317003427 -0.3340081516 -0.3194407489 0.2957517507 -0.224507159 0.150140611 0.06570411444 0.005397906916 -0.03033782737 -0.04806610849 0.1177844106 0.02087954252 -0.1579868951 -0.001666334545 0.02080009939 -0.1027488514 -0.03803371578 -0.02295337613 -0.002721272033 -0.02184833876 0.009679070607 -0.0008729060383 0.0006607440065 -0.0002570371457 0.03034452997 1.859904714e-05 0.0163068184 -0.02658975499
	 -0.3765192233 0.09131111969 0.3157678916 -0.3177731915 -0.3051807959 0.2901294362 -0.2325676929 0.1737967475 0.1053007719 -0.03384774675 -0.01329670515 -0.03421430959 0.09165541274 0.01777656232 -0.147273809 -0.002708823253 0.03274347253 -0.08437390245 -0.03727545792 -0.02495213315 -0.003212811004 -0.03261999469 0.01962048592 -0.02947861595 -0.0004910109472 -5.58942089e-05 0.02385290125 0.0001120808085 0.01951620795 -0.03400988402
	 -0.3714720491 0.1006712582 0.3027920649 -0.3046918869 -0.2969153421 0.2896914918 -0.2459404956 0.2013901003 0.1488540206 -0.07558406145 0.005037456009 -0.01936560209 0.06237699795 0.01423349312 -0.131302242 -0.004042269843 0.04539974755 -0.05648727017 -0.03296774393 -0.02452130888 -0.00342881866 -0.04021649898 0.02764902974 -0.0549423664 -0.001577927968 0.0001277358018 0.01281327504 0.0001343036258 0.01832394515 -0.03376062821
	 -0.3660396936 0.1136548886 0.2929518646 -0.2946528285 -0.2952092373 0.2953247944 -0.2661424308 0.2350706442 0.1991882959 -0.1223180349 0.02563103355 -0.002780491731 0.02861954298 0.01008696295 -0.1096105715 -0.00574493097 0.05984011387 -0.01616291464 -0.02421860775 -0.02104226688 -0.003227683321 -0.0431722913 0.03256754168 -0.07454046638 -0.002511492424 0.0002808346463 -0.003614578439 9.12676407e-05 0.01112043871 -0.02248201471
	 -0.3601607511 0.1308391435 0.2863561645 -0.2875688798 -0.3005630145 0.3078264545 -0.2946934888 0.2770075996 0.2593287667 -0.1767825219 0.04965214712 0.01648909006 -0.0115333491 0.005095521078 -0.08094253662 -0.007940746738 0.07722248112 0.04040390722 -0.009918220284 -0.01379549178 -0.002470467965 -0.03992733257 0.03316224367 -0.08564356261 -0.003215914972 0.0004028058031 -0.02609211574 2.242228365e-06 -0.003410850541 0.002585027963
	 -0.3538514848 0.1520332715 0.2826692077 -0.2830614913 -0.3123843722 0.3267564326 -0.3314008032 0.327347395 0.3298081701 -0.2396427211 0.07745873402 0.03884362058 -0.05895287783 -0.0008940773991 -0.04406131193 -0.01057437848 0.09690651683 0.113422229 0.01023542062 -0.002453776916 -0.00107505061 -0.02903575221 0.02812640473 -0.08464442098 -0.003554154135 0.0004911615962 -0.05241481127 -0.0001020229356 -0.02425819213 0.03986856732
	 -0.3474109698 0.1742468637 0.2801022456 -0.2794502675 -0.3261129797 0.347259332 -0.3697221973 0.3789804145 0.4019222412 -0.3040388141 0.1062509844 0.06266314029 -0.1103037121 -0.007770609858 0.00185075602 -0.01271596256 0.1111577731 0.1888504412 0.03349494584 0.01191187686 0.0009270250612 -0.009007827017 0.01529090294 -0.0630494073 -0.003104674883 0.000500226949 -0.07049591519 -0.0001567545187 -0.04286230524 0.07419928427
	 -0.3414700651 0.1908076796 0.274829727 -0.2731800547 -0.3318994612 0.3587650344 -0.394934682 0.4156316168 0.4553923435 -0.3539206221 0.1294464038 0.08425720727 -0.1580749581 -0.01540358804 0.05990779301 -0.01206361699 0.1010137553 0.2343122126 0.0540510848 0.02736343201 0.003598964803 0.02519728189 -0.01181825125 0.003018599327 -0.0006967442345 0.0002803075846 -0.04890780266 -2.166985287e-05 -0.03718837834 0.06653571805
	 -0.3364655948 0.1966082443 0.2637109229 -0.2614016936 -0.3221441283 0.3533106059 -0.3959140986 0.425066576 0.4749923219 -0.3773997491 0.1422393493 0.1012099254 -0.1974926249 -0.02393259611 0.1345995261 -0.006692827612 0.05050173905 0.2253546247 0.06821400722 0.04317611599 0.007176150408 0.08018377685 -0.06068548756 0.1391925957 0.004884933947 -0.0003231007772 0.04230392012 0.0004410317511 0.01305892606 -0.01894038192
	 -0.3332340515 0.1900292272 0.2479590329 -0.2450085665 -0.2959312074 0.3275787988 -0.3662317661 0.3972597984 0.4453312522 -0.3585424571 0.1363086958 0.1030990856 -0.2037561549 -0.02815459719 0.1788341506 0.0008878785467 -0.01494947134 0.1444730377 0.05866398119 0.04274111043 0.007856488794 0.09970332502 -0.08128435402 0.2057480218 0.007873788415 -0.000708279635 0.1054777271 0.0006570600074 0.05262629104 -0.08784024628
	 -0.3318287503 0.1752312259 0.2312790053 -0.2273394852 -0.2602164609 0.2875322064 -0.3132071707 0.3385572203 0.3724927912 -0.2996568647 0.1113613831 0.08578585973 -0.1659261757 -0.02459042764 0.1576465304 0.007075746945 -0.0624281504 0.005961353624 0.01823421662 0.01629911567 0.003009671147 0.04158237379 -0.034511441 0.08901901383 0.003442544414 -0.0003510823216 0.05029230047 0.0001409366846 0.02743255609 -0.04682671659
	 -0.329973258 0.1638784462 0.2161802607 -0.2112870816 -0.229246782 0.2527887011 -0.2675032509 0.288037282 0.3100070182 -0.2493565489 0.0901850791 0.07137224029 -0.1345961873 -0.02181648999 0.1422250633 0.0126817016 -0.106220366 -0.1163475778 -0.01683190842 -0.006433531092 -0.001226525428 -0.00891255835 0.006330710515 -0.01320011803 -0.0004430766153 -5.831070473e-05 -0.001236136475 -0.0003305298167 0.001931181404 -0.004693571339
	 -0.3272016959 0.1582983619 0.2032739075 -0.1975147128 -0.2060993061 0.2276373297 -0.2358610533 0.2543789738 0.2697862158 -0.2184627045 0.07783349362 0.06472091029 -0.1208547347 -0.02169088667 0.1477908441 0.01778013132 -0.148363177 -0.2040911059 -0.0380654906 -0.0186229662 -0.003405837958 -0.03190014406 0.02406991858 -0.05451254871 -0.001913586797 -2.469224028e-06 -0.01920253961 -0.0005508265333 -0.007247943662 0.01034784872
	 -0.3239890144 0.1559652115 0.1921820748 -0.1858039544 -0.1883922582 0.2088332514 -0.2130806817 0.2310003835 0.2427098723 -0.1986027316 0.07028336606 0.06175242868 -0.1151973209 -0.02250739323 0.1593701181 0.02186525346 -0.1825135039 -0.2649735345 -0.05103886964 -0.0252453124 -0.004506902607 -0.04197511326 0.03128572914 -0.0692091296 -0.002360229281 -1.064777201e-05 -0.0242390733 -0.0005753939384 -0.01046377398 0.01588857402
	 -0.320702291 0.1545773254 0.1823624405 -0.1759162399 -0.1739966728 0.193749866 -0.1950062212 0.2128475632 0.2219003616 -0.1836735484 0.06466234435 0.0597813813 -0.1113890651 -0.02322484549 0.1678008367 0.02469687286 -0.2049681688 -0.3034533573 -0.05892174662 -0.02908549736 -0.005008145061 -0.04659835732 0.03426156198 -0.07413994318 -0.002459196417 1.846889944e-05 -0.02531643651 -0.000375881434 -0.01176092031 0.0188362752
	 -0.3175393764 0.1527842754 0.1734092281 -0.1676245741 -0.161555611 0.1807904355 -0.1791796482 0.1970103263 0.2034839578 -0.1703317294 0.05943787442 0.05748631336 -0.1063909304 -0.02338123065 0.1690945896 0.02624107964 -0.2145643778 -0.3222055201 -0.06320370339 -0.03136740666 -0.00509142991 -0.04861259914 0.03529538706 -0.0752408851 -0.002443190492 0.0001288250667 -0.02483600739 7.999524242e-05 -0.0119004762 0.02047988192
	 -0.3145254001 0.1503668131 0.1651017928 -0.160609589 -0.1504005284 0.1691292401 -0.1644797414 0.182156623 0.1858031024 -0.1571925503 0.0540356539 0.05444979021 -0.0993322887 -0.02288974134 0.1629134247 0.02666474092 -0.2127877606 -0.3250132913 -0.06489583721 -0.03270171354 -0.00487991794 -0.0492661021 0.03536494672 -0.07477407793 -0.002397490785 0.0003235615141 -0.02354672705 0.0007647805958 -0.01114825291 0.02113547586
	 -0.311553301 0.14801813 0.1573706649 -0.1544555691 -0.1403700821 0.1584714655 -0.1507225192 0.1680278329 0.1687082485 -0.1441785518 0.04852531796 0.05083952745 -0.09076487402 -0.02190601901 0.1513753499 0.02628830563 -0.2032024365 -0.3172014208 -0.06492030762 -0.03344386299 -0.004506319248 -0.04926297034 0.03503094845 -0.07379213505 -0.002356803726 0.0005780478791 -0.02199974866 0.00159117331 -0.009993441822 0.02137457441
	 -245.9869978 42.75184706 -35.71718347 11.70425677 10.10457478 -5.541390245 5.055600248 -3.605178931 -3.600296844 2.348477395 -0.8886454179 -0.5094562395 1.064518684 0.1326199369 -1.099865768 -0.09666529886 0.9937235582 1.29750233 0.2321133006 0.1059554179 0.0239254726 0.1572530145 -0.1139968118 0.2368119753 0.009654769016 -0.0002248032423 0.07251449474 -0.0007329622962 0.0326588515 -0.05943384327
	